185 100
如何 -0.000698764 -9.23974e-05 -0.00457745 0.00383842 0.000904581 0.00039576 0.00459115 -0.00408075 0.00186116 -0.00034158 0.00465825 -0.000668366 -0.00167658 -0.000832972 0.00494343 -0.00161922 1.92852e-05 -0.000595032 -0.00108514 -0.00252431 0.0049546 -0.00490089 0.00145967 0.00264681 -0.00487835 -0.00274869 0.00301383 0.00343111 -0.00490777 0.00460968 -0.00196142 -0.00347812 -0.00227919 -0.00355136 -0.00149072 0.00107754 0.00243769 0.00292215 -0.00329711 0.000506578 -0.00236541 0.00334013 0.00124936 0.00216825 -0.00282592 0.00191619 0.00355251 0.00207534 -0.00078846 0.00478284 0.00161408 0.00494812 0.000794863 -0.000991237 0.00175417 -0.00120352 -0.0016616 -0.0011586 0.000937167 -0.00220887 -0.00215687 -0.00437094 -0.00298853 -0.00365357 -0.00120014 -0.00324737 -0.00242417 0.00255708 -0.00278269 -0.00194021 -0.000430879 -0.00445 -0.00102305 -0.000645957 0.00290442 0.00229676 0.000432907 0.000865676 -0.00375732 -0.0038193 -0.00103845 -0.00487706 0.00326985 -0.000463714 0.000125048 0.00196512 0.000365499 0.000353029 -0.00135832 -0.0012509 -0.00149323 -0.000768932 0.00174003 0.00363386 -0.00263527 0.000470718 -2.98574e-05 -0.00488704 -0.00370536 -0.00382234
得 0.00128631 -0.000576184 -0.00191509 -0.000131012 -0.00315508 -0.00173119 -0.000317079 0.00139177 9.18366e-05 -0.0016242 -0.00214532 0.00391673 -0.00384269 0.00102939 0.00284233 -0.00238275 0.00112074 -0.00441552 0.000934441 0.00429822 0.00230467 -0.00451493 0.00266354 -0.00240642 0.00403103 -0.000879333 9.19934e-05 -0.00442451 0.00198258 0.00306472 0.00268179 0.00327144 0.00363268 0.00425533 -0.00411481 -0.00180742 -0.00211246 0.00375617 -0.0035138 0.0010318 -0.000934456 0.00447825 -0.00268806 0.00201699 0.00464851 -0.00232489 0.0021317 -0.00401112 -0.00381504 -0.000631941 0.00181164 -0.00415769 0.0047177 0.00479123 0.000888635 0.00219557 -0.00488385 0.00398411 -0.00199735 -0.00261325 0.000263884 0.00436865 0.000982496 0.00483612 -0.0010119 0.0023954 -0.0034857 0.00419941 0.00208544 -0.00173511 -0.00207309 0.00450424 0.00039474 -0.00133333 0.00204146 -0.000253753 -0.0040496 -0.000117087 0.00486368 0.00339603 0.00463166 -0.00444667 0.00136678 8.38555e-05 -0.00442334 0.00121793 0.00294725 0.000157727 -0.00110214 0.00116069 -0.0037613 0.00248324 -0.00449285 0.00473545 -0.00414394 0.000103701 -0.00145121 0.00483826 0.00293242 -0.00169322
别人 -0.00417201 -0.00495643 -0.000610569 0.00219844 0.00245439 4.13069e-05 0.00255148 -0.000809907 0.000118942 0.00428728 -0.00340062 0.00257495 -0.00312259 -0.00226911 -2.706e-05 -0.00434713 -0.00118258 -0.00246394 -0.000614791 0.000864229 -0.000119734 0.000627245 0.00305893 -0.0011613 0.000944377 -0.00402696 -0.00063685 0.00243405 -0.00057426 0.00310818 0.00392307 0.00172329 -0.000778575 -0.0039626 0.00297239 -0.000602101 -0.000315906 0.0018614 0.000806912 -0.00139263 -0.00273154 0.00262907 0.00309465 0.00227993 0.00352258 0.00491841 -0.00173325 -0.000248258 -0.00177427 0.00305829 0.00057399 -0.00300257 -0.00208091 -0.00255154 -0.000835912 -0.00268078 -0.00395608 0.0034342 -0.00033127 -0.00292565 0.00171226 0.00379086 0.00444233 -0.00492117 0.00223868 0.00282838 -0.00224625 0.00417788 0.00348997 -0.00242288 0.00111786 -0.00433532 -0.00182511 0.000449631 0.00143848 -0.004265 -0.00454352 0.000729884 -0.000264917 0.00365428 -0.00117284 0.00141866 0.00361639 0.00436089 0.00473643 0.0019399 -0.0045892 -0.00486003 0.00432536 0.000362418 0.00443946 -0.00355238 -0.00237296 -6.67693e-05 -0.0040843 0.00383615 -0.0033761 0.00248041 0.00283309 -0.00283036
一 0.000911479 0.00218677 -0.00350073 0.00405453 -0.00431913 0.00340881 -0.00194458 0.00413739 0.00161864 0.0049188 -0.0017805 0.00234647 -0.00377595 -0.000261374 -0.00146801 0.00245997 0.0023226 -0.00141072 0.000992289 0.0048708 0.00308143 -0.00176136 2.41718e-05 0.00146074 0.00297939 -0.00210144 0.0046212 0.00390323 3.62208e-05 -0.00141976 -0.00192787 -0.00472278 -0.00372205 0.00485776 0.0042074 -0.000598919 0.00469622 -0.00159101 0.0042821 0.0031765 -0.00409193 0.00365103 0.00295785 -0.00193636 -0.00378547 0.00468321 -0.00417084 -0.0024833 -0.00448947 -0.0019932 0.00196456 0.00372886 0.00398471 -0.000957892 -0.00312432 -0.000427914 0.000584511 0.00448113 0.00379425 -0.00329585 -0.00212626 0.00340654 -0.00317852 -0.0036549 0.00145411 0.00141694 0.00411695 -0.000978811 -0.00103021 -0.00118242 0.00141873 0.000365916 0.0045363 0.00218259 0.000704904 0.00161911 0.00477131 0.00213198 -0.00416027 -0.000123114 -0.00475072 0.00450284 0.00482502 0.0023392 0.00208344 -0.00246454 -0.00324375 0.00455397 0.00460097 0.00250085 0.00336542 -0.00027986 -0.00207243 -0.000784649 -0.00333349 3.90768e-06 -0.00155366 -0.000983683 0.00439029 0.00353785
的 0.00397867 0.00381992 0.000167123 0.00289334 -0.00371107 0.000154485 -0.00335831 -0.00033892 -0.00101239 0.000509604 -0.0040474 0.00443552 -0.00190731 -0.00488782 0.00383197 0.00366212 0.00342106 0.00420116 0.00357245 -0.00490551 0.000651299 0.00450049 0.00148168 -0.00262466 0.00415983 0.00152562 7.73462e-05 -0.00314742 0.000971853 -0.0035148 0.00217093 -0.00497534 -0.00287269 -0.000201246 -0.0039206 0.00261414 0.000794687 -0.0043561 -0.000404811 -0.00392701 0.00248428 0.000701914 -0.00321347 -0.000945406 0.000473992 0.00083282 -0.00273417 -0.00357982 -0.00155897 -0.000382147 -0.00301776 0.00336105 -0.0028052 -0.00140044 0.00062709 0.000980372 -0.004641 0.00147528 0.00294534 0.00236453 -0.0014695 -0.00158627 0.00202356 -0.00226727 -0.0019039 0.00463645 0.00243687 -0.00476327 -0.00326287 -0.00301955 0.00383877 0.00414028 -0.00248968 0.000544216 0.00263308 -0.000617201 0.00290973 0.00491773 0.00392458 0.00497104 -0.0030763 -0.00490301 -0.000177708 -0.00294895 0.000171193 -0.00345776 -0.000927087 0.00228758 -0.00251513 -0.00490165 -0.00233841 -0.00267876 -0.00265468 0.00263008 -0.00248746 -0.000318847 -0.000306375 0.00166562 0.00259855 -0.00428088
？ 0.00485223 0.00251019 -0.00486591 -9.72626e-05 -0.00155335 0.000517717 0.00155104 0.00475944 -0.00139278 0.00478976 0.000443458 0.000105992 0.00353428 -0.00233919 -0.00428618 4.18029e-05 0.000117187 -0.00390325 0.00012323 0.00462988 -0.00226317 -0.00344944 -0.00168889 0.00127245 -0.000624803 -0.00288288 -0.000598833 0.00212652 0.000938353 0.000559307 2.0059e-05 0.00377872 0.00402104 0.00394086 0.00196786 -0.00420376 -0.00172151 0.00193491 -0.00105292 -0.000175027 0.000784224 0.00499065 0.00159659 0.00054844 0.000460367 0.00299103 9.97375e-05 -0.00406008 -0.00205721 -0.0048587 0.00212511 -0.00277631 -0.00101747 0.00481234 0.00216481 0.00233272 -0.00214073 -0.000611856 -0.00429715 0.00404726 -0.00164109 -0.00149385 0.00419065 0.00442279 0.00387593 -0.00119771 -0.0028237 0.00487576 0.00326235 0.00149797 -0.000740912 -0.000947346 0.000490896 -0.0040445 0.00289589 -0.00168685 -0.000623218 0.00397875 -0.0024857 -0.00228243 0.00388793 0.000982503 -0.000306241 -0.00417463 -0.00360462 -0.00246647 -0.00266564 -0.00157912 -6.98968e-06 -0.00319694 0.00116743 0.00436708 0.00470912 -0.000928528 0.00368653 0.00316311 0.00266313 -0.00460376 -0.00473684 0.000748239
你 -0.00142422 -0.00408874 0.00143199 0.00196447 -0.00126221 0.00269179 -0.00221724 0.00139202 0.00479546 0.004602 -0.000563429 0.00434594 -0.00289728 0.00441872 -0.00114225 -0.00432158 0.0016552 0.00364954 0.0010615 0.00362921 -0.00223453 -0.00218537 0.000954927 -0.0011315 0.00293592 0.00379024 0.00341148 0.0035047 0.000302529 -0.00261825 0.000642164 -0.00144471 -0.00240287 -0.00320899 0.000817594 0.00127813 0.00122505 0.00157719 -0.00232648 0.000794341 -0.00293226 0.00252648 -0.00144792 -0.000914641 -0.0044148 0.00142772 -0.00269689 -0.00454187 -0.00148053 0.000859878 0.00125125 0.00220684 0.00280173 -0.000255576 -0.00397605 0.00112805 -0.000578428 0.00194111 -0.00434086 -0.00284884 -0.00286748 0.00323201 0.00310644 0.00207124 0.000986602 0.00154028 0.00437337 -0.000701014 0.00259969 0.000537686 -0.00432494 0.0036167 -0.00100454 0.00350655 -0.000664219 0.0020036 -0.00170991 0.00423023 -0.00292035 0.00221455 0.00246659 -0.0021194 0.000818163 0.00236579 -0.000365046 -0.00432348 -0.00101472 -0.0021892 -0.00207395 -0.00106382 -0.00283186 -0.00288011 -0.00457259 -0.000913309 0.0023423 0.00073888 0.00402963 -0.0035549 0.00229275 -0.00212614
哪些 -0.0045854 -0.00397589 0.00102183 0.00387543 0.002843 0.00490918 0.0024523 0.0025307 0.00188309 -0.00361346 0.00165396 0.00264849 -0.00232199 0.000862161 0.00163024 -0.00477439 -0.00424483 -0.000464283 0.0030061 0.00145837 0.00161894 0.00135866 0.00474246 0.00366746 0.00205695 -0.00317637 -0.00109065 -0.00217076 0.000279029 9.28019e-06 0.000418213 0.00460187 0.00377641 0.00196069 -0.00331773 -0.000285333 -0.00227051 -0.00456858 -0.00239266 0.00379324 0.00469379 0.00110717 -0.00497935 0.0011555 -0.00026455 0.00204971 0.000265946 -0.00192817 0.000117404 0.00169548 -0.00178275 -0.00370713 0.000199516 -0.00396988 -0.00308427 -0.00278989 0.00143914 -0.0012768 0.00287696 0.00458548 -0.00322829 0.000654773 -0.00289318 -0.00169222 0.000145844 -0.000593757 0.00381678 0.0023117 0.000403653 -0.000895803 -0.00372949 0.00459176 -0.00197019 0.00487938 9.1474e-05 -0.00318572 0.00324458 -0.00383169 0.000230585 0.0034852 -0.00252038 0.00190964 -0.00260507 0.00217228 0.00375662 -0.00462565 -0.00360591 -0.000572917 0.000205261 -0.00367807 -0.00045113 -0.00286112 -0.00284896 -0.00282515 0.000609324 -0.000229915 0.00339842 0.00231073 -0.000858672 -0.0013895
为什么 -0.0013235 -0.000563842 -0.00390047 -0.00225889 0.00137283 -0.00222953 0.0037535 -0.00423378 0.000228138 0.00169034 -0.00272055 -0.00343432 -0.00433057 0.00481912 0.000459599 0.00115107 -0.00279452 0.00132534 -0.00328866 0.0026266 -0.00270986 0.00132001 0.00413403 -0.00161659 0.0025232 0.00106881 -0.00454982 -0.00304607 0.00201021 0.00492682 -0.00205371 0.00486513 0.00081185 0.00441842 0.00120549 -0.00283381 -4.02845e-05 0.00452219 0.00379218 -0.000447789 -0.0033481 0.00238544 -0.00017446 0.00173584 0.000244956 -0.000439925 -0.00459196 0.000266329 0.00497786 0.00111433 0.00286157 0.00353711 0.00155549 0.00211333 0.00133625 0.00240377 -0.000588404 0.00249781 0.000848349 -0.00205757 0.000465186 -0.00375287 -0.00212787 0.00217947 0.00320864 0.00482446 0.000969015 -2.42559e-05 0.000700204 -0.00190188 -0.00217934 -9.30498e-06 -0.00476368 -0.00191305 -0.00278195 0.00390114 0.00471437 0.00134951 0.0038504 -0.00221751 -0.00407658 0.00402503 0.00379793 0.00405407 -0.00185724 -0.0010139 -0.000815496 -0.00469766 -0.00413978 -0.00379747 -0.00206753 -0.00244531 0.00117049 -0.0018655 -0.0031216 0.00267376 -0.0020435 -0.00323452 -0.00181183 0.00419438
时候 -0.00121112 -0.000960568 -0.00460081 -0.000644036 0.0037012 0.00241833 0.0010199 -0.000683645 -7.46567e-05 -0.00439784 0.00115062 -0.00221485 -0.000842547 0.00472141 -6.38453e-05 -0.00448025 -0.000872382 -0.00192134 -0.00106074 -0.00295946 0.00395445 0.00361777 -0.00323762 -0.00139453 -0.000308601 -0.00133086 -0.000258417 0.00359025 0.00306373 -0.00215905 0.00467141 -0.00143849 -0.00306993 0.00144999 -0.00481753 0.000861849 0.00474198 -0.00427554 0.000779866 3.08659e-06 -0.00192828 0.00245366 0.0030496 -0.00390987 0.00234977 -0.00168528 -0.000268015 -0.000920056 0.00327912 -0.0028312 0.00359381 0.000247194 -0.00265647 -0.00288944 -0.00386043 0.00146781 -0.00326018 -0.00144885 -0.00159491 -0.00300713 0.00309289 -0.00240053 0.00449429 -0.000401298 -0.00123264 0.00426211 -0.00463506 0.000293585 -0.000131898 -0.000660131 -0.00220782 -0.00242988 0.000617646 -0.00126324 0.00432323 0.00297327 0.00244941 -0.000734873 0.00231116 0.00290394 0.00153484 0.00283358 0.00483393 0.00315073 0.000559395 -0.00476557 -0.000720221 0.000987716 -0.00186569 -0.00209212 0.00288315 0.000210196 0.00335472 0.00327958 -0.00407958 -0.00422104 0.00422665 -0.00168116 -0.0047025 0.0042287
男生 -0.00303921 0.000138897 0.00297891 -0.00475533 -0.000997717 -0.00422296 -0.00390234 0.00407921 0.00195844 0.00212123 0.00386188 0.00176343 0.00341619 0.000657076 2.47482e-05 0.00386218 -0.0014221 -0.00363708 -0.00488953 0.000446 -0.00288737 0.00411361 0.00137093 -0.00453645 0.00448201 -0.00464708 0.000772978 0.000360624 -0.00200346 -0.0027147 -0.000717318 0.00281221 0.00423655 0.00406862 0.000529941 -0.00450808 0.00403015 -0.00127316 0.00238314 0.00434976 -0.00454209 -0.00462634 -0.0023912 -0.00126248 0.00457527 0.000374917 -0.00178339 0.00487657 -0.00488822 0.000607585 0.00485265 0.0021227 -0.000584219 -0.00454989 -0.00143022 -0.00336086 0.00201953 -0.00329249 -0.00350373 0.00386565 -0.000780814 0.00468864 0.00127841 0.00235788 0.0014999 0.00300972 -0.000571275 0.00301212 -0.00120037 -0.00302352 -0.00134336 0.00466116 -0.00397778 -0.0023504 0.00401117 0.00157555 -0.000326474 0.0043574 0.00238661 0.000476716 0.00411518 0.00216605 0.00272921 -0.00252281 -1.84055e-05 -0.00299253 -0.00293304 -0.00051105 -0.00266682 0.00135486 0.00278575 -0.00310135 -0.00072919 -0.00264208 -0.00452448 -0.000798857 -0.00292816 0.00285114 -0.00174812 0.000431228
女生 -0.0034753 -0.00194647 0.00199916 -0.0049631 0.00298822 -0.00377687 -0.00112445 0.00493219 -0.00155157 -0.0013916 0.000125598 0.00433265 0.00426545 -0.000843171 0.00307111 0.00145851 0.0026213 0.00435421 0.00130775 0.00174572 -0.00184379 0.00289897 0.00444892 -0.000727187 -0.00282847 0.00183291 0.00188881 -0.00335428 0.00250449 0.00354423 0.00451811 0.00352063 -0.00304761 -0.000284757 0.00208121 -0.00103258 0.00105338 -0.00300654 -0.00171394 -0.000912073 0.000621679 0.00081356 0.00476383 0.00182307 0.0015306 -0.000234757 0.00411498 0.00208222 0.00406363 0.00374763 0.00376626 -0.00396622 0.00333896 0.00242925 0.000224352 0.00418523 0.00268156 0.000465944 0.000304823 -0.00291552 -0.00086504 0.00440523 0.00412543 0.00199725 0.00318244 -0.00422641 0.00313105 0.00203014 0.00343849 -0.00418982 0.000611888 4.56273e-05 -0.00475099 -0.00298924 0.00287674 -0.000483887 -6.4158e-05 -0.00413956 0.000590499 0.000323947 0.00181275 -0.00146472 -0.00236702 -0.00427973 0.000891247 0.00191022 0.00293799 -0.00202671 -0.0027609 0.0011749 -8.29171e-06 0.00209467 0.00479386 -0.00486101 -0.00298179 -0.000498406 -0.000858905 -0.0033923 -0.000117472 6.49918e-05
汽车 0.000790912 0.00310737 -0.000596563 0.00247837 -0.00453838 -0.000985248 0.00166408 -0.00147765 -0.0035679 0.00172733 0.00110518 0.00235658 0.00354686 -0.00171761 -0.000678855 -0.00172744 -0.00099673 -0.004508 0.000336102 -0.00161264 0.00158044 -0.00493053 -0.000977526 0.00243515 -0.00411792 0.000821914 -0.00454598 0.00499086 6.13863e-05 -0.000548067 0.00317765 0.00398314 -0.00264401 -0.00285509 7.93606e-05 -0.00250995 0.00313794 -0.00233701 -0.000346712 -0.00243903 0.00371911 -0.000743465 -0.00122523 0.0029455 0.000720101 -0.00323798 0.00108792 0.0039099 0.00411412 -0.00448995 2.29066e-05 -0.00140063 0.00452676 -0.00192157 -0.00115332 -0.00154928 -0.003337 0.00133664 -0.00198888 -0.00390575 -0.00312407 -0.00433688 0.00101649 -0.00305047 -0.00235106 -0.00278286 -0.00340658 0.000689375 0.000515757 0.00211123 0.00289471 -0.00347715 -0.00119263 0.00148311 -0.002188 -0.00183144 -0.00303675 0.00482186 -0.00430803 -0.000656888 0.00341253 -0.00344704 -0.00471635 0.00352288 0.00347999 -0.00337677 0.00263864 0.00267501 0.000148423 -0.00240002 -0.00486856 0.00257655 -0.00184235 -0.00058759 -0.00472461 0.000130626 0.000865829 0.00152501 -0.00441049 0.00163015
有 0.00175902 0.00100889 0.00293126 0.00423748 0.00194655 -0.00236071 0.00267489 0.00208303 2.48511e-05 0.0041777 0.000834255 0.00259262 0.00293656 -0.00193018 -0.00293815 -0.000509936 -0.00421748 0.00377489 0.00058307 0.00354346 0.000827846 0.00231764 0.00171383 -0.000248894 0.00322347 0.00037191 0.00351615 0.00396924 0.000693298 -0.00244028 -0.000414606 0.00321079 -0.00389976 0.000287264 -0.00459539 -0.0012989 -0.00185691 -0.00252356 0.00417313 0.00199799 -0.00318741 0.0038914 -0.00315887 0.00425977 0.00296516 -0.00260351 0.000958002 -0.000950783 -0.00226096 -0.00224869 -0.00430618 0.000836249 -0.00246473 0.00392587 0.00174328 0.00234831 0.00435941 0.00444843 0.00451505 -0.00349172 0.00111168 -0.0037206 -0.000631247 -0.00195746 -0.00291486 -0.00254205 -0.000500809 0.00289991 -0.000970274 0.000311375 -0.00288557 -0.000169626 -0.00277624 -0.00299517 0.00117176 0.00239588 0.00254899 0.000222334 0.00276379 -0.00308996 -0.000948461 -0.00497619 0.000833247 0.00140031 -0.00492972 -0.0046185 0.00419577 -0.00111654 -0.00239892 -0.00106926 0.00139217 -0.00382928 -0.00159133 -0.00172033 0.00470284 -0.00376922 0.00104236 -0.00101153 -0.000235382 0.00282064
前 9.20198e-05 -0.00301378 -0.00358964 0.000755132 -0.00288718 -0.00231814 -0.00362079 8.24309e-05 0.00207871 0.000928712 0.00204337 0.002544 0.0010168 0.00364885 -0.00379396 0.00347983 -0.00365484 0.00298285 -0.0015981 0.00362707 -0.00394507 -0.000813885 -0.000249839 -0.00247311 0.00110714 -0.00188209 -0.000952002 0.000633599 -0.000336681 -0.00166867 0.00301184 0.00355598 0.00214666 0.00039348 0.00457444 0.00489812 -0.00281607 0.0044764 -0.000185723 0.00414774 -0.000367591 -0.00103186 0.00340663 0.00217747 -0.00284197 -0.00149426 -0.00317616 0.00146903 0.000319985 0.00303067 0.0029211 -0.00189242 0.00022881 0.000840439 0.000592125 3.86204e-05 -0.00171381 -0.00444852 -0.00107308 -0.00243959 0.00332879 0.00427751 0.00476648 0.00133032 0.00297746 -0.00155731 0.000619937 -0.00438298 -0.00194421 0.00352984 0.00235235 0.00184509 -0.00365082 0.00114109 -0.00191465 0.00359017 -0.000468564 0.00242208 0.00127963 -0.000735004 -0.00397704 0.00377913 -0.00206875 -0.000191823 -0.00399244 0.00354691 -0.00337811 0.000577654 -0.00437699 -0.00197702 0.00467455 0.000599566 -0.00222328 -0.00214741 0.00129042 0.0015432 -0.000109079 0.00442564 -0.00322862 0.00210252
上 0.00113189 -0.00285242 0.00278759 -6.13892e-05 0.000657529 0.00151043 0.00394847 0.00371903 -0.00188606 0.00292736 -0.00146705 -0.00085559 -0.000723453 0.00186809 0.00224645 -0.00492755 -0.00200028 0.00321301 0.00139806 0.00456791 -0.00389637 0.00139165 -0.00240029 -0.00167116 -0.00262568 0.00207904 0.00249995 0.00447359 0.00401862 0.00487407 -0.00414611 -0.00333987 0.000230855 -0.0026026 0.00192199 0.000740235 0.00467807 0.00109199 -0.000449436 1.32773e-05 0.00289035 0.00309739 -0.00489422 -0.00441271 0.00379857 0.0038673 -0.000269211 0.00255338 -0.000510985 -0.000945018 -0.00148973 -0.00096491 0.00347842 0.00183054 0.00156903 -0.00260306 -0.00201286 0.00223932 0.00236258 -0.00293928 0.00457454 0.00422358 0.00330728 -0.00434636 0.00175791 -0.00140361 -0.00320524 -0.00416251 -0.000196393 0.00168804 -0.00155251 0.00466553 0.000419531 -0.00274896 -0.00215034 -0.000133955 -0.00232205 0.00156095 0.00417759 -0.00346459 0.00483239 -0.00215574 -0.00289981 0.00243477 -0.00307852 -0.00313829 -0.00191823 0.00231863 0.00121004 0.00188359 -0.00193501 0.00446747 0.00106606 0.00454067 -0.00045057 0.00215285 -0.000557603 0.00179889 0.0035754 0.00223832
， -0.00360415 0.00449675 -0.000595934 -0.000977979 -0.00357001 0.00151786 0.00409725 0.00411973 0.0023921 0.00183916 0.00462808 0.00210511 -0.00497758 -0.000275718 -0.00171592 0.00441346 -0.00193169 -3.58843e-05 -0.000176162 -0.00487974 0.0027014 -0.00282067 0.00283088 0.00256937 -0.00386585 0.00270372 -0.00107635 0.00448474 0.00136838 -0.00245418 -0.000828579 0.00163555 0.00304819 -0.00308364 -0.00351851 0.0014198 -0.00215548 -0.00378041 -0.000470146 0.00159907 -0.00133289 0.00347994 0.00149131 0.00115736 0.00158654 -0.00264051 -0.000586809 -0.000454552 -0.000502496 0.00422446 0.00284449 0.00337845 0.000352549 0.00411854 -0.00250642 -0.00065388 0.00412728 -0.00415119 0.000142478 0.00173331 0.00490749 -0.00472751 -0.00105371 -0.00051431 0.00160719 0.00329686 0.00332362 -0.0043084 -0.00149219 0.00463715 -0.00130003 0.000702568 -0.00448854 -0.00354813 -1.54924e-05 -0.00220255 0.00280907 0.000689774 0.0019404 -0.00238464 -0.000412892 -0.00233989 -0.00379171 0.000208725 -0.0041285 -0.000387048 -0.00293064 -0.000729215 0.00118275 0.00444151 0.00281918 -0.00184497 -8.00518e-05 -0.000730003 -0.00357327 -0.00435275 0.000628934 -0.00498197 0.00404761 -0.00226382
问题 0.000137096 -0.000527468 0.00297808 -0.000215853 0.0014633 0.00202674 -4.89956e-05 -0.00428759 -0.00338532 0.000929433 -0.00127639 0.000719574 -0.000605477 -0.00325003 -0.00415049 -0.00291301 -0.00442601 -0.00203472 0.00218736 -0.00384681 -0.00462343 -0.00349155 0.000516406 -0.00293165 0.000873518 0.0042116 -5.98942e-05 -0.00403627 -0.00208649 -0.00265864 -0.000103196 0.0024371 -0.000580423 -0.00205606 0.00384904 0.00225409 -0.00235716 -0.00198331 0.00451156 -0.000470812 -0.0032475 -0.00335666 0.00225677 0.000725387 -0.000867067 -0.00133592 0.0045565 0.00480532 0.00472494 0.00322433 0.00308424 0.00043846 -0.000539037 -0.00109976 0.00295524 -0.00193166 -0.00100758 -0.00233184 -0.00455489 0.00323575 0.000517641 -0.0039292 0.00311367 -0.00146623 0.000707816 0.00474403 0.00337316 -0.000430885 0.00104398 0.00180624 -0.000789941 0.00277716 0.000630531 0.000883632 0.00213672 0.00169722 -0.000631453 0.00403843 -0.00134103 -0.00360149 0.00464398 0.00174897 7.13709e-05 -0.00351571 0.00386044 -0.001181 -0.00335762 0.00235648 0.000606391 -0.00394676 -0.00487796 0.00499235 -0.000202128 0.00148632 0.0017591 -0.00476733 0.00156524 0.00179684 -0.00188512 0.00494677
大 0.00171701 -9.16254e-05 0.000449888 -0.00316332 0.00496848 -0.000544233 0.0017427 -0.00341945 0.00381053 0.00374708 0.00235578 -0.00236329 0.00372321 -0.00189575 0.00373875 -0.00337301 -0.00117254 0.00414988 0.002361 0.00261191 0.00303585 0.0037853 -0.00063751 -0.000758559 0.00459113 -0.00339192 -0.000349269 -0.00122225 0.00319281 0.00287411 0.00209411 9.71944e-05 -0.000862528 0.00146672 0.00335004 -0.00136387 -0.00021441 -0.00215986 -0.00123148 -0.000143262 0.0042602 0.00187534 0.00488354 -7.39493e-05 0.00157569 -0.000636669 -0.0032299 0.00198034 -0.00300677 -0.00235713 0.00163148 0.00168135 -0.00261404 -0.00426384 0.00126605 -0.00118906 0.000549503 -0.00338008 0.00410059 -0.000267503 -0.000967202 -0.00300338 -0.00215506 -0.00256467 -0.00418393 0.00144089 0.00358953 -0.00489799 0.00191149 0.00367727 -0.00446992 0.000977189 -0.00439863 -0.0036213 0.00294964 0.002329 -0.00483204 -0.00082973 -0.00252017 0.00396871 -0.00465531 -0.00157109 0.00370596 0.00282469 0.0010966 -0.000596741 -0.000599478 -0.00243528 0.00228747 -0.00195948 0.00282226 -0.00438667 -0.00496614 -0.00139464 8.26826e-05 0.0022282 0.00413345 -0.0045757 -0.00493744 -0.00357137
吗 0.000104315 0.0013421 -0.00492345 -0.00339802 0.00389417 0.00257027 -0.000859639 -0.00187347 -0.00452615 -0.00203778 -0.00225015 -0.00491276 0.000390673 0.00279102 0.00242784 -0.00163638 0.00141047 -0.000249514 -0.00406383 -0.00333878 -0.00230651 -0.000579675 0.00330176 0.0011777 0.00255734 0.0013421 -0.00340305 0.00448972 -0.00377582 -0.00133462 0.00272448 -0.000701727 0.00324059 0.000391168 -0.000340877 -0.000866699 -0.00476838 -0.00474122 0.00468091 -0.00491522 -0.00253458 -0.00304213 -0.00150789 -0.00348972 0.0044377 -0.00141148 0.00165067 0.00160659 -0.00390181 0.00327004 -0.00325918 -0.00177386 0.00454992 -0.00232121 0.00425918 0.00198782 0.00222095 0.000435418 -0.0016856 -0.00296254 0.0019093 -0.0025165 -0.00153059 0.00497758 0.000990767 0.00392546 -0.00100609 0.000903036 -0.00169427 -0.00191214 0.00092778 0.00182755 0.00424896 0.00279564 -0.00224748 0.0042332 -0.00372459 -0.00251008 -0.000399128 0.00381391 0.0023312 -0.00445794 -0.00127649 0.00498092 -0.00344839 -0.001212 -0.00164241 0.000260283 0.00388167 0.00374062 -0.00432712 0.00382141 0.000992242 0.00312019 0.00213087 -0.00149612 -0.00490886 -0.00379886 -0.00127792 -0.000748795
在 0.00156969 0.0022741 0.00242237 -0.00100938 -0.00386437 -0.00325565 -0.00287861 0.00219126 -0.00436791 -0.000305146 -0.00478009 -0.000921385 -0.00486034 -0.000968584 0.00395446 7.13945e-05 0.0028341 0.000680997 -0.00399388 -0.00374101 -0.000861555 0.00446476 -0.0043103 -0.00337998 0.00165636 0.000684104 0.000507835 0.00496564 0.00119385 -0.00222236 -0.00497083 0.00329552 -0.00278139 -0.0024619 -0.0021534 0.00376714 -0.00165686 0.000363756 0.00233312 -4.47246e-05 0.00309697 -0.0032547 0.00401085 -0.000894261 0.00464256 -0.000561593 -0.00486035 -0.00394145 0.00446152 0.00278587 0.00447305 -0.000391178 0.00293352 -0.0012218 0.000183166 -0.00149637 -0.00313227 -0.000584936 -0.000421849 0.00241083 -0.000440176 -0.00365027 6.61847e-05 -0.0027283 -0.00407484 0.000241263 0.00450916 -0.0019463 0.00303132 -0.00206485 0.00242367 -0.00330675 0.00315124 0.00194383 -0.00063912 -0.0028822 0.00471096 0.00282931 0.0027711 0.000955458 0.000823158 -0.00105158 0.0021224 0.00431844 -0.00191927 -0.00196587 -0.000507148 0.00301406 0.00044045 0.00362228 0.00308535 -0.00280073 -0.00195235 0.00203501 0.0023429 0.00445853 -0.000559739 -6.7404e-05 0.000227985 -0.00118437
或 -0.0011854 0.000767124 -0.00283749 0.00119104 0.000870362 0.000455241 -0.000100404 -0.00265615 -0.000172728 -0.00200281 0.000898075 -0.00486305 -0.00456662 -0.00406803 0.00439717 0.00366395 0.000181629 -0.0024683 -0.00264524 -0.00385299 0.00251003 0.00429457 0.00237696 0.00120031 0.00200134 -0.000470285 0.00303169 -0.00272813 -0.00354044 0.00256074 -0.000875022 -0.00193215 0.0013456 -1.37538e-05 -0.00384916 -0.00462205 0.00434198 -0.000347281 0.00125622 -0.00373159 -0.000560487 -0.00370985 -0.00176437 0.00434082 0.00424824 -0.00476752 -0.000556885 0.000986265 -0.00098897 -0.00185989 0.000363124 0.00315936 0.00137469 -0.0031571 0.0014235 -0.00348847 0.00273499 -0.00122976 -0.00107414 0.00175503 -0.000333501 -0.00410777 0.00486529 -0.00443862 -0.00354677 0.00084369 -0.00389812 0.00217738 -0.00389817 -0.00264737 0.00156898 -0.00146908 -0.000964904 0.000306659 -0.00252423 -0.00448139 -0.00308149 -0.00114878 0.00374817 0.00493169 -0.00294387 -0.00329065 0.00401288 -0.00343488 -0.00351428 -0.000111472 -0.00267643 0.00231087 -0.00129923 -0.00291981 0.00303226 -0.00476559 -0.00374288 -0.00397539 -0.00101892 -0.00435572 -0.00469443 -0.00226725 -0.00425718 -0.00146698
不 -0.00143183 0.00480468 2.8582e-05 0.00417352 0.00291439 -0.0036528 0.00178372 -0.00317669 0.000142139 0.000507026 -0.000737338 -0.00231943 -0.00168511 0.00113018 0.00438001 0.00336057 -0.00453702 0.00140144 0.00332475 0.00335654 -0.000945663 -0.00417563 0.00381123 -0.00145795 0.00463481 0.00434581 0.00410242 -0.000872979 0.00137308 -0.0035964 -0.0045672 0.00432883 -0.00433043 0.00285045 0.00413491 -0.000494089 0.0014926 -0.000459702 -0.00150314 -0.00380579 0.00190192 0.000231811 0.00435023 0.00427534 -0.000203227 -0.000748042 0.0042195 0.00403365 -0.00136571 0.00254676 -0.00225771 -0.00402905 0.000788146 -0.0020758 -2.34109e-05 0.00307934 -0.000840407 0.00252581 -0.00480242 -0.00181647 0.00194491 0.00220439 -0.000899122 0.00216802 -0.00286861 -0.00247717 -0.000644209 0.000271308 -0.00271269 -0.00287642 0.00319984 -0.00228856 0.00277071 0.00458777 0.00104449 -0.00337732 -0.00485715 -0.000345858 0.0040788 -0.00184995 0.00315536 -0.0049623 -0.000951048 -0.00158094 -0.00426094 0.000156902 0.00264909 -0.00248424 0.00454175 -0.00409528 0.00499434 0.00474989 -0.000968532 -0.00373545 0.00484471 0.00050214 -0.00329125 0.00146479 -0.00351142 0.00275121
适合 0.00228307 0.0032295 0.00266054 -0.000775892 -0.00432972 0.00413837 0.00341651 0.000334652 -0.00367788 0.00215753 0.00347868 -0.0047593 -0.0030046 0.00432202 0.00112158 0.00300673 0.00425663 -0.00105576 6.0439e-05 0.000142404 0.00253448 -0.000851191 0.000140931 -0.00166468 -0.000892471 0.00288281 2.64876e-05 -0.00118176 -0.00313474 0.00488383 -0.00356686 0.00454242 0.00262046 -0.00492649 0.00170508 0.000720955 -0.000781343 0.00285007 -0.000228038 -0.00444353 -0.00154014 -0.00477134 0.00167894 0.000221518 -0.00389649 0.0014278 -0.00425779 0.00490754 -0.00196322 -0.00458973 0.00374269 0.000520503 -0.0010837 0.00291502 0.00269621 0.00079954 -0.000726676 -0.00458116 0.00118047 -6.32103e-05 -0.00181093 0.00409224 0.00153678 -8.9092e-06 0.00390507 0.00423751 -0.00401352 -0.00442724 0.00139833 0.00344687 0.00454776 -0.00490473 -0.00407699 -0.00293373 -0.00206871 0.00187659 0.00406782 0.00097268 -0.00384397 0.00376514 -0.00316034 -0.000820006 0.000879696 -0.00166113 -0.00243871 0.00263899 -0.00173013 0.00285354 0.00478736 0.00125295 0.00117377 -0.00281636 -0.0022013 -0.00314387 -0.000287739 0.00205042 -0.000245591 -0.00391731 0.000280789 0.00158413
自己 -0.00290638 0.00391188 0.000462534 0.00499591 0.00215947 0.00295712 -0.000826221 0.00109753 -0.00261275 -0.00382625 0.00184375 -0.0042726 0.00475619 0.00370345 -0.00158104 -0.00432882 -0.00298276 -0.00475689 0.00026557 0.00290438 0.00328072 -5.9054e-05 -0.00120814 -0.00487963 -0.000855239 0.00196606 0.00470528 -0.00116725 0.00495698 0.00118617 0.00270642 -0.00481532 0.00282654 -0.00470134 -0.00242012 -0.00177966 8.66145e-05 -0.00434975 -0.00415328 -0.0022126 0.0014113 -0.00301929 0.00297152 0.00118104 -0.00339057 0.0037543 0.00385194 0.00345408 -0.00183803 -0.00441683 0.00137 0.00233984 -0.00345067 -0.00491544 -0.00362227 -5.32532e-05 -0.0034445 0.00237313 0.000566368 0.000720776 -0.0012678 0.00366106 0.00411288 0.00170194 -0.00413337 -0.00213743 0.00462081 -0.002989 0.00322289 -0.0043951 -0.00115963 -0.00255092 0.00343911 -0.00479383 -0.00456055 7.59793e-05 -0.00434546 -0.00298561 -0.00158471 0.00277102 -0.0031927 0.00336859 -0.0038463 0.000828308 -0.00316477 0.00275686 0.000858477 0.00229785 -0.00126916 0.000656929 0.00202106 -0.000807041 0.00340857 0.00318621 -0.00219716 -0.00280262 0.00276511 0.000909394 0.00296288 0.00468582
是 0.00355277 0.00471108 -0.00109631 0.00158594 -0.0030508 0.00100164 -0.00246106 -0.000344104 0.00194238 -0.00412617 0.00367019 0.00343875 0.00149098 0.00467932 -0.00374697 0.000343162 -0.00451959 0.00237643 0.00267005 -0.00217095 0.00266194 0.00306244 -0.000451207 -0.000422563 -0.00397879 -0.00199071 0.00440154 -0.000538795 -0.000611021 0.00326659 -0.00370042 0.00480868 0.0042729 -0.00497037 0.0025578 -0.00455822 0.00395011 -0.0036547 0.00372838 0.000684128 0.00159077 0.00424509 -0.00286813 0.00486351 -0.000360791 -0.00146999 0.00414827 -0.00138467 -0.00422668 0.00391426 -0.0024712 -0.00152655 -0.00289202 0.00208889 -0.00193075 -0.00217752 0.00276613 0.00218375 0.00204251 -0.00487501 -0.00053645 0.00382443 -0.00436957 0.0030765 0.00323593 -0.00173318 -0.000766694 0.00319863 -0.000314973 0.000805759 -0.00170305 -0.00364659 0.00395944 -0.00260541 0.00379015 0.0025699 0.00393018 -0.0035579 -0.00482167 0.00382774 -0.00151945 0.00291652 0.000424988 -0.000661798 0.000436795 0.00381384 -0.00109162 -0.00204287 -0.00162129 -0.00381411 -0.00327985 0.00271718 -0.00386816 -0.00459219 -0.00257387 -0.00345645 -0.00102636 0.00116981 -0.00333402 0.00278326
最 -0.000275567 -0.00119231 0.000957893 -0.000789641 -0.00379135 -0.00135591 0.00277638 -0.00225955 0.000241022 0.00373168 -0.00151635 -8.65428e-05 -0.00177246 -0.00294504 -0.00290805 -0.000971877 0.00340483 -0.000779224 -0.0038783 -0.00390745 -0.00193881 -0.000368932 0.00104909 -0.00447003 -0.000676321 0.000320139 -0.00309219 0.00321662 -0.000195219 -0.00412933 -0.00308663 0.00299854 -0.000532313 0.00478964 -0.00335204 0.00278058 -0.000423923 -0.00371412 -0.00154009 0.00316841 0.00357643 -0.00385107 -0.00367637 -0.00311651 0.00395725 0.00224969 -0.00369924 0.000745582 0.00316235 0.000872275 0.00219994 0.00267472 -0.00214675 -0.000427613 0.00449691 -0.00493956 -0.00492665 0.00448292 0.00489257 -0.000297766 5.22116e-05 -0.00376863 0.00485049 0.000186891 -0.0022339 0.00352729 -0.00155662 0.000791246 -0.000508528 0.00357682 0.00273158 0.0041726 0.00340412 0.00466357 -0.00205002 0.000996577 -0.000130363 -0.00350732 -0.00200175 0.0041073 -0.00466406 0.00404884 0.000498576 0.000533165 -0.00306193 0.0045691 -0.004768 -0.0048005 0.00076884 -0.00495457 -0.00286882 0.00273307 -0.00245046 -0.000224038 0.0020946 -0.00342843 0.0012188 0.000928549 0.00151679 0.00406004
被 0.00415749 0.00470621 0.00269014 -0.00267004 0.00135825 0.00246867 0.00290441 -0.00410796 -0.00403958 0.00132161 -0.00353287 0.00472521 -0.00271695 -0.00466577 -0.00159937 -0.00209731 0.00327522 0.00464647 0.000942058 -0.000160215 0.00495662 -0.000892431 0.000546302 0.00392172 0.00334349 -0.00353607 -0.00436859 -0.000984772 -0.00386759 -0.00256078 -0.000458774 0.000566296 0.00319986 -0.00350951 0.00288865 -0.00331001 9.63259e-05 0.00230787 -0.00190097 0.00464561 4.12827e-07 -0.00385685 0.00365476 -0.000967784 -0.0019951 0.000726635 -0.00409885 0.00261806 0.00185653 0.00296523 0.000147723 -0.00332558 0.0034045 -0.00109715 0.00162095 -0.00158084 0.00134217 0.000393145 -0.00320222 -0.00145802 -0.00054939 -0.000506609 0.00474279 0.00331829 -0.00037594 -0.0034121 -0.00409673 -0.0036314 0.000705366 0.00147005 -0.00489765 -0.00307392 -0.00366923 -0.0047469 -0.00177962 -0.000638381 -0.000607468 -0.00102095 -0.00280567 -0.00172121 -0.00170963 0.00286729 -0.00364664 -7.6811e-05 -0.00152586 -0.00485689 -0.0044429 -0.0041975 0.000342668 0.002625 0.00398889 0.000426533 -0.00132562 -0.00181027 0.000238553 -0.00377016 -0.000351242 0.00490405 -0.00316049 0.00464203
怎么 -0.00305362 0.00210579 -0.000955482 0.00360645 0.00179379 0.00328395 0.00234459 0.00341635 0.00430499 0.00434284 0.00250663 0.00088071 -0.0023549 0.00167034 0.00193255 0.00276502 0.00417556 0.00260401 -0.00470818 0.000765826 0.00213761 0.00346947 -0.00185853 0.00246624 -0.00265602 -0.0009658 -0.000426606 -0.00487123 -0.000893903 0.00403597 -0.00207111 -0.000439223 0.0018962 0.00344939 -0.00303559 -0.00134905 0.0010837 0.00080594 0.00164634 0.00318617 0.00462072 0.00443979 -0.00220136 0.00197328 0.00192857 -0.00317686 0.00400179 0.00237252 -0.000946119 0.0041108 0.00398291 -0.00437933 -0.00162988 0.00265183 0.00459556 0.0022324 0.00495329 -0.00224456 0.00312724 -0.00452104 0.00231834 0.000571993 -0.00438174 0.000428482 0.00169099 -0.00015875 -0.000489007 0.00328131 -0.00367135 0.000660848 0.00379405 -0.000602315 -0.00322718 0.00215235 -0.0017137 0.00195463 0.00326742 0.00206774 -0.000839935 0.00097028 0.00319269 0.00313564 -0.00367344 0.0016599 0.00435183 0.00138409 -0.000119367 -0.000147039 0.00341244 0.00287332 0.00356442 -0.00220391 0.00276267 -0.00370472 9.54654e-05 -0.000163183 -0.00451875 0.00122018 -0.000354977 0.00324428
处理 -0.00193015 -0.00497918 0.00144135 0.000982026 0.0047868 -0.00162368 0.00358118 -0.000181268 -0.004244 -0.00485807 0.00477504 0.0049085 -0.000635954 -0.00211696 0.00223336 0.00112445 -0.00205908 0.000637033 -0.00188222 0.00386296 0.00363299 -0.00438307 -0.00479862 -0.00436462 0.00133981 0.00307898 -0.000744365 -0.00116083 -0.00252169 0.00120243 -0.0031951 0.00224956 0.00152205 -0.00128581 -0.000200068 0.00275941 0.000648526 0.00156739 -0.000681907 -0.00498335 -0.00461007 -0.0043683 -0.00280604 -0.00458407 0.00346663 -0.0018196 -0.0047164 0.000970031 0.00137799 -0.00120419 0.00231042 0.00218049 -0.00143531 -0.000721467 0.00417616 0.00432911 -0.00361244 0.0036224 -0.00106064 0.00206576 -0.00412236 0.00390317 0.00209777 0.00169533 0.00176845 -0.0025713 -0.0017509 -0.001961 0.00373088 0.00259788 -0.00122249 0.00132244 0.00217426 -0.00242195 -0.00296169 0.00357789 0.00355299 -0.00312877 0.00493968 0.00164666 -0.00203422 0.00023626 -0.000653598 -0.000125716 -0.00245636 -0.00196647 -0.00320404 -0.000706426 -0.000734807 0.00278139 0.00152489 -0.00449578 0.00352774 0.00489007 -0.00115338 -0.0020451 0.00395785 0.000185535 -0.00205943 0.00406147
? 0.00396539 0.00128241 0.000193523 0.00389966 0.00494316 -0.00181804 0.00310155 0.000621382 0.00485663 -0.00418605 0.00421535 -0.000568222 -0.000879937 0.00154029 0.0045522 0.00477558 0.00234985 0.00351312 -0.00239385 0.00359668 -0.00364446 -0.00249041 -0.00428235 -0.00424826 0.00349011 0.00145353 0.00423186 0.00116165 0.0016638 -0.00182279 0.00368491 -0.00150755 -0.0031998 -0.00168745 0.0020714 0.0029413 -0.000297141 0.00190458 0.00340943 -0.00216273 0.0029102 0.00122474 -0.00127006 -0.00165677 0.00271441 0.000527885 -0.00136587 0.00141552 0.00409464 0.00458977 0.00450335 0.00410833 0.00199332 0.000183153 0.00132591 0.00468897 0.00311414 -0.00219746 -0.00244929 0.00261534 -0.0037116 0.00172956 0.000411168 -0.000807589 0.00357797 -0.00417224 -0.00238438 -0.000511135 6.60226e-05 -0.00232777 0.00174976 0.00114542 -0.000730673 0.000396037 0.00178127 -0.000990023 -0.00367332 0.00306087 0.00126157 -0.00213661 0.00485026 -0.00411279 0.000481421 0.00440157 0.000998589 0.00373359 0.00152572 -0.00198646 -0.00265461 0.00480676 -0.00260158 -0.00163806 -0.00493325 -0.000870245 0.00133845 -0.00490911 0.00374609 -0.00107211 -0.000154347 -0.00311011
给 -0.00270334 0.0041106 -0.00107055 0.000845841 0.00468252 0.00341834 -0.00384983 -0.00248717 -0.00436161 0.00112345 0.000782026 0.000348744 -0.000946684 2.4228e-05 -0.0027589 -0.00486837 -0.000661889 -0.000211693 0.0014134 -0.000388752 -0.00415105 -0.00439328 -0.000214098 0.00312073 -0.00342217 0.00325982 0.004685 0.00292475 0.00453508 -0.00162739 0.00383106 -0.00452157 0.00463121 0.00352197 0.00106537 -0.00181624 -0.0016707 0.00475668 0.00123722 6.1394e-05 -0.0039352 0.00197014 0.00341138 -0.000600506 0.00387928 0.00355303 -0.00285945 -0.000487121 0.00374649 0.00390979 0.00197029 0.00351509 -0.00188006 -0.0037108 -0.000648021 0.00446487 -0.000302246 0.00337202 -0.00391779 -0.000570128 0.00461187 0.00258214 -3.75245e-05 -0.0033079 0.00400027 -0.000912137 -0.00141793 0.00363553 -0.00476454 -0.00114409 -0.00273378 -0.00401553 -0.00336413 0.00254906 0.00383129 0.0029077 -0.00356722 0.000353758 -0.00242742 0.00306212 0.00135215 0.000628779 -0.00198271 -0.00446879 0.00153655 0.0035984 0.000582056 0.00295982 0.00011817 0.0044986 0.000535042 -0.00144191 -0.00425328 0.000212532 -0.000231283 0.0013999 -0.00284109 0.00126832 0.00121445 -0.00351248
我 -0.000884745 0.00147745 0.00271552 -0.00295617 0.00158085 0.0019482 0.00483417 -0.00157245 0.00140241 -6.77336e-05 0.000376092 -0.00313868 0.00396523 -0.00338288 0.00363761 0.00402461 -0.00434145 -0.00475393 0.00486996 0.00447146 0.000977472 0.0048457 0.000193156 -0.00170952 0.000486484 0.00431289 -0.00323919 -0.00256765 -0.00274227 -0.00082643 -0.00101825 -0.00116994 0.00247659 0.00143247 -0.00211946 0.000115617 -0.000840369 0.00453681 -0.0017907 -0.000122597 0.00252157 -0.00062487 -0.00204528 -0.00244656 0.00473779 -0.00262423 -0.00153233 -0.00141925 0.00364112 -0.000581728 -0.000355511 -9.38853e-05 0.00245269 -0.00239242 0.00252875 0.000798401 -0.00150895 -0.00195696 -0.00111931 0.00216925 -0.00145246 0.00470393 0.00252446 0.00407953 0.00364231 -0.000697631 0.00154441 0.00125121 -0.00394958 0.00281942 0.003389 -0.000515298 0.00248101 0.00211031 -0.00312057 0.00343462 -0.00120533 -0.00243258 0.00303467 0.00168756 -0.00457884 0.000705695 0.00203151 0.00253872 -0.000311265 -0.00304719 0.00271984 -0.00357803 0.0008875 -0.00148788 0.00115865 -0.00326133 -0.00426986 0.0031339 0.00214656 -0.00272992 0.00204992 0.00126419 -0.000749666 -0.00351352
一个 0.00487443 0.00272005 -0.00104534 -0.003531 0.00160006 -0.00301644 0.0025536 -0.000966867 0.00439641 0.00194509 0.00369232 0.00117068 -0.00144035 0.00178402 -0.00251561 0.00445094 0.0020005 -0.00452567 0.00376337 -0.00490554 0.000544512 -0.0014011 0.0043888 -0.00243472 0.00499334 0.00482158 -0.00167714 -0.00320377 0.00180396 0.000809873 -0.00243457 -0.00309863 0.00154291 -0.00246952 0.00433299 -0.00358714 0.00220396 -0.00272747 0.00350219 -0.00430858 0.00252404 -0.00436222 -0.00228374 0.00328191 -0.00378148 0.00304498 -0.00297148 -0.00244405 -0.00458567 -0.00140248 -0.00311857 -0.00460653 -0.00269026 0.00312966 0.000964306 0.000195821 -0.000409951 0.0040283 0.00466275 0.00433519 -0.000869361 -0.00491164 -0.00385082 -0.0025706 -0.00257612 0.00336385 -0.00293883 -0.00395708 -0.00407683 -0.00307665 0.00430604 0.0032839 0.00311365 -0.00155059 -0.00306457 -0.00197104 -0.0033683 8.49517e-05 0.00226175 0.00225777 9.93902e-05 -0.00113658 -0.00199208 -0.00260442 0.00134126 0.000367975 -0.00205651 0.00216755 -0.00297118 -0.00359432 -0.00321505 -0.00307331 -0.000269685 -0.00287593 -0.000775778 -0.00164946 0.00326021 -0.00470233 -0.00244185 -0.000778966
人 -0.00210894 -0.00132143 -0.00429452 -0.00439291 0.00115031 -0.00350023 -0.00437441 -3.3527e-06 -0.000980919 0.00196903 -0.00204966 -0.00348608 0.000213864 -0.00111848 -0.00349707 -9.15669e-05 -0.00400915 -0.00331807 0.00453292 -0.000512832 0.00131712 -0.00312046 0.00290931 0.00473151 -0.00405521 -0.00233272 0.00481505 -0.00252453 -0.000528919 0.000692714 -0.000967831 -0.00415873 -0.00420987 0.00414367 -0.00388542 0.00462668 -0.00346377 0.00474246 0.00402555 -0.00448221 -0.00400319 -0.0039973 0.00439565 -0.00358418 -0.000879297 0.00189306 0.00249708 0.00495864 0.000134867 0.00188003 -0.00335767 -0.0010055 -0.00238565 -0.0049408 0.00445018 8.18317e-05 -0.00081194 -0.00348326 0.00218096 0.00490373 -0.000856537 0.00397327 0.000330002 -0.00199256 0.00306361 -0.00345928 -0.0049666 -0.00135903 -0.000445335 -0.0032324 0.0035867 -0.00231264 -0.0040998 -0.00469727 0.0047596 -0.00426724 -0.00494214 -0.00344127 0.0012719 0.00341181 0.00333973 0.0019237 0.00284393 0.003705 -0.00470664 0.00498169 0.00319751 -0.0002988 0.00158854 -0.00219536 -0.0044946 -0.00287613 -0.00334827 0.00273545 0.000556738 0.00230231 -0.00313478 0.00475716 -0.00301772 0.00126379
可以 0.00287009 0.00133094 0.00307263 0.00466691 -0.00127182 -0.00185189 0.00319686 0.00249781 -0.00444862 0.00233238 0.00211873 -0.00364867 -0.00091235 -0.00154187 -0.00433386 -0.0011841 -0.00295165 0.000685081 0.00466049 -0.00192065 -0.00235548 0.00021764 0.00174999 0.00180816 -0.00168412 -0.00310005 0.00318335 -0.00188769 -0.00338356 0.00202879 0.000977214 0.00384475 0.00329705 0.00139603 -0.00145025 0.00471811 -0.00394351 0.00275819 -0.00198638 -0.00466078 -0.00349284 0.00399713 0.00429104 -0.00260303 0.00315942 0.000921591 -0.00084145 -0.00233194 0.00460174 -0.00404851 0.00256662 0.00408922 0.00245744 0.0043996 -0.00320532 -0.000611004 -0.00421518 -0.00427187 -0.00375994 0.00107045 -0.00245876 -0.00375738 0.000279623 -0.00175642 -0.000285039 0.0019481 0.00112146 -0.00392783 0.00121567 0.000586778 -0.00277402 -0.000507115 0.00426204 0.00326122 -0.00292345 -0.00231441 0.00448391 0.00185457 0.00139009 0.00213726 -0.00104614 0.00014385 0.00116598 0.00030202 0.00498837 0.00385341 -0.00271547 -0.00458884 -0.00067388 0.00265207 -0.000366508 0.00433946 -0.000824674 -0.00316118 0.00367189 0.00494939 -0.00433315 -0.000346288 0.00406212 -0.0024121
小 0.0014996 -0.00271627 -0.00287039 -0.000146071 -0.00210806 0.00164102 0.00297822 0.00158406 0.00288826 -0.00184305 0.00446348 0.00483207 0.00345634 0.00449254 0.00247544 -0.00314851 0.000589929 0.00497477 0.00273033 0.00288042 0.00299209 0.00189302 0.00361852 -0.0019174 0.00324575 -0.00195159 0.00211601 -0.00210333 0.00349146 -0.00435772 -0.00296724 -0.000305991 -0.00268532 -0.00149254 0.00322977 0.00439653 -0.000766689 0.00235448 -0.00118722 -0.00098219 -0.000748597 9.47377e-05 -0.00142443 -0.00316153 0.000360336 0.00433789 0.00401511 0.00189994 0.00485789 -0.00488581 -0.00286333 -0.00369708 -0.000253463 0.00145006 0.00210434 -0.00300906 0.000717427 -0.00431641 0.00329438 -0.00191251 -0.00350662 0.000165063 -0.000702256 -0.00178455 0.00124554 -0.00472319 0.00402007 0.000714017 -0.00292185 -0.00112068 0.0014868 -0.00397786 0.00139242 6.05681e-05 -0.00120094 -0.00107617 -0.00370258 -0.0049916 -0.0035595 0.00363471 0.00277363 -0.00144431 -0.00183206 0.000914127 -0.00394644 -0.00277986 -0.00378095 -0.001841 -0.00156576 0.00184104 -0.00241852 0.000435858 -0.00386967 0.0039914 0.00286973 0.00403337 0.00334196 0.00283037 -0.00103476 -0.00360306
买 -0.000322164 0.00375099 0.00133098 -0.00426586 0.00203679 -0.0030941 0.00142336 0.00219707 0.001243 0.00459154 -0.00035991 -0.00424912 0.00220103 -0.00221428 -0.00154807 -0.000136174 3.3737e-05 -0.000559199 0.00362131 0.00313888 0.00241017 0.00431023 -0.00161347 0.00191083 0.00219238 0.00308923 0.00437665 0.00274132 0.00264081 0.00226424 -0.00066742 -0.00116763 -0.0038989 5.23184e-05 0.00261566 0.00280678 0.0034428 0.00347004 0.00385628 -0.000892305 0.00304955 0.0024318 -0.00328511 0.00267448 -0.00265598 0.00152064 0.00335268 -0.000564527 -0.000636207 -0.00173092 0.00448386 0.00237401 -0.0026069 0.00116219 0.00111212 0.000980026 -0.00283418 -0.00304214 -0.00396297 -0.00249745 0.00249762 -0.00360375 -0.00434815 0.00326123 0.00175376 0.00443503 -0.00452034 0.000563718 0.00437209 0.00178036 0.00320788 -0.00191712 -0.00399064 -0.00463376 0.00487311 0.00448576 -0.00178521 -0.000213538 -3.03609e-06 0.00123721 0.00452524 0.0021162 -0.00460003 -0.0029957 -0.00216942 0.0033503 -0.0024788 0.000267267 0.00320983 0.000647733 -0.00440136 -0.000291602 0.00305041 -0.00335388 0.00182167 0.00223076 -0.000845344 0.000600421 -0.00106536 -0.00227058
多 0.00461164 -0.00321899 0.00209186 0.00255196 -0.0034309 -0.00478497 -0.00241479 0.000147007 -0.00438836 0.00303475 0.00332682 0.000547198 0.00271645 -0.00402046 -0.00469773 0.00466992 -0.00455055 2.67186e-06 -0.00422822 0.00287396 0.00465132 -0.00171712 0.00449143 -0.00413372 -0.00351352 -0.00105933 0.000133456 0.00221411 0.00255069 -0.00488744 0.000489403 -0.00215708 -0.00212988 -0.000485368 2.04787e-05 0.00337419 -0.00413396 -0.0014502 -0.000116979 0.00213744 -5.83509e-05 -0.00139383 0.00470635 0.0028971 0.000795438 0.00246712 0.000319321 -0.0033689 -2.77363e-05 0.00221295 -0.00284245 -0.000888566 0.00479507 0.000744818 -0.000470971 -0.00368255 -0.00319974 -0.00242177 -0.0016927 -0.00147353 0.00334322 -0.00155359 0.00304603 0.000568136 -0.00373743 0.00190592 0.0027196 0.00386396 0.00245361 0.00453035 4.23966e-05 0.00357584 0.000764854 -0.000633926 0.00240132 0.00240447 0.00120173 -0.00270408 0.00313594 -0.00468771 -0.000408397 -3.50331e-05 -0.00154396 -0.00258961 0.0040684 0.00372901 4.82438e-05 0.000355837 0.00358735 0.00172784 -0.000457491 -0.00145693 0.00400683 -0.00312123 0.00130824 -0.00468659 -0.00441291 0.00290528 0.000754217 0.000408049
和 0.00393168 -0.00270557 0.00408408 -0.00458846 0.00297736 0.00417565 0.00499895 -0.00422248 -0.000893466 -0.000431197 0.00220978 0.00339135 -0.00294072 0.000313145 -0.000644186 -0.000581385 0.00122525 -0.000386368 0.00297895 0.00390837 -0.00441164 -0.00207685 -0.000732454 -0.0026957 0.00306897 -0.0017748 -0.000496332 0.00160408 -0.00057562 0.00373956 0.00312402 0.00380175 -0.00346669 0.00341139 0.00181727 -0.00141592 0.00497015 0.00101926 0.00217454 -0.000786855 -0.00104926 -0.00419585 -0.00106023 0.00422687 -0.00205422 -0.00100485 0.00422638 0.00224216 -0.00233021 -0.00436189 0.00147309 -0.00172797 0.00497797 0.0048882 0.00394649 -1.01753e-05 -0.00187581 -0.00211049 0.00128346 0.00020939 0.0042779 -0.0032445 0.00458557 0.00204397 0.00479006 0.00426127 -0.00454258 -0.00368588 -0.00419702 -0.00319791 -0.00319094 0.00301462 0.00351545 -0.00109545 -0.00435107 -0.000210789 -0.00298103 -0.00465114 0.00162474 0.000287073 2.4293e-05 0.00232378 0.00212367 -0.00217671 -0.00316344 -0.00139507 -0.000933628 -0.00426475 0.00298606 0.00317024 -0.00409756 -0.00379773 -0.000219396 0.00044552 0.00290322 -9.53926e-05 0.000471621 -0.00257617 5.56169e-05 0.000739683
过 -0.0046608 -0.00472506 -0.00209307 -0.0023376 -0.00486091 -0.00216568 0.00271545 0.00184685 -0.00158722 0.00049525 0.000659418 0.00205976 -0.00114083 -0.00148007 0.00103925 0.00498986 -0.00404535 0.000194653 9.03761e-05 0.00148357 0.00147702 -0.00169181 0.00244837 -0.00120584 -0.00288688 0.00462608 0.00269116 -0.00223643 0.0012013 0.00120744 0.00441461 -0.00498988 0.00496167 -0.00462279 -0.00108515 -0.000539882 0.00238975 0.00301016 0.00214467 -0.00498019 -0.00103963 0.00138161 0.00390512 0.000272907 0.0037384 0.003033 0.00231308 0.0044771 -0.00274976 -0.00457169 0.00173126 -0.0030703 -0.0010535 0.00224085 -0.00361077 -0.00174504 0.00217009 0.00202461 0.00316789 -0.00234669 -0.00408291 -0.0013941 0.000687206 0.00183688 -0.00402024 -0.00395203 -0.000662603 -0.00275905 -0.00275146 0.00178694 0.00418962 0.00325531 -0.0025434 0.00326801 -0.000606095 0.00244031 6.21744e-05 0.000541683 0.000138624 0.0016325 0.000842681 0.00472823 -0.0033098 0.00145335 -0.00421396 -0.0019849 0.00261728 -0.00402563 -0.00112654 0.00238347 0.0049877 0.00283986 0.00201386 -0.00212079 0.00340229 -0.00112373 -0.00090549 0.00238248 0.00496566 0.00116304
故事 0.00169552 -0.00104658 0.00481686 -0.0012524 -0.000160651 -0.00406786 -0.00337157 0.0013755 -0.00450969 0.0042828 -0.0026081 9.02021e-05 -0.00302731 -0.00453954 -0.00154433 0.00453502 -0.000399894 0.00496851 0.00480882 -0.00125706 -0.00172777 -0.00290205 0.00105689 0.00408692 -0.00248616 0.00030555 -0.00321965 -0.00408983 3.21653e-05 0.00453198 -0.00260765 0.00307389 0.00235541 0.00295333 0.00342937 0.00439927 -0.00370822 0.000315794 0.0038745 0.00140559 0.000512148 -0.00479348 -0.0027698 -0.00157263 0.00376143 -0.0034118 0.00202099 -4.09441e-05 -0.00282845 0.00124289 0.00257776 0.00470991 -0.00418237 -0.00367904 0.000254741 0.000949827 -0.000167701 -0.000459523 -0.00400658 0.00404815 0.00138272 0.000200538 -2.51106e-05 0.00459129 -0.00246079 0.00350438 0.000295101 -0.00254737 0.000217103 0.000514477 0.000724369 -0.00236283 -0.000332344 0.00112297 -0.00320109 -0.000889258 0.00419226 0.00312785 0.00259567 0.00350972 0.00413142 -0.00238195 0.0016419 0.0049081 0.0014901 0.00325629 0.00436903 0.00226206 -0.00227307 0.00462359 0.00110983 0.00484775 0.00205013 0.000666668 -0.00221796 -0.000408517 -0.000325911 -0.000676169 -0.00453111 -0.00127321
评价 -0.000904863 0.00488437 -0.00202613 0.00413773 0.000567477 -0.00494444 0.00313857 -0.00103014 -0.000947537 0.00356546 -0.00288359 -0.000732856 0.00393009 0.00254239 -0.00309965 0.0022727 0.00498746 0.000491023 0.000433034 -0.00149002 0.000675343 0.00109497 -0.00231645 0.000454418 -3.14129e-05 0.00388359 -0.00282131 -0.00482553 0.00221494 -0.00105898 0.0014261 -0.000657978 -0.00126958 0.00484172 0.00200735 -0.0036811 0.00144295 0.00216476 -0.00335159 -0.00309687 0.000538865 -0.000475166 -0.00436645 -0.00223862 -0.00301675 -2.07599e-05 -0.00248067 0.000167524 -0.00418587 -0.00404131 -0.00407368 -0.00486094 -0.000591336 -0.00135734 0.00295071 0.00388199 -0.00428803 -0.00192979 -0.000274009 0.0036919 -0.00107461 -0.00424396 0.0049296 0.00462082 3.62581e-05 0.00470403 -0.00222776 0.00061772 0.00443659 0.00452308 0.000134465 -0.00487758 -0.00336772 -0.00383485 -0.0012352 -0.00199868 -0.000766351 -0.00416882 -0.000266696 0.00325355 -0.00370278 -0.00499612 -0.000160035 -0.00332491 0.00393319 -0.00385596 0.00293295 0.00163646 -0.002245 -0.00337441 0.00188204 -0.000403362 0.000155037 -0.00214856 0.0027107 0.00477626 -0.00277318 0.00303131 0.0015861 -0.00464797
《 -0.00149107 0.0039964 -8.16247e-06 0.00347309 -0.000824937 0.00217764 -0.00398652 -0.00282507 0.00327545 0.00252933 0.00175762 0.00260482 0.00417849 -0.00414864 0.00180343 -0.00141699 0.00454432 -0.00283797 0.00244484 -0.000269685 -0.00426606 -0.00362469 -0.000288895 -0.00404251 0.00317027 -0.00302778 0.0045188 -0.00116294 0.000919971 0.00179619 -0.00459732 -0.00300857 -0.00304909 -0.00241911 0.00459261 -0.00303287 0.0015607 0.000914823 -0.00350596 -0.00207444 -0.00207238 0.00458014 0.00485276 0.00356082 -0.00205027 -0.00379161 0.00323356 0.00322441 0.000383982 0.00364316 0.004314 -0.00370835 -0.00415878 -0.00490999 -0.000510522 -0.00279936 0.000282286 0.000663546 0.00109612 -0.00444678 0.000165651 0.00252668 -0.00467529 -0.00125005 0.000925557 0.00494997 -0.00431232 -0.00317347 0.00168224 0.00423083 -0.000538222 0.0033375 0.00459145 0.000924536 -0.00264684 -0.00469169 0.00432356 0.00122315 0.00397729 -0.00265612 0.00271024 -0.000162485 0.0013643 -0.000857249 -0.00437596 -0.00295466 0.00409505 -0.0020072 0.000314082 -0.000945806 -0.00374706 -0.00408594 0.00308594 0.00249234 0.000990671 -0.00328678 6.50957e-05 0.0033805 -0.0026107 0.000305399
还 0.00442635 -0.00036878 -0.00438534 0.00217659 0.00416063 0.00127905 0.00103461 0.00231454 0.00265422 0.00377326 -0.00409863 -0.00105558 -0.000324114 0.000862536 0.000582732 -0.00240924 0.00215639 -0.00466628 -0.00111801 -0.00295244 -0.00440777 -0.00339084 0.000847383 -0.00182199 0.00347323 0.000518944 -0.00400346 0.00360031 -0.00267523 0.00355422 0.00404191 0.00265055 0.00230245 -0.00431779 0.000888239 0.000603006 0.00123122 0.00229084 0.00297392 -0.00371687 0.0038214 0.00201317 0.00460401 -0.00272822 -0.00410165 0.00197318 -0.00215038 -0.00354366 0.00416359 0.00328235 0.00417036 0.00271051 0.00337783 -0.00221518 -0.00220526 -0.00207968 -0.00111531 0.00186153 0.00158394 0.0019691 -0.00121512 -0.00265259 0.000366217 0.00228173 0.00161654 -0.00374769 -0.00108658 0.00279648 -0.00334217 -0.00166758 0.00324222 -0.00377625 0.00471034 0.00158609 -0.00377862 -0.000205361 -0.000299494 -0.00167231 -3.02574e-05 -0.00370613 0.00200758 0.00461373 -0.00483291 0.000733492 -0.00251 -0.00219811 -0.00415765 0.00346009 0.000261492 -0.00131088 -0.0046397 -0.00105887 -0.0025402 -0.00129968 -0.00225449 -0.000619539 -0.00164426 0.00235114 -0.00338372 -0.000611463
》 0.00373919 -0.000199358 0.00403548 0.00290015 0.000253057 0.00111927 0.00116457 -0.000459756 -0.000194169 -0.0048707 -0.000466944 -0.00252955 0.00290326 -0.000323616 -0.000193298 0.00250746 0.000343385 -0.000285195 0.00226278 0.00427277 0.000128003 0.00205589 -0.00279211 -0.00441606 0.00176809 -0.00129973 0.00352229 0.00198776 0.00478896 -0.00349108 0.00178676 0.00115926 0.00286077 -0.000947242 -0.00306721 0.00339716 0.00022767 0.00114244 -0.0031284 -0.00362384 0.00496605 -8.60918e-05 0.00167983 0.00204137 0.000594738 0.00441688 0.00310742 0.00481432 -0.00400436 -0.00172255 -0.00418093 0.00457951 -0.000443412 -0.00111262 0.000219993 0.00198803 0.00466132 0.000128936 0.00170055 0.00339035 -0.000144784 -0.001653 -0.00437417 -0.000848507 0.00184258 -0.000704831 0.00239592 0.000837512 0.0017153 0.00233448 0.00178725 0.00225314 -0.00281604 -0.00372664 0.000898312 0.00412319 0.00437886 -0.00431101 -0.00182575 -0.00442364 0.00106985 0.00257619 -0.00318443 -0.00356144 -0.00222947 -0.00435384 -0.000562837 0.00112691 -0.00458133 0.00430803 -0.00478253 -0.00232237 -0.0032888 0.00110017 0.00460602 -0.00464591 -0.00280631 0.00318652 0.00410834 0.00409704
中 0.00311654 0.00497442 -0.00334679 0.00050043 -0.000747709 0.00243176 -0.0034067 0.00444103 -0.00415518 -0.004958 0.00428323 0.00216271 -0.0043358 -0.00429601 0.000786598 -0.000227362 -0.00353685 0.00144728 -0.00168323 -0.00084051 0.000180047 0.00132157 0.00396785 0.00254864 0.00291169 -0.00136561 0.00148382 0.0037276 -0.00485062 -0.00331924 -0.000234364 -0.00158756 -0.0015983 -0.00458784 -0.00280803 -0.00220246 0.0006372 -0.00333172 -0.00137095 -0.00274081 -0.00192225 -0.001636 -0.0029371 -0.00379285 -0.00355011 0.00153185 -0.00215587 0.00190215 0.00239264 0.00411067 -0.00365113 0.000794675 0.00224711 0.00165399 0.00115465 -0.00437511 0.00460407 0.0026765 0.00482534 0.00225744 -0.00331185 0.00442273 -0.00193259 -0.00060866 -0.00270871 0.000844549 -0.00206579 0.00065006 -0.00200859 0.00411989 0.00372129 -0.00301688 -0.000361375 -0.00304255 0.000842375 0.00180841 -0.00400116 0.00235989 0.000874039 -0.00254846 -0.00321779 -0.00271543 0.00375441 -0.00338308 0.000547853 -0.00119828 0.00238207 0.00347415 0.00372683 0.00245251 0.0041008 0.00427845 -0.00284753 0.00303995 -0.00073695 0.00285627 0.00104777 0.00279336 -0.000569014 -0.000419067
“ -0.00367138 9.51966e-05 0.00252521 -0.00158537 0.0047944 0.00433242 -0.000274064 -0.00109859 -0.00200076 -0.00460532 -0.00119338 0.00480568 -0.000589656 -0.000372099 0.0044584 0.00287455 -0.000457581 -0.00242105 -0.000171957 0.00353225 0.00240645 0.000578807 -0.000371405 0.000489498 -0.00174187 -0.00214872 -0.00469321 0.0014834 0.00215439 0.00302065 -0.00113914 0.00269415 -0.00308598 -0.00173462 0.0044094 0.00046398 -0.00282731 0.000961063 0.000725059 -0.00334957 0.00148537 -0.00109644 -0.000921855 0.00273346 0.00444105 0.00455047 -0.00250733 -0.0035555 0.00253436 -0.00428122 0.00276767 -0.00341414 0.00422131 0.00192009 -0.00431144 0.00206465 0.00451217 0.00453356 -0.00431015 -0.00162765 -0.00182052 0.00233912 -0.00400989 0.0048853 0.00495146 -0.00440587 -0.00248045 -0.00154532 0.00352448 -0.000416834 -6.26494e-05 -0.00314616 0.0016728 0.000934109 -0.00108909 0.000835806 -0.00481214 -0.000923964 0.000734521 0.000346349 -0.00305066 0.00401578 -0.00319427 0.00472949 -0.00254883 -0.00204893 0.0017661 0.0025122 0.00164436 -0.00110825 0.00176786 8.34019e-05 -0.00140353 -8.56934e-05 -0.00387466 -0.00296373 -0.00274958 0.00276385 -0.00452316 -0.000482703
” -0.0029395 -0.00407756 0.00200201 0.00140097 0.00172768 0.000165839 -0.00126646 0.00216489 -0.00141195 -0.00343 -0.00125669 -0.00411053 0.00385089 0.00454458 -0.00387548 -0.00263324 -0.0020161 -0.0038036 -0.00413044 0.00122371 -0.00412053 0.00409282 -0.0014688 0.00300231 0.0030264 -0.00311906 -0.00115927 0.00337963 0.00164502 -0.000570028 0.00213444 -0.000638344 -0.00445013 -0.00482037 -0.00360981 0.00261275 -0.00385526 -0.00396714 0.000572017 0.00142098 -0.00370374 0.00371298 0.00402165 -0.00378282 -0.00290404 -0.00420258 -0.000521226 0.00282519 -0.00462804 -0.00318136 0.00182956 0.00111882 0.00286658 0.00308406 4.64999e-05 0.00261388 -0.00297566 0.00401569 -0.00254185 0.00350519 -0.00324492 -0.00466963 -0.000392379 -0.00143582 0.0036527 0.0039248 -0.000639221 -0.00440669 -0.0031018 -0.00492361 0.00417093 -0.0028342 0.00385503 0.00248496 -0.00396435 -0.00445837 -0.000308351 -0.00377029 -0.00309061 -0.00320162 0.00368712 -0.00428986 0.000114164 -0.00374583 0.00375703 -0.00161445 0.00297045 -0.000823362 0.00113874 -0.00402453 -0.00115866 0.000742703 -0.000133835 0.00138722 0.00146978 -0.00370917 0.00332073 -0.00442437 0.00255894 -0.00136677
比较 -0.00152106 -0.000731258 -0.00246871 -0.00398545 -0.00402295 -0.000851183 -0.00127558 -0.00293213 0.000548566 0.000493511 -0.00446739 0.00025272 9.89032e-05 -0.000613388 -0.00360538 -0.00236037 0.00355346 0.0046616 0.00290885 0.00243105 0.00391987 -0.0015137 -0.000701727 -0.00419262 -0.00383194 -0.00433034 0.0039366 -0.00205802 -0.000431263 0.0037149 -0.00179546 -0.000807469 0.000468408 -0.00445145 0.00242184 0.000880672 0.000781608 -0.0014082 -0.00353453 0.00272557 -0.00426412 0.000244042 -0.00190282 -0.00172149 0.00192859 -0.00144946 -0.000194903 0.00497618 -0.00177325 -0.00048675 -0.00469842 0.0012967 0.00273111 -0.00411948 -0.0041875 -0.00103971 -0.000493846 0.00236226 0.000733806 -0.000760486 -0.0023121 -0.00378089 -0.000638293 0.00175372 -0.00373468 0.00149536 0.00374623 -0.0024787 -0.00472387 -0.00208692 -0.00465959 -0.000874593 -0.00259477 0.00146334 -0.00348978 -0.00187077 -0.00251518 -0.00242755 0.00328122 0.00138764 -0.00364985 -0.00354873 -0.00408983 -0.00182407 -0.000188052 -0.00112702 0.00365603 0.00312238 -0.000122561 -0.0026944 -0.00463446 0.000362999 0.0033875 0.00457045 -0.00402943 -0.00449203 -0.00010336 0.00183137 8.74164e-05 -0.00300462
次 0.000323909 0.0011605 0.000770013 -0.00271945 0.000779978 9.70335e-05 0.00107474 -0.00261538 -0.00257532 0.00453244 -0.0037158 -0.00390087 -0.00333475 0.000403927 0.000979141 -0.00172053 -0.00446367 -0.00441344 -0.000381921 -0.00328242 0.0025817 0.00382402 -0.00400778 -0.0043093 0.00339965 -0.00244377 0.00219385 0.00165806 -0.00426853 0.00473427 -0.000745304 0.00441979 -0.00139333 0.000952179 -0.000948385 0.00346209 0.00307398 0.00177661 0.000240497 -0.00450167 -0.00131958 0.000223728 0.000681267 0.00101631 -4.66334e-07 -0.00325844 -0.0025939 -0.00336517 -0.00151618 0.00102514 -0.00171279 -0.00357119 -0.00448128 -0.00212402 -0.00425832 0.00224525 0.00256576 0.00289705 0.00394048 0.00156954 0.00362939 -0.000614626 -0.00411494 0.000160175 -0.00153605 0.00224674 -0.000736004 0.000360631 0.00143381 0.00297924 0.00395068 -0.00108076 -0.00333985 0.00116941 -0.00493835 0.00403113 -0.00386134 0.00353666 0.00108 0.00467372 0.00156289 -0.0038795 -0.00124714 -0.00337224 0.00410595 0.00424746 0.00370948 -0.00433305 -0.000683305 -0.00244199 0.00434011 -0.000735478 0.00182355 0.00074537 0.00396628 -0.00280377 0.00185564 -0.00235132 -0.00252105 0.000552563
跟 0.000535278 -0.0049053 0.000783529 -0.0020226 0.00482367 0.00231948 -0.000337859 -0.00278073 -0.00152676 0.00413009 0.0026425 0.00341652 -0.0027732 -0.00169346 0.000362845 -0.00117471 0.00480168 -0.000580797 0.00485355 0.0024357 0.00279678 0.00321732 0.00226032 0.00468173 0.00220929 0.000245749 -0.00222121 0.0032679 -0.00215204 -0.000791659 -0.0001982 -0.00301786 -0.000486494 -0.00425531 0.00321458 -0.00398307 -0.00226071 0.00326492 0.00488158 0.00366038 0.00312756 0.00344042 -0.00397767 -0.0048341 0.000423189 0.000371725 0.00065921 0.00282452 -0.00044192 -0.00452648 0.00238718 -0.00317668 0.00420075 0.00320896 -0.00190266 -0.00462662 -0.00433798 0.000899206 0.00143535 0.00468599 -0.00361935 0.00444771 0.000653358 0.00492863 -0.00302385 -0.00132956 0.0029438 0.000194674 -0.00171958 0.00418571 0.00417811 -0.00264678 -0.0016516 -0.0015952 9.54236e-05 0.0033761 0.000258748 0.00360331 0.000793484 0.00352844 0.00101986 -0.000313059 0.00215676 0.000609931 -0.000265149 0.00197949 -0.000235998 -7.63743e-05 0.00447645 -0.00210566 0.00456434 0.00107118 0.00215679 0.00322887 0.00374477 -0.00340824 0.000946223 -0.00257641 -0.0028297 0.00308882
都 0.00189098 -0.000146949 0.00157064 -0.00475847 -0.00489699 0.00177122 0.00366443 -0.00171577 -0.00456349 0.00260859 -0.00335738 -0.00251459 0.00365597 0.00285914 -0.00492034 -0.0040861 0.00239765 0.00272143 0.00488774 0.00164779 0.00264814 0.00219858 -0.00197604 -0.00124113 0.000526306 -0.00192554 0.00184428 0.0016771 0.00136465 -0.0031602 5.78426e-05 -0.0028259 0.00423523 -0.00171374 0.00225952 -0.00476351 0.00407565 0.00029425 -0.00011253 -0.000911451 0.000167841 0.00199577 -0.00102032 -0.00132644 -0.00363297 0.00106398 -0.000909655 0.00168639 -0.00078866 -0.000316171 -0.00284482 0.00157011 -0.000345248 -0.0009826 -0.000373387 -0.000647202 -0.00150051 0.000787629 -0.000534418 -0.00496241 0.000453501 0.00337665 -0.00199778 -0.00135853 -0.00122064 0.00194594 -0.00389763 -0.00381327 -0.00243934 -0.00409278 0.0014163 -0.000138416 0.00271152 0.00472046 -0.00105937 0.00122633 -0.00307443 -0.00125655 0.00162787 0.000612846 -0.0010348 0.00464676 -0.00140072 -0.00383433 -0.00131643 -0.00117249 -0.00413709 0.00406608 0.00303197 -0.00422234 0.00452568 0.00197019 0.00224418 0.00365903 0.00242315 0.0020591 0.00143283 0.00325342 -0.00430851 -0.00396434
真 -0.00146361 0.00071313 -0.002914 -0.00244001 0.00456599 -0.000203768 0.00204055 0.00337948 0.00243661 0.00489849 -0.00192694 0.00488065 -0.000624113 -0.00394848 0.00241501 -0.002837 0.00133858 -0.000609103 0.00410964 0.0016517 0.00135393 -0.00225193 0.00299987 0.000543869 -0.0048451 0.000192119 0.00190276 0.00161301 -0.000369219 -0.00212807 0.00356343 0.00106767 0.00226067 -0.00307736 -0.00103012 0.00148847 0.00292701 0.0041231 -0.00312058 0.00204704 -0.00406947 0.00454815 0.00260257 0.0010465 0.00024907 0.00398181 0.0015525 0.00464731 -0.00323081 -0.00123293 0.00497222 0.00143714 0.00473834 -0.00267779 -0.0037685 -0.00273104 -0.0029123 0.000255511 -0.00413022 -0.000584675 0.000437765 0.000810392 0.00223982 0.00332717 0.00485145 0.00078943 -0.00202787 -0.00118689 -0.00185568 0.00118456 0.000955932 0.000410558 0.000306214 0.00144067 -0.000587799 0.00377912 0.00187385 0.000603063 0.00304458 0.0043346 0.00314478 0.000213877 -0.00147045 0.000654564 0.00342282 -0.00166693 -5.49418e-05 -0.00196161 -0.00163131 0.00253108 -0.00227287 -0.00411278 -0.00338292 0.0047325 0.00487267 0.0030238 -0.000939389 -0.00190904 -0.00328373 0.00260455
女朋友 0.000993585 -0.00292558 -0.0037241 -0.000410946 0.00114305 -0.00492965 0.00370173 0.00175769 0.00287658 -0.00247261 -0.00435163 -0.00245862 0.000288335 0.00082273 0.00220164 0.00424795 0.00368668 0.00476148 0.00214611 -0.00111241 0.00248964 -0.00384735 0.0031597 -0.000733946 0.00322811 0.00366008 0.00056167 -0.00446066 -0.00499062 0.000259016 -0.0013062 -0.00379271 0.00388235 0.00371147 -0.00270769 0.00141924 -0.00476945 0.00161666 0.00109281 -0.00445393 -0.00258819 -0.00106933 0.00460868 0.00222088 0.00105775 -0.00228189 -0.00105799 -0.00150753 -0.000944856 0.00228442 0.000206666 0.00492768 0.00441708 0.000163406 0.0010294 0.00162888 0.00254082 0.00295669 -0.0019533 -0.00421906 -0.00162109 -0.000665995 -0.00418563 0.00498919 -0.00369027 0.00129865 0.00324191 0.00345601 0.00462071 0.00421135 -0.00444162 0.000505816 -0.000466566 0.00204673 -0.00017206 -0.00100258 -0.00495391 0.00488965 0.0040542 0.004179 0.00129045 -0.000971976 -0.00286874 0.00318718 0.00300657 -0.00449631 -0.00108356 0.00450737 0.00144924 -0.00355664 -0.0031166 0.00027718 0.000836324 0.00158435 0.00328814 -0.00182305 -0.00460258 -0.00422012 -0.00222247 0.00310539
种 -0.000651125 -0.00114429 -0.00299493 -0.00206709 0.0044234 0.000155063 0.00337005 -0.00106022 0.00291014 -0.00274831 -0.00240697 -0.00210053 7.55068e-05 0.0022866 0.00323811 0.00274358 0.000210792 -0.00414222 -0.00427538 0.00464626 -0.00129517 -0.00214016 0.000187981 -0.00469255 0.00248718 0.00252308 -0.00223179 -0.000978548 0.00416412 0.00232857 -0.00467973 -0.00324004 -0.00278091 0.00105137 0.000183234 -0.00330696 0.00493618 -0.00300772 0.00172832 -0.00191558 0.00306028 -0.00313635 -0.00127044 -0.00359618 0.00184734 0.000184302 -0.00405533 0.00269226 -0.00408349 -0.00368069 0.00387787 -0.00485511 0.00479328 -0.0016341 -0.00193852 0.00113753 -0.000771109 0.00290858 0.000292884 0.00090649 -0.0045332 -0.0029225 0.00412569 -0.00122089 0.00380626 0.00405402 0.00156029 -0.00232645 -0.0047801 -0.00233358 -0.00291609 0.00392022 -0.000984146 -0.000676424 -0.00424051 -0.0043905 -0.000432811 0.00395198 -0.000893759 0.000214899 0.00256754 0.00149683 0.000655728 0.00335089 0.001248 0.00320628 0.00254998 0.00114712 0.00457856 -0.00271369 0.00207619 -0.00154674 -0.00190615 0.00481789 -0.00109459 -7.36109e-05 0.00319466 -0.00349112 0.00320545 -0.00279215
什么样 -0.00135142 -0.00322436 0.00458135 -6.07438e-05 -0.000768139 -0.00290216 0.000577461 0.00139168 0.00456823 0.00291643 0.00106984 -0.00223176 -0.000208702 -0.00177135 -0.00486777 -0.00107228 -0.00487785 0.00176914 0.00140636 -0.000772466 0.000416196 0.0046875 -0.00418263 0.00133665 -0.000805399 0.000214235 -0.000788616 -0.00350675 0.00236184 -0.00482545 0.00489305 -0.000100886 0.00483299 -0.00169392 0.00372907 -0.00255924 -0.00189454 0.00457217 -0.00400576 0.00307792 -0.00149004 -0.00417465 0.0041214 0.000796416 -0.00145693 0.00160329 -0.000859989 0.000606525 0.00378447 -0.00197073 -0.00221209 0.00273996 0.00492617 -0.00108128 0.00122926 -0.00188829 0.00198304 0.00259697 -0.000877118 0.00300599 -0.000857741 0.00351098 0.00499318 0.00360294 0.00133496 -0.000526847 -0.00350899 -0.00240441 -0.00131937 0.00456096 -0.00443238 -0.00384472 -0.00461794 0.00129711 -0.000715977 -0.00159244 -0.00353418 -0.00236404 0.00261489 -0.00328637 0.00132925 0.00181777 0.00269225 0.0002978 0.00192141 0.00198052 0.00319552 0.00338699 0.00200079 -0.00425321 -0.00351814 -0.00345907 -0.00454787 -0.00130479 -0.00175526 -0.00214333 -0.0028105 0.00336331 -0.00188758 0.00437283
体验 0.00170875 -0.00179742 0.000265263 0.00346732 -0.000165502 0.000605544 0.00148382 -0.00107191 0.00267441 -0.00347426 0.00144494 0.00266416 0.000816657 0.00323576 0.00177355 0.00224293 -0.000798069 0.00322992 -0.00475676 -0.00274914 0.00483754 0.00197783 0.00197139 -0.00486338 0.0022568 0.0038214 0.00138139 -0.00128777 0.000195454 0.00255649 -0.0014343 -0.00364161 -0.00369265 -0.00177574 0.0010233 0.00483587 -0.000848438 0.00170594 -0.0037485 0.00415226 0.0035126 -0.00388948 0.00225987 0.0018076 -0.00482836 0.00305869 0.000298757 -0.00493604 -0.00254008 0.000380863 0.00460635 -0.000951884 0.00325932 0.00327152 0.00364131 -0.00434888 -0.00453453 0.00128805 -0.00490101 0.00295826 -0.00388895 -0.000886229 0.00315901 -0.00279914 -0.00447806 -0.00206792 0.00235837 -0.0036118 0.000141031 -0.00430274 -0.00490885 -0.00459688 -0.000329791 0.000595101 -0.00407787 -0.000670491 -0.00309815 0.004441 0.000789277 0.00210748 0.00488266 -0.00318802 -0.00495857 0.00262962 0.00481024 -0.00398413 -0.00118402 -0.00171382 -2.91214e-05 0.00420208 -0.000417303 -0.00450344 -0.00447734 -0.00338812 -0.00293014 -0.00478379 0.00145748 -0.00335455 -0.00286276 -0.00113876
喜欢 -0.00416128 0.002928 0.000798017 0.00224523 0.00455243 -0.00487278 0.00345535 0.00446916 0.000948131 0.002005 0.000964697 -0.00272749 -0.00267531 0.00214902 0.00456417 0.00390243 0.0021081 -0.00180293 0.00380835 0.00410905 0.00278927 -0.00304039 0.00256934 0.000683882 -0.00328726 0.0024485 0.00340214 -0.0024698 -0.00350446 -0.00344496 -0.00472462 -0.00364508 0.00114497 -0.00459559 -0.0021955 0.00014797 0.00249304 0.000989358 -0.00030943 0.0016508 -0.00217193 0.0048891 0.000177008 0.00195387 -0.00396171 -0.00294202 -0.00354594 -0.00229826 -0.000596163 0.000214309 -0.00483694 -0.000778104 0.0025406 0.00493295 0.000702583 -0.00156194 4.74457e-05 -0.00110272 0.00394328 0.00262257 0.00341305 0.00361454 -0.00444359 0.00357386 0.00468726 -0.00291233 -0.00368462 -0.00298905 0.00417223 0.00448306 -0.00256776 0.00427969 0.000250815 0.00458692 0.00337611 -0.00402002 -0.000312186 0.00202776 0.00367474 0.00388778 -0.000940284 2.74984e-05 0.00318626 0.00365935 -0.00135614 0.00362283 -0.00456175 -0.00306856 -0.00397952 0.00371318 -0.00235091 0.000462213 0.00148583 -0.00380733 -0.00427805 -0.00388479 -0.00231828 0.00270074 -0.00399676 0.000950765
可能 -0.00171362 -0.00232444 -0.000667021 -0.000418293 0.00294127 -0.0044164 -0.000791339 0.00438725 0.000196182 -0.00162728 -0.000896581 0.00266267 -0.0035883 0.00114873 -0.000244319 -0.00434325 0.000858778 -0.00093877 -0.00424911 0.0027543 0.00207872 -0.00298964 0.00100494 -0.00310014 -0.00130819 -0.00238787 -0.00197237 0.002471 -0.00432162 -0.000689393 -0.00324829 0.00453807 0.00471864 -0.00168774 0.00307431 0.0039031 -0.00379227 -0.00317003 0.00301505 -0.00136573 0.00154226 0.000462553 -0.00497123 0.00251232 -0.00226971 0.00433456 -0.00170924 -0.00445622 0.00257503 0.000667119 -0.00274916 -8.52296e-05 -0.0026177 -0.00343921 -0.00411973 0.00337876 -0.00313089 0.000691194 0.00410997 -0.00405025 -0.00309198 -0.00434745 0.0041963 -0.00168176 -0.000902147 0.00244029 0.00385672 -0.00127295 -0.00221723 0.00492752 0.00196952 -0.00353221 0.00103276 -0.00457202 -0.00343086 -0.000482627 -0.00015066 -0.00363778 0.0039748 -0.00480674 -0.000975131 -0.00170966 -0.00280561 -0.00323388 -0.000354826 0.00086554 -0.0023911 -0.00192974 -0.00387894 0.000360199 -0.000490156 0.00298066 -0.00349702 -0.002203 -0.0047997 -0.00487554 0.000918494 -0.00282997 0.00117924 -0.0013383
要 -0.00150733 -0.0027483 -0.00123336 0.00390973 0.00438694 -0.00438792 -0.00262825 -0.00292973 -0.0017026 0.00196228 -0.00439968 0.00421708 -0.00375258 0.00485069 -0.00223031 0.00453956 -0.00481681 -0.00092033 0.00481813 0.0018757 -0.00395663 -0.0023683 -0.00254114 -0.00418078 0.00229192 0.00282908 -0.00173877 0.00278323 -0.00020512 0.0042695 -0.00154784 -0.00448936 -0.0024325 0.00217005 -0.00459647 -0.0017222 0.00381235 -0.00224588 -0.00315453 -5.52611e-05 0.00307885 -0.00283259 -0.00107254 0.00101591 0.00460176 0.00363699 -0.00285783 -0.00432893 -0.000298553 -0.000944319 -0.000996652 -0.000279063 -0.000743748 0.000555496 0.00331952 -0.00342547 -0.00392171 -0.00351484 -0.00208749 -0.00402535 -0.00462864 0.00220276 -0.000834694 0.00120731 1.42934e-05 -0.000232884 -0.00369303 0.00281037 -0.00489615 -0.00300064 -0.000879632 -0.000153512 -0.00216791 0.00115594 -0.00192118 -0.00484862 0.00265488 -0.00151974 -0.00235034 0.00223752 -0.00275436 0.000824578 -0.00108251 0.00245643 -0.00132209 -0.000255793 -0.00417602 0.000375 0.00173368 0.00357669 0.00316822 0.000875301 -0.00173899 0.00495338 -0.00202293 0.00131833 -0.00170192 -0.00370924 0.00446295 -0.00207869
一起 -0.00260875 -0.00341747 0.000469871 0.00380448 0.00464039 0.00216983 -0.00316767 0.00195142 0.00483631 0.00224168 -0.00051084 0.00462119 -0.00326366 -0.00178586 -0.00191109 0.00317234 -5.35069e-05 -0.000223963 -0.0034216 0.003556 -0.00408159 0.00115263 -0.00387126 -0.00230907 0.00411481 -0.00407954 -0.00283203 -0.00458413 0.000377311 0.000851804 0.0047044 -0.00103581 -0.00317322 -0.00158833 -0.00208645 0.0032349 -0.00398721 0.00335421 0.00135414 -0.00126138 -0.0049568 0.00293843 0.00143918 -0.000833376 -0.00325794 -0.00248223 -0.00451348 -0.00119204 -0.00438817 0.0031977 0.00401633 -0.00387847 -0.00346422 -0.000267058 -0.00395095 -0.00212792 0.00213025 0.00336283 -0.000112261 -0.000822217 0.000674793 -0.0038403 0.00455822 -0.000627663 -0.00401681 -0.00328735 0.00366845 -0.00361043 -0.00259472 -0.00256691 0.00157989 -0.00198478 0.00135755 -0.00360233 -0.00472736 -0.0031516 -0.00427291 0.00416752 0.00377687 -0.00317789 -0.00140296 -0.00308204 0.000975412 -0.00304797 0.000298212 -0.00351527 -0.00304715 0.000290225 0.00482203 4.2236e-05 -0.00469074 -0.00496615 -0.00310727 0.00349513 -0.00482159 -0.00445444 0.0038139 0.00353288 0.00197301 -0.00345914
做 -9.48773e-05 -0.00260537 0.0017489 0.00272481 0.00121375 0.000958347 -0.00477639 -0.00038344 -0.000548946 0.00118375 -0.00188706 -0.0045175 -0.00479779 0.000240222 -0.0049048 -0.000354498 0.00276843 0.00237434 -0.00434262 -0.00312447 -0.00107485 -0.00258528 0.00279505 4.73084e-05 -0.00264084 0.00293648 -0.000257701 0.00108117 -0.00441751 3.66011e-05 -0.0022805 0.000841736 -0.00162335 -0.00136092 -0.00115425 -0.00269739 -0.0012945 0.00242209 -0.00229236 0.00137329 0.00213729 0.00167915 0.00416845 0.004797 -0.000691052 0.00257593 0.00202947 -0.00363289 -0.00490242 0.00310741 -0.000196978 -0.00340965 -0.00391396 -0.0035009 0.00328279 -0.00285676 -0.00499523 -0.00437009 0.00080906 -0.00279417 0.00209981 0.0013926 0.000886246 0.00421138 -0.00305191 -0.00106387 -0.00199081 0.00439802 0.00339127 0.00490529 0.00306688 0.00489304 0.00371521 -0.00298387 -0.0048772 -0.00173883 0.00435667 -0.0042651 -0.00112607 0.0048159 -0.000299224 0.001821 -0.00435436 -0.00393424 0.000506562 0.0038349 -0.00296885 0.00489245 -0.00040406 -0.00126132 0.00414582 -0.00395906 0.00102188 -0.00350401 -0.000295657 -0.00163165 0.00267809 0.00122585 -0.00465458 0.00168893
或者 0.000966989 -0.00283865 -0.000755108 0.00440329 0.00365415 0.000144193 -0.00381907 0.00269065 0.000416139 0.000425911 -0.00378746 -0.0011152 0.00411569 -0.00260273 -0.00339017 0.000637534 -0.000823917 -0.00262999 -0.00171293 -0.00415245 0.0010087 -0.00110204 -0.00418584 0.0019983 -0.000112032 0.00363719 0.00350254 -0.00333187 -0.00145818 0.00230493 0.00283066 -0.00322156 -0.00079701 0.00257383 -0.00180242 -0.00176493 0.000260386 -0.00316503 -0.00109828 -0.00394691 -0.000959423 0.0018867 0.00346378 0.000638943 -0.00188583 0.0042997 0.00433875 -0.00125428 0.00492426 0.00400652 -0.00215169 -0.000611866 -0.000279322 -0.00354583 0.00320036 -0.00356428 0.00241437 -0.00152988 -0.00375707 -1.58534e-05 -0.00266726 0.00107861 -0.00325603 -0.00291469 -0.00200334 -0.00173557 0.00477387 -0.00171106 0.00242767 0.00381374 0.00319484 0.000628767 0.000532301 -0.00398453 -0.0026506 -0.00205674 -0.00361918 -0.00146848 0.00100863 -0.00407271 -0.00347719 -0.00125466 -0.000867636 -0.00371912 -0.00432259 -0.00337564 0.0038468 0.000448541 0.00349368 0.000280168 -0.00182187 -0.000690501 -0.00393383 0.00145809 -0.00383939 -0.00149963 0.00378487 0.00407524 -0.00426503 -0.000545788
什么 -0.0021378 0.0045683 -0.00108238 -0.00142358 -0.00203067 -0.000983438 0.00327622 -0.00129395 -0.00185341 0.00140149 0.000377192 -0.000783954 0.000303742 0.00271486 0.00119709 -0.000934821 0.00217999 -0.00174687 0.000272839 0.000148173 0.00496256 -0.00106648 0.00472229 0.000906642 0.00393217 0.000814482 -0.00236315 -0.00139004 -0.00421794 -0.00293388 -0.00436856 -0.00467353 -0.00284703 0.00283056 0.00380625 -0.0044187 0.00308856 -0.00246919 -0.004409 -0.00463959 -0.00337503 -0.000392102 0.00301597 0.00294588 -0.00266648 -0.00438471 -0.00211933 -0.00493548 -0.00375322 -0.00332533 -0.00313975 0.00194272 -0.000251178 0.000693367 0.00166725 -0.00281451 -0.000164632 -0.00323915 0.0039563 0.00129217 -0.0025295 0.00148351 0.003421 0.00320651 0.00493289 0.0024129 0.00193677 -0.00194833 -0.00312648 -0.00292759 0.00498092 4.58193e-05 0.00015879 -0.0032852 0.00269378 0.00407023 0.00446371 0.00153063 0.000757642 0.00418042 -0.00204607 -0.00291429 -0.00350713 -0.00418022 0.00170221 -0.00439828 0.00451518 0.00349179 -0.00324153 -0.000289773 0.00103938 0.00261463 -0.0023845 0.000696239 0.00281369 0.00438042 0.00175801 -0.00339859 0.00118885 -0.00116326
让 0.00156561 -0.00452005 -0.00349476 0.00487867 -0.00492565 0.00047837 -0.00328158 -0.000156351 -0.00448602 0.00184267 -0.0030721 0.00343593 -0.00328537 -0.00367085 -0.00114753 0.00468882 0.00216342 -0.0032961 -0.000258746 -0.00425709 0.00397479 -0.00101738 -0.00253901 -0.00360766 0.000992625 -0.00280769 0.00378037 0.00416574 0.0042968 -6.05975e-05 -0.00224345 -0.0025185 0.00451088 0.0024693 0.0026382 0.00480089 -0.0011429 0.00421711 0.00251559 0.00185832 0.0048073 -0.00418612 0.00367501 0.00374002 -0.000150747 -0.0049833 -0.00259097 0.00321144 0.00332793 0.00237989 -0.000135349 3.3624e-05 -0.00122255 0.00224611 0.000760326 -0.00193994 -0.000652336 -0.00234519 0.00263567 -0.00219069 0.00110826 -0.00398088 0.00459185 -0.00484848 0.00375941 0.00369863 0.00293078 0.00157536 0.000413037 -0.00251318 0.00184723 -0.00068658 0.00299197 -0.0036413 -0.000591586 0.00448021 0.00310108 0.00265738 -0.00125876 0.00266338 0.00399526 0.00167761 -0.00323142 0.00289141 -0.00254121 -0.00145047 0.00315685 0.00324802 0.000325634 0.00156761 -0.0029995 0.00161125 -0.004928 -0.0031877 -0.00147553 -0.00220817 0.00347163 -0.00476056 0.00424975 -0.00222614
、 0.000600076 0.00364636 0.00237625 -0.000504129 0.00399772 -0.00129371 -0.00319581 -0.00469418 0.00463227 0.00466674 -0.000323385 0.00358578 -0.0041749 -0.00443265 -0.00355933 -0.000403564 0.00282262 -0.0014982 -0.00437101 0.00206301 0.000855632 -0.000122777 0.00467043 0.000401832 0.00321409 -0.00099334 -0.00327353 0.000399074 0.00110102 -0.00348559 0.00222386 0.0039557 0.00213481 -0.000479525 -0.00434562 0.00170461 -0.00449274 0.00261982 0.00211352 0.00198587 0.00347987 -0.00499461 0.00497755 -0.0047124 -0.00451083 -0.00196052 0.00384654 -0.00338353 -0.00266821 0.00212737 -0.00441975 -0.00453785 -0.00188015 -0.000182423 0.00200232 0.00348267 0.0016261 0.00138337 -0.00181916 -0.00442645 0.00386238 -0.00272438 0.00286676 0.00322803 -0.00309188 0.004598 -0.00254228 -6.04662e-05 0.00371923 -0.00264468 0.00394509 -0.00258656 0.00479216 -0.00464537 -0.00400151 -0.00427501 0.00332685 0.0022958 0.0016987 -0.00235948 0.00250629 -0.00200383 0.00101672 -0.00472701 0.000592594 -0.00125661 -0.00179043 -0.0039176 0.00114734 0.0027571 0.0010581 -0.00150322 -0.00145588 -0.00011433 0.00301664 0.00164744 0.00351058 -8.83159e-05 -0.00425111 0.00223346
意义 -0.00164204 0.00142794 -0.00334909 -0.00247793 -0.00189595 -0.000965769 -0.00205502 0.00388521 -0.00201733 0.00285078 0.00090938 -0.00456946 0.00307222 -0.00433988 -0.00450082 0.00339635 0.00461282 0.00350712 -0.00244578 -0.00141525 0.00493435 -0.00467338 -0.00457029 0.000222645 -0.00409027 0.00336569 0.0043413 0.00335553 0.00330405 0.00181864 -0.00217136 -0.0049387 0.0029172 -0.00265813 -0.0031342 -0.00355519 0.00471329 -0.00212392 -0.00326369 -0.00233127 -0.00163794 0.00385326 0.00253066 -0.00211036 -0.000926621 -0.00218235 -0.00147951 0.000983551 0.00420838 0.000159752 -0.00186117 -0.00324067 0.00179564 0.00414202 -0.00423998 -0.000309756 0.000111092 0.00338327 0.00233074 0.00243048 -0.00436815 0.00151873 -0.00129302 0.00364877 0.00411186 0.00334549 0.00255031 0.00189167 0.00315958 0.00264619 -0.00159476 0.00106081 -0.0042472 0.00415934 -0.00330348 -0.00173439 0.00431282 0.000988482 -0.0040438 -0.00184039 0.00162608 7.25779e-05 -0.00346038 0.000625401 -0.00343082 0.000342806 -0.00300236 -0.00137587 -0.00362969 -0.000226509 0.00299509 -0.00396983 -0.0010344 -0.00358678 -0.00437968 0.00246634 0.0023529 -0.000610475 0.00397349 -0.00466962
长 -0.00334661 0.00310248 -0.00494474 0.00447126 -0.00308702 -0.00436216 0.00352865 -0.000875418 0.00499725 -0.00123115 0.000879765 0.000681939 -0.00309607 0.0038499 0.000246111 0.0045169 -0.000355206 0.000464333 0.00328974 0.00330289 -0.00474888 -0.0023201 0.00393193 -0.00450121 0.00200185 -0.00236404 -0.00457022 0.00184095 -0.00258645 -0.00180516 -0.00112373 -0.00147792 0.00350469 0.0011879 -0.00477925 0.0042277 -0.00266206 -0.00289828 -0.00148699 -0.00247276 -0.00244483 0.00296416 0.00445931 -0.0045737 -0.00286343 -0.00200139 5.35422e-05 0.00399505 -0.000203859 -0.00327477 0.00368808 -0.00467707 0.0039201 0.00376232 -0.00240556 0.00327634 -0.00488047 0.00127784 0.00177592 -0.00191297 -0.00232665 0.00301478 -0.00485601 -0.00025857 -0.00451764 0.00208509 0.000181339 0.00430201 0.00126878 -0.0041126 -1.38289e-05 -0.000350576 0.00362124 0.00299371 -0.00396062 0.00341116 0.00257885 0.00130016 -0.00244846 0.00100334 0.00251466 -0.00102472 0.000331735 0.00199682 -0.00123318 -0.00186954 -0.00376842 -0.00302096 -0.00191903 0.00228159 -0.000142138 0.00384115 0.00312553 -0.00201777 0.00237989 -0.00182663 0.00429086 0.00283205 -0.00435612 0.00100862
经历 -0.00444061 0.00219629 0.0024362 -0.000989619 -0.0033101 -0.00106199 0.00164688 0.00136874 -0.00352849 -0.00277766 0.0027889 0.000839701 -0.00412612 -0.00449112 0.00137247 -0.00428672 0.00391999 -0.00347742 0.00127279 -0.00175198 -0.00487113 0.00060404 -0.00143889 -0.00320891 0.00292672 -0.00161359 0.00176146 -0.00111094 0.000696182 -0.00119911 0.00428407 0.000493319 -0.00439111 -0.00466189 0.00374697 -0.00103837 -0.00282016 -0.0030955 -0.000245057 0.00249041 -0.00070222 -0.00067674 0.000875839 -0.00211928 -0.00212595 0.00434087 0.000574118 0.00393007 0.00262101 0.000187798 0.00153058 0.00160908 0.00379567 0.00268152 -0.0035926 -0.00245507 -0.00443806 0.000392361 0.00103386 0.00386368 -0.00477064 0.00325504 -0.0015248 0.00182147 0.00408822 0.00229462 -3.01102e-05 -0.00166247 -0.00342865 -0.00182159 0.00249046 -0.00465629 0.00231417 -0.00354763 0.00338022 -0.00173965 -0.000736299 -0.000662264 0.000933944 -0.00338879 -0.00364666 0.000927742 -0.00293004 0.0036486 0.00467286 -0.00409076 -0.000809741 -0.00321815 0.00484554 0.000215131 0.00429286 -0.000299153 0.00182535 0.00473434 0.0027825 -0.000967895 0.00133229 0.0016994 0.00445586 0.00380048
事 -0.00288697 -0.00380331 0.00194136 0.00343487 -0.00259269 0.00376308 0.00232546 -0.00376138 -0.00417083 0.00227157 0.00440896 0.00158914 -0.00348077 -0.00148308 0.0011467 -0.0012337 6.02194e-05 -0.00263727 -0.0030642 0.00301285 0.000440619 0.000701462 0.000557609 0.00327211 -0.00144921 0.00177581 0.000193317 -0.000798628 -0.00120169 0.00227654 -0.00144233 -0.00142239 0.00483263 -0.00459053 -0.0030196 -0.00206856 0.000826741 -2.33714e-05 0.00482884 0.00322612 -0.00173717 0.002619 0.00192856 0.00435435 0.00113047 -0.00276843 -0.000842998 0.000248881 -0.00176071 -0.00099521 0.000173417 -0.0026977 8.73261e-05 -0.00287609 -0.00415414 -0.000455232 -0.00321516 -0.0010978 0.0015805 -0.00435543 0.0044451 -0.000419729 0.0044062 -0.00401306 0.00275968 0.00388371 0.00183701 -0.0035732 0.0018642 -0.00499834 -0.0022557 -0.0018002 -0.00162826 -0.00210809 0.00445788 0.00288691 0.000338144 0.00193956 0.00345096 0.000632768 4.57801e-05 -0.00282981 -0.00350883 -0.00305573 -0.00109178 0.00483057 0.00437602 -0.00050214 0.00496535 0.00385455 0.00445911 -0.00181631 0.00063155 0.00328022 -0.0049032 0.00416885 0.00239829 0.000264979 -0.00476249 0.00246522
怎样 -0.00189238 0.00387 0.00255986 -0.0015946 -0.000218616 -0.000507066 0.00202256 -0.00104847 0.00426048 -0.00197723 -0.00243024 0.00470863 0.00232988 0.00214009 0.00171396 0.00108374 0.00228828 -0.000539049 -0.000454651 -0.00229317 0.00482536 0.00113632 0.00224165 0.00121497 -0.000212895 -0.00186984 0.00275513 0.000874595 -0.00433122 -0.00314472 5.06996e-05 -0.00166031 -0.00178674 -0.00166934 -0.000331779 0.0047216 0.00143488 0.00252883 -0.00116023 -0.00202665 0.00273584 -0.00441548 0.00324376 -0.000702447 0.00376502 -0.000341879 0.00483872 -0.00337032 -0.00331851 0.001485 -0.00494524 0.000325622 0.00424011 0.00334669 0.00179248 -0.00050216 0.00227783 0.000943112 0.00378696 0.00371922 -0.00235266 0.00242891 0.00498887 0.00315687 0.00282705 0.00285248 0.00190934 -0.00443139 0.0042092 -0.00452331 -0.00195175 0.00417652 -0.00154489 6.86777e-06 -0.00100468 0.00457937 -0.0018905 0.00194047 -0.00189387 0.00450302 0.000947276 0.00123765 0.0017481 0.0034036 -0.00369159 -0.0014676 0.00143741 0.00266205 0.00310638 -0.00348197 0.00188915 0.00113552 -0.00417353 0.00252732 0.00244344 -0.00420673 -0.00409743 -0.00139082 -0.00414545 0.00413825
中国 -0.000393237 -0.00189305 0.00054924 0.000353931 0.00287064 -0.00348225 -0.000774726 0.00404737 -0.000574771 0.0031699 -0.00435417 0.000472165 -0.00228339 -0.000626839 0.00484829 0.00432798 -9.38411e-05 0.00261234 0.002743 0.00227463 -0.000977973 0.00134634 0.000228281 0.000584459 0.00239886 -0.00102643 0.0019459 -0.00149941 -0.000525151 0.00370909 -0.000974177 -0.00374071 -0.000535359 0.000345902 -0.00112319 -0.00176938 -0.00390592 -0.00241949 -0.00373429 -0.00449013 -0.00225873 0.00183775 0.000337228 0.00491445 -0.00420617 0.0031839 0.00404822 -0.00148849 -0.00324913 -0.000575716 0.00217139 0.0027926 -0.00220042 -0.00363875 0.00366084 -0.0012005 0.00486592 0.00380121 0.00357614 -0.000569651 -0.00223017 0.000602638 -0.00232564 3.93805e-05 0.00144431 -0.00413555 -0.00114896 -0.000807135 0.00137652 -0.00180128 0.0025439 -0.000601718 -0.00295486 0.0023729 0.00188319 -0.00095123 -0.00345075 0.0021775 -0.00196732 -0.00342773 0.00098346 -0.00346288 0.00151869 0.00108858 0.00389397 -0.00431448 -0.00341444 -0.00171704 -0.00335737 -0.000742994 0.00373131 0.00184378 0.000932891 -0.000509311 0.00443342 0.00202831 0.00377236 -0.000584779 0.0010287 -0.000168777
会 7.24908e-05 0.00179882 0.000148952 0.00475976 -0.000776273 0.0035599 0.00389568 0.00087447 -0.00147891 0.000968555 -0.00475383 0.0026674 -0.00200168 -0.00262616 0.00425462 -0.00010813 0.00122602 -0.00353821 -0.00459572 -0.00100455 0.000951802 0.000607781 -0.00166135 0.00286729 -0.003453 -0.0008916 2.91402e-05 0.00359905 0.000348924 0.00245589 4.45265e-05 0.00214638 -0.00215232 -0.00491224 -0.0034215 -0.00166795 -0.00298622 0.00166037 0.00455242 -0.000459436 -0.00082282 0.0037695 0.00461576 0.00216347 -0.000441028 0.00342103 0.00460391 -0.0016619 0.00456483 -0.00282476 0.000381297 -0.0045525 -0.00453787 0.0041722 -0.00225818 0.00111414 -0.00113878 0.00113931 -0.00297704 -0.00332509 0.00264937 -0.00123901 0.0028872 0.00475559 2.89567e-05 -0.00106478 -0.00369683 0.00343947 -0.00397053 -0.00175105 0.00238636 0.00230494 -0.000946487 -0.00202737 0.00265774 -0.00220507 0.00162541 -0.00268976 0.00321354 -0.00125296 -0.00326674 -0.00263393 -0.000779241 0.000122683 -0.00124496 -0.00221922 -0.00339468 -0.00254282 -0.00152413 -0.00458902 -0.00256153 0.00497035 -0.00272701 -0.00349491 0.00023268 -0.00353658 -0.00400299 0.00276104 -0.00285735 0.00155913
对 0.00453144 -0.00205914 -0.0033665 0.00140334 0.00144933 0.00492855 -0.00420892 0.00479485 -0.00147226 0.00153568 0.00347774 -0.00355943 -0.00401935 -0.00267438 -0.00374279 0.00263783 0.00441289 0.000653586 -0.00144614 0.00064286 0.00369514 -0.00353319 -0.000998964 0.000119241 0.0030059 0.00076804 -0.00422827 -0.00292098 -0.00323403 0.00409432 -0.00429373 -0.000498009 -0.00125811 -0.00234758 -0.00237014 0.00249763 -0.00422862 -0.00371313 -0.00293477 0.00440545 0.00238814 -0.0020119 0.00345009 -0.00415336 0.00388697 0.00467682 -0.00425046 0.00175407 0.00445382 0.000267327 0.00353029 0.00118215 0.00121657 0.00318788 0.00066941 -0.0039548 0.00390121 0.00319825 0.00165092 0.00425028 5.69391e-05 0.000896743 -0.00311045 -0.000104632 -0.00287812 0.0011857 -0.00473709 -0.00475941 0.00312304 -0.000976175 -0.00499127 -0.00466401 -0.000943574 0.0047903 0.00224708 -0.00387035 0.00320614 0.0028302 0.000213488 -0.00252593 -0.00347981 -0.00440456 0.000129542 -0.00306486 -0.000714087 0.00343723 -0.0040646 0.0020248 -0.00451253 0.000801418 -0.00218619 0.00420476 0.00334455 -0.00336007 -0.00402924 0.00311031 0.00162543 -0.000706154 0.00089931 -0.00301567
影响 -0.00146819 0.00170352 0.00303023 -0.00102946 -0.000926024 -0.00300825 0.00423826 0.00201676 0.00473062 0.00255547 0.000473999 -0.000490225 0.00415363 0.00320208 -0.000471332 4.38301e-05 -0.00393234 0.00389674 -0.00246352 -0.00498585 -0.00248161 0.00107702 0.00319242 -0.000713635 0.00173994 -0.0031011 -0.00295326 -0.00408463 0.00435672 0.000647628 -0.00299452 0.00422476 0.00318194 -0.000900148 0.00108641 -0.00145683 0.00308601 -0.00382063 0.00261387 -0.0032577 0.000256948 -0.00174173 -0.00186945 -0.00473104 -0.00416334 -0.00492405 -0.00160053 0.00016795 0.00360738 -0.00360977 -0.00304837 0.00451206 0.00037696 0.00451344 0.00384146 0.00379875 0.00441622 -0.00258579 0.00390374 -7.12519e-05 0.00250954 0.00251969 -0.00455416 -0.00391608 -0.00427502 -0.00370204 0.00246764 -0.00470923 -0.00483986 -0.00313788 -0.00163706 -0.00120844 0.000707757 0.00010224 0.00360436 0.00419135 -0.000926872 -0.00413162 0.00176083 0.00458626 0.00499847 -0.0027611 -0.00232045 -0.00162605 0.00150193 -0.00300333 0.00343648 -0.000842711 0.00441633 -0.00448942 0.00156467 -0.00199875 0.000185084 -0.00393142 -0.000217621 -0.00397863 0.0041588 0.000758111 -0.000968572 -0.00493036
了 0.00212001 0.000967063 -0.00134996 0.00465475 -0.00104769 -0.00261676 0.0019336 -0.00307038 0.0035871 0.00176353 -0.00307922 0.00251289 0.00193508 -0.00213059 -0.000410817 0.00122806 -0.0037236 -0.00394841 -0.000816937 0.00209877 -0.00187175 0.00121215 0.00233828 -0.000123589 0.000209807 0.00182806 -0.00164695 0.00329679 -0.00178443 -0.00130086 -0.00351511 0.00231115 0.00170882 0.00334004 -0.00275864 0.00303784 0.00140088 0.00472785 0.0044384 0.00482406 0.000589736 0.00271691 -0.000137334 0.00386333 -2.38592e-05 0.00472236 -0.00216546 -0.00266177 0.00327817 0.00464088 -0.00461843 0.000225042 -0.00392659 0.00463444 0.00482215 0.0030104 0.00450508 -0.00104397 0.00303641 0.000916181 0.00163311 0.00482226 -0.0029951 -0.00400107 0.000993954 0.0011748 0.00154062 -0.00366386 7.30321e-05 0.00338279 -0.00167187 0.00129469 0.00412746 -0.00314047 0.00421997 -0.00138377 -0.0039399 -0.000127675 -0.0030743 -0.00424927 -0.00403512 0.00367056 -0.000806728 -0.00244473 0.00490662 0.000813744 -0.00105496 0.00444099 0.00323596 0.001101 0.00494463 -0.00313013 0.00168262 0.0023981 -0.00402445 0.00281728 -0.00305138 -0.00497974 0.00257934 0.00296362
吃 0.00193307 -0.00126549 0.00269794 -0.00400183 0.00444878 -0.00166986 0.00466115 0.00120085 -0.00399948 0.0023871 -0.00221288 -0.0021518 0.00387809 -4.08678e-05 0.00294125 -0.00368643 0.00220606 -0.00231695 -0.00165174 -0.00425995 -0.00332916 -0.001434 -0.00277072 0.00167053 0.00433669 0.0034657 0.000440719 0.00164555 -0.000118614 0.000379392 -0.00299419 0.00246207 -0.00318439 -0.00448856 -0.00492606 0.00150081 0.000636296 0.00243099 -0.00119456 0.000113814 -0.00330616 0.00313914 0.00444934 -0.000130454 0.00481575 0.000692518 0.00382096 0.00132786 -0.000398913 0.000661857 -0.00388455 -0.00239093 -0.00471434 -0.00041363 -0.00332352 0.0016599 -0.00412591 -0.00287567 -0.000477029 0.00480447 0.00229856 -0.00469868 0.00288052 -0.000117632 -0.00275328 0.00070551 -0.00129955 0.00144576 0.00420828 -0.00354691 -0.00354601 -0.00391871 0.00147749 -0.000468838 0.00261718 -0.000388917 0.00203935 0.00136936 -0.003766 -0.00487549 -0.00275716 0.00486232 0.00177201 8.91958e-06 0.00170735 -0.00223541 -0.00244914 -0.00288764 -0.00263151 -0.00190989 0.00136007 0.00134533 0.000745557 0.000996825 0.000139208 -0.000384161 0.00148318 0.00205288 0.0037746 0.00277062
男人 -0.00352151 0.000770711 0.00255541 -6.88785e-05 -0.00341257 -0.000753123 -0.00376 -0.00128334 0.00183104 -0.00195747 0.00301155 0.0033537 0.000934723 -0.00354904 -0.00337738 0.00093515 -0.00164325 0.00243708 0.00452462 0.00259002 -0.00390635 -0.000636471 0.00461014 -0.000910397 -0.000527088 0.00395448 0.000944246 -0.00275217 -0.00455462 -0.00358215 -0.00254863 0.00018804 -0.00239635 -0.00280109 -0.00453254 0.00146393 0.00270669 -0.00129875 -0.00271511 -0.00280403 0.00382361 0.00302427 0.000588413 -0.00257199 -0.00252114 -0.00168359 -0.00253424 -0.00410526 -0.00279954 -0.00421751 0.00010349 0.0044003 0.00375059 -0.000531345 -0.00312242 0.00490542 -0.000420578 -0.00202318 -0.00465303 0.00141418 0.000672292 0.00282398 -0.00247727 0.00423487 -0.00106521 0.00130803 -0.00276427 0.000551501 0.00228607 0.00391808 0.00017444 0.00260935 0.00055826 -0.00183815 -0.00396542 -0.000173445 -0.0005568 8.06653e-05 0.00210286 -0.000730278 -0.00317081 -0.00453368 -0.00217333 -0.00309347 0.003021 -0.000382669 -0.00120785 -0.00224526 -0.00467317 -0.00353482 -0.00115917 -0.000341859 -0.00312477 -0.00080992 -0.00166948 -0.000347222 0.00458552 0.00437455 -0.000949847 0.00399582
哪 0.00353017 0.0029549 0.00314745 0.00160921 0.0001602 0.00111056 -0.00373832 -0.00399431 0.000980249 -0.000407317 0.000955088 -0.00103215 0.00460465 0.0035009 -0.00370143 -0.000811504 -0.00499887 -0.00157388 0.00182612 0.00315145 -0.0026251 0.00353425 2.60609e-05 0.0044283 -0.00493446 -0.00232409 0.00143526 0.00407433 -0.00469894 -0.00293491 0.00161736 0.000970302 0.00137623 -0.00485714 0.00452763 0.00257963 0.000518174 0.00479755 -0.00219221 0.00115104 -0.00250388 -0.00296781 -0.00134449 -0.00353618 -0.00341227 -0.00191636 -0.00308726 0.00310224 0.00477581 0.00449739 -0.0021293 0.00207598 -0.00332743 -0.00469786 0.00256823 0.0024492 0.00151399 -0.000397989 -0.00481534 -0.0037818 -0.00141175 -0.000443804 -0.000617474 -0.000791798 -0.00219924 -0.00316707 0.00399751 -0.00260221 -1.67006e-05 -0.00323679 -0.00422152 0.00389258 -0.00373104 -0.000115663 -0.00266074 0.000800586 -0.00144508 -0.00211957 0.00395964 0.00340915 -0.00374062 0.000972882 0.000162546 -0.00396442 0.00141318 -0.00195308 0.0031714 0.00461832 -0.00421452 -0.000880758 0.000579909 0.00364015 -0.00490626 -0.000108148 -0.000269842 -0.00480843 -0.00481858 -0.00217208 -0.00330946 -0.00130879
感觉 0.00450734 -0.00437222 0.0019549 0.00257581 -0.00106367 0.00340308 -0.000484516 -0.00103645 0.00234022 -0.00451635 0.00231981 0.00382584 -0.000524933 0.0039328 -0.00499561 -0.00332226 0.00312837 0.00378611 0.00137221 0.00400418 0.00074783 0.00417153 0.00289494 0.00319697 -0.000852153 0.00131167 -0.000966105 0.00416084 0.00030851 -0.00199681 -0.000995622 0.00304836 0.00341723 0.00124356 0.00289768 0.00453599 -0.00305255 -0.00197131 0.00467474 0.00205734 -0.00260636 0.00264755 0.000563313 -0.00395362 0.00375141 0.00328181 0.00373524 -0.0036652 -0.00252329 -0.00253955 -0.000136316 0.000107551 -0.00389445 -0.00477236 0.00155679 0.00310331 -0.000805961 0.00102515 -0.00230622 -0.00404885 0.000603703 -0.000169213 -0.00465122 0.00418636 -0.00348454 -0.000779766 -0.000689438 -0.00314175 -0.00172635 -0.00483708 0.00207293 0.00443211 0.000156493 -0.00220985 0.00113143 -0.00362897 -0.00477701 -0.000530492 -0.000391998 -0.00313269 0.00436714 -0.00347293 -0.000379299 0.000769253 0.00217415 0.000539085 -0.000748724 -0.00272136 -0.0016645 0.00374266 0.000536206 0.000390948 0.00384664 0.00475617 -0.00336342 0.00171449 -0.000698828 0.00484777 -1.16231e-05 0.004931
能 0.00303134 0.00188122 -0.00119432 0.00313415 -0.00324931 -0.00463922 -0.00155983 0.00145244 -0.00374317 0.000387174 0.0043775 0.00483542 0.00125185 -0.00248499 -0.00337099 -0.00485772 -0.0045512 0.00418166 -0.00256514 -0.00116161 -0.00427352 0.00226669 0.00323058 -0.00177128 -0.00344901 -0.000554644 -0.00304438 0.000219196 0.000328554 -0.000886557 -0.0048765 0.00433458 -0.000118645 -0.0041743 -0.0021246 -0.000445076 -0.00121799 -0.00405049 0.00262297 0.00402766 0.00202762 0.000233276 0.00247418 -0.00439256 -0.00278943 -0.00192005 -0.00326792 0.00277451 -0.00450653 0.00189931 0.0037062 0.00205523 0.00289159 -0.0017541 -0.00433929 0.00495652 -0.00313235 -0.004756 -0.000544977 0.00393665 0.000550268 0.000817541 -0.000337645 0.00109551 -0.00259949 -0.00361348 0.00353867 0.00284553 0.00455824 -0.000745286 0.000379008 -0.00280926 0.000924291 0.000624552 -0.00106529 0.00401098 -0.00311602 -0.00132215 0.0026588 -0.00288397 0.00352124 4.09103e-05 0.00157278 0.00169482 -0.00418912 0.000293641 -0.00268461 0.001042 -0.000786524 -0.000914445 0.00357815 0.0013474 -0.00160966 -0.0039237 -0.00102411 -0.003634 0.00459462 0.0015652 -0.0036501 0.00377416
关于 0.000104237 -0.00363473 0.00468277 0.00419989 0.0021336 0.00275803 0.000405279 -0.000316942 0.000209542 0.00381177 0.000258058 -0.000373171 -0.00101798 -0.0033945 0.00474249 -0.00059782 0.000902886 -0.00417412 0.00363738 -0.00309695 0.00184976 -0.00210524 0.0046564 -0.00475471 -0.00463748 0.00317428 0.000176431 -0.000358277 -0.000806099 0.00408005 -0.00291346 -0.00414464 -0.000475824 -0.00399333 0.00361677 0.00217812 -0.00025363 -0.00300254 -0.00188266 -0.00421452 -0.00488711 0.00096513 -0.00339418 0.00273322 0.000723286 -0.00204595 0.00101973 0.00127739 -0.000195992 0.00472902 -0.00454296 -0.00404248 0.00426349 0.00142221 -0.00455059 -0.00269685 -0.00489334 0.0027662 0.00397683 0.00228762 -0.000443201 0.00413485 -0.0014615 -0.00369017 -0.00223331 -0.00440678 -0.0045272 -0.000259328 0.0018429 0.00329999 0.00472911 -0.000138257 0.00166591 -0.00156851 -0.000828833 -0.00344319 -0.00423311 0.00400969 -0.002146 -9.66852e-05 -0.00231924 -0.00303926 0.00323028 0.00308732 0.00123844 0.00111426 0.00253955 0.00147396 -0.00274229 0.000951944 -0.00281733 0.00375143 0.000591135 0.00374337 0.00324393 -0.00289036 -0.0040339 -0.00372869 0.0038672 -0.00086732
是否 0.00432406 -0.000813959 -0.00440298 0.0020791 0.00279652 0.00354402 -0.00187069 -0.00201034 0.000350844 -0.00469528 -0.00484396 0.000120818 0.00145163 -0.00123926 -0.00217787 0.000692711 0.00394425 -0.00281344 0.00252715 0.00143827 -0.00268038 -0.000802803 -0.000312229 -0.000495468 -0.000450282 -0.00334625 0.000391515 0.004197 0.000302733 0.00328267 0.0018347 0.000546228 0.00493433 -0.000549694 -0.00147454 0.00119638 -2.68895e-06 0.000923035 -0.00123364 0.00110009 0.00442842 0.00413776 0.00493673 -0.000196367 0.000352018 -0.00457664 0.000108328 0.00154815 0.00200422 0.00355079 0.00020937 0.00488367 -0.00201633 0.00147292 0.00234509 -0.00361007 -0.00156788 0.00303927 0.00134926 0.0046154 -0.00240872 0.00087074 -0.00327937 0.00401934 -0.00147832 0.00179333 0.00346338 0.00195849 -0.00286381 0.00437645 0.00236965 -2.87532e-05 0.00393286 0.00480308 -0.00448646 -0.00433338 -0.00316571 0.000731664 0.00195345 0.00243501 0.00275489 0.00220501 0.0016942 -0.000348641 -0.00218469 -0.00302218 -0.00426474 0.00200821 0.00333238 -0.000573672 -0.0033155 0.00438465 0.00332987 -0.00208316 0.00012814 0.001484 0.000379809 -0.00128824 -0.00434882 -0.00061981
像 -0.00198341 0.000971302 -0.00403809 0.00458584 -0.000605787 0.00149443 0.00459038 0.00184505 0.00229403 0.00156496 0.004324 -0.000651326 -0.000831615 -0.00374137 0.00485448 0.00424246 -0.00104212 -0.000125251 0.00319816 -0.00316245 0.00265189 -0.00187546 -0.00462467 -0.0043351 0.00450728 -0.00444738 0.00289714 0.00195165 0.00398616 0.00470884 -0.00091909 -0.00275493 0.00441992 0.00366111 -0.00407448 0.00298677 0.00212199 0.00415704 -0.00221575 -0.00438724 -0.00365635 -0.00045444 -0.001848 0.00304554 -0.00267646 0.004269 -0.00464346 0.00311309 -0.000346126 -0.00226389 -0.00105837 0.00349885 0.00190629 0.00289604 -0.00485006 -0.00150198 0.00209479 0.00292225 0.00232724 0.000666249 0.00305553 -0.00312576 -0.00296813 -0.000962199 -0.00312873 -0.00443863 -0.000434803 -0.00142063 0.000577686 0.000316363 0.00158108 -0.00123237 -0.0018366 -0.00125626 0.00425047 -0.00153797 0.00211817 0.00145089 -0.00201747 -0.000301568 -0.00414134 -0.00402651 0.00374021 -0.000121344 -0.00107481 -0.00387147 0.00432353 -0.000804208 0.000558088 0.00433579 0.000150905 0.00358476 0.00491835 -0.00327274 -0.0026723 -0.00148437 0.00114566 -0.00133248 0.000928629 0.00404566
这么 -0.00257987 -0.00167148 0.00148086 0.0011303 -0.00220894 0.00424534 -0.000983338 0.00263945 0.0032466 0.00178044 -0.00495243 -0.00491665 -0.00233796 -0.000591025 0.00256624 0.00382797 0.00104214 0.00170401 0.00219904 0.00297678 -0.00149372 0.00486412 -0.000115718 0.00357972 -0.00162334 0.000635255 -0.00472623 0.00178327 -0.00351674 0.000804498 0.00379056 -0.00426576 0.0005154 -0.00128676 0.00248883 0.00292923 0.00319365 -0.000650737 0.00389863 -0.000575669 0.00152591 0.000993542 -0.00319203 -0.00446832 -0.000163113 0.000161687 0.00322195 -0.00259291 -0.00147359 -0.00366665 0.0044525 -0.00298224 -0.0013558 -0.0012086 0.00269109 0.00286452 0.0019973 0.00247188 0.00461449 0.000306168 0.001564 0.00341616 0.00366549 -0.0019066 -0.00246665 -0.000515414 -0.0025889 -0.00240214 -0.00359244 -0.00186429 0.00258696 -0.00262258 0.00465348 -0.0024404 -0.00252358 0.00196447 -0.00422501 0.00394397 0.00363027 -0.00393091 -0.000448093 0.00369243 0.00181144 -0.00153011 0.00487369 0.00142442 0.00279178 0.00197663 -0.00465793 -0.00458033 -0.00443512 -0.00272782 -0.000140389 0.00475701 0.00454948 0.00377131 -0.00266722 -0.00113849 0.000375327 -0.00266457
