185 100
如何 0.0675544 0.0697567 -0.0952355 -0.111726 -0.00966213 0.0517062 0.163526 -0.0445876 0.0943197 -0.0471417 0.150998 -0.012394 -0.156529 0.107215 0.0520334 0.0287526 0.283251 0.34391 -0.0355576 -0.0414078 0.182076 -0.0293076 0.0186634 -0.0429909 0.0870662 0.117923 0.0557924 -0.304962 0.130394 -0.0122312 0.22218 -0.162954 -0.0353605 -0.068985 0.0247523 0.229107 0.0364331 0.00419972 -0.0733716 0.116549 0.331727 0.0465381 -0.151815 0.247569 -0.174655 0.175678 -0.182423 0.175064 -0.208892 -0.0519036 0.0122651 -0.210602 -0.00262668 -0.00542914 0.288714 -0.179141 0.211061 0.234235 0.0743322 -0.118353 0.117083 0.0813415 -0.0691403 -0.0354212 -0.31467 -0.031377 -0.011249 -0.179843 -0.186156 0.0140447 -0.118824 -0.160069 0.03106 0.0871837 0.268999 -0.125203 -0.0728342 0.0872337 -0.160974 0.0907174 -0.0210971 -0.0842619 -0.0296424 0.0915496 0.112713 0.276934 0.169534 -0.0833953 0.0443237 -0.202435 0.215824 0.105386 0.0134993 -0.0263398 -0.119044 -0.0944611 -0.0941271 0.0312141 -0.00107192 0.00344761
得 -0.0204873 -0.114273 0.0601154 -0.0645086 -0.140416 0.0579501 -0.0998806 -0.0283898 0.15322 -0.0704677 0.0489748 -0.0666624 -0.0148296 0.0201643 -0.0827583 0.027964 0.104948 0.0612239 -0.092519 -0.128288 0.0646824 0.020984 0.0793918 0.0345636 0.139844 -0.0107853 -0.035607 -0.133341 0.0952939 -0.102974 0.170715 -0.0383 0.108911 0.0839894 0.0145528 0.0504705 -0.0961455 0.0945242 -0.0437747 0.165473 0.10684 -0.0909556 -0.217785 0.138864 -0.0728515 0.0356046 -0.0475473 0.058904 -0.158848 0.201835 0.0984866 -0.0720098 0.0341926 0.148627 0.189806 -0.228135 0.260908 0.162881 0.105635 -0.162839 -0.00471416 -0.0193559 0.0930961 -0.00507165 -0.163552 0.00595612 0.0590861 -0.284 -0.13735 0.00974959 -0.114836 -0.140282 0.0320558 0.195447 0.0649364 -0.0184279 0.00249382 0.161337 -0.0942582 0.103459 -0.179634 0.0581221 0.0162481 0.119996 0.00732906 0.224806 0.14645 0.00501711 0.105814 -0.114844 0.110416 0.0241298 -0.120102 -0.0982182 -0.0135955 -0.030404 0.0364857 -0.0322096 0.0391627 -0.058481
别人 0.00219669 -0.0820379 0.109686 -0.0584933 -0.141041 0.124834 -0.087595 -0.00157401 0.117197 -0.0280493 0.0758812 -0.0275607 0.0218758 0.0697792 -0.0918912 0.0553641 0.167725 0.0541493 -0.15755 -0.165828 0.0837007 0.00174097 0.103559 0.0161317 0.148678 -0.0179003 -0.0353379 -0.188397 0.0842222 -0.124459 0.23874 -0.0718646 0.100694 0.111094 0.0745825 0.0760488 -0.0890442 0.0492754 -0.0489331 0.184467 0.154253 -0.047808 -0.235806 0.205071 -0.0335428 0.0761975 -0.0513329 0.129058 -0.133974 0.0998967 0.192033 -0.076902 0.0128268 0.120671 0.239857 -0.207545 0.28186 0.180272 0.141309 -0.196767 -0.0231737 -0.0181395 0.0594678 -0.00637721 -0.175751 0.0284437 -0.0286884 -0.260707 -0.124253 -0.0232201 -0.111544 -0.203638 0.0363876 0.203323 0.0758723 -0.0179704 -0.0123096 0.125505 -0.0997948 0.101021 -0.104612 0.0289121 0.00830093 0.132275 0.0477827 0.259748 0.110698 -0.015954 0.117004 -0.120292 0.146902 0.0249124 -0.0554826 -0.074414 -0.0710112 -0.0577156 0.00583763 -0.033733 -0.0141256 -0.059065
一 0.0537091 -0.0265979 0.267943 -0.101057 -0.00794508 0.186323 -0.0758171 -0.151951 0.196994 0.12775 0.0507879 -0.112122 0.101646 0.0251401 -0.0898118 0.117004 0.287086 -0.215567 -0.333498 -0.152225 0.178035 -0.0294461 0.269836 0.218142 -0.114768 -0.0709697 -0.0900251 -0.216826 -0.222576 -0.0349205 0.166311 -0.162394 0.178689 -0.0275145 0.165848 0.199611 -0.166763 0.116322 -0.0991056 0.142729 0.00304741 0.00416209 -0.077385 0.104446 -0.173052 0.272311 -0.0974703 0.157125 -0.124141 0.199482 0.0940317 -0.1744 -0.0387918 -0.0887556 0.393548 -0.0869728 0.080796 0.353082 0.114043 -0.0881824 -0.0773731 -0.0966733 0.0541687 0.0999238 -0.124342 0.144637 -0.229409 -0.283391 0.105759 -0.19315 0.0217822 -0.134775 -0.149881 0.180913 0.0659611 0.079094 -0.0309099 -0.0171975 -0.0611613 -0.0676139 0.0639541 -0.0331975 0.107163 0.27881 -0.102413 0.306763 0.073854 -0.0726744 0.068753 -0.0310306 0.234699 -0.130366 0.00958006 -0.0200986 -0.187441 -0.171987 -0.202382 0.117202 0.145097 -0.196539
的 0.0304494 0.0338915 0.219641 -0.0684173 -0.121039 0.033759 0.0337245 -0.114453 0.111227 -0.0341169 0.0614663 0.0282232 0.082835 0.0466288 -0.232421 -0.0160585 0.251859 0.127043 -0.26952 -0.00775782 0.0946618 -0.0659039 0.0704232 0.0439222 0.0394585 0.0300289 0.0530043 -0.244413 0.0440354 -0.135629 0.198992 -0.0982386 0.0804777 0.111422 0.0989392 0.113063 -0.0522151 0.161198 0.0330534 0.149167 0.245087 -0.00281207 -0.18103 0.113906 -0.0303823 0.114865 -0.107188 0.0776689 -0.171323 0.0190262 0.264414 -0.221636 -0.0806011 0.0500415 0.203086 -0.24053 0.192909 0.084417 0.19846 -0.0303939 -0.16117 -0.148297 0.0283856 -0.0182192 -0.0392791 0.166891 -0.104853 -0.22356 -0.11543 -0.075704 -0.0952843 -0.268264 0.0509394 0.0908628 0.063753 -0.0926322 0.0165398 0.0888944 -0.00919545 0.0668079 -0.0831228 -0.0462433 0.173423 0.249735 -0.00128137 0.325871 -0.0308086 -0.00472312 0.108697 -0.156465 0.160614 -0.0808301 0.091876 -0.161793 -0.130851 -0.106105 0.0284071 -0.113508 -0.0570851 -0.129283
？ -0.14593 -0.073944 0.0347542 -0.128892 -0.215603 0.0512717 -0.0709794 -0.140253 0.106418 0.0529903 0.0410773 -0.0743048 -0.0383231 0.0297329 -0.0432647 -0.0324238 0.131724 0.132188 -0.202474 -0.151125 0.0985428 -0.196955 0.151196 0.0999029 0.198793 0.0143587 0.115273 -0.220651 0.111362 -0.0983275 0.192246 -0.183439 0.166344 0.0746021 0.139964 0.0193422 -0.0650231 0.0380918 -0.0357812 0.224339 0.248861 -0.0539883 -0.337117 0.162068 -0.00533092 -0.138503 -0.0227225 0.17562 -0.00361298 0.28243 0.276849 -0.255858 -0.0010987 0.116204 0.24783 -0.205217 0.290779 0.147245 0.24438 -0.146863 -0.0514855 0.030051 0.042876 -0.0465751 -0.0982447 0.0857347 -0.115462 -0.2105 -0.137119 -0.0558864 -0.116106 -0.194777 0.130783 0.150276 0.138498 -0.102667 0.0575931 0.109834 -0.0240183 0.0566551 -0.200727 0.0203006 -0.0201404 0.0466899 -0.00600007 0.219317 0.106719 0.073639 -0.0599014 -0.162492 0.0989115 0.0540236 -0.064783 -0.0524663 -0.0168413 -0.123591 0.0337375 -0.0680733 0.0764067 -0.228428
你 -0.0035864 0.033323 0.232132 -0.0803646 -0.135616 0.0888321 -0.167135 0.00924007 0.0615177 -0.107074 0.104481 0.123787 0.22773 -0.00180575 -0.301189 -0.156173 0.131811 -0.108154 -0.274755 -0.140025 0.0847752 0.106509 0.138571 0.0373453 0.0594236 0.00499627 -0.0656358 -0.101798 -0.0367172 0.00314223 0.161709 -0.0341507 0.182088 0.163228 0.0748418 0.0290618 -0.0249275 0.152844 0.1608 0.131079 0.239421 -0.193003 -0.178108 -0.0636118 -0.0242568 0.170928 0.074233 0.055717 -0.200997 0.00462529 0.170249 -0.0324806 -0.129607 0.224305 0.0281102 -0.367466 0.259847 0.0937093 0.0835446 -0.158689 -0.086134 -0.156713 -0.0752087 -0.0738239 0.0891654 0.266396 0.103473 -0.48721 -0.104567 -0.0917065 -0.0476389 -0.277432 0.120578 0.185817 0.0709924 0.0197559 0.0647414 0.257431 -0.0954507 0.141312 -0.284873 -0.0121122 0.135981 0.257122 0.16087 0.229538 -0.0578809 0.0108226 0.103394 -0.124305 0.121073 -0.0275779 -0.0958904 -0.296748 0.123595 -0.131191 0.139046 -0.149896 -0.00612051 -0.0659146
哪些 -0.088083 0.0275495 0.16451 -0.157706 -0.0183446 -0.182481 -0.045693 -0.163155 0.0689717 -0.201712 -0.00320424 0.00783552 0.0501079 0.0656091 -0.325202 -0.21802 -0.0235456 0.3549 -0.109777 0.0741632 0.00603704 -0.0971475 -0.0728561 -0.0662329 0.175989 0.148124 0.204476 -0.206424 0.239963 -0.0525221 0.26216 0.024211 0.153853 0.20779 -0.172519 -0.134185 -0.054847 0.114953 0.0843243 0.245859 0.482112 -0.0323617 -0.249432 -0.0127023 0.11563 -0.340614 0.0224303 -0.0731399 -0.123949 0.0581337 0.477087 -0.210345 -0.108601 0.319123 0.0511588 -0.286818 0.329096 -0.0871352 0.224564 0.0558018 -0.134428 -0.119613 -0.109093 -0.102806 0.183481 0.288958 0.0566316 -0.0745237 -0.133605 -0.0750911 -0.149801 -0.202498 0.201078 0.0443462 0.0647113 -0.19488 0.0862595 0.198099 0.0252792 0.115083 -0.298086 -0.095126 -0.0121743 0.138233 0.0981328 0.144363 -0.163774 0.0529777 0.107293 -0.277798 -0.0644161 0.0122817 0.0271936 -0.242018 -0.033309 -0.209398 0.236263 -0.263764 -0.0327396 -0.116901
为什么 0.0480899 -0.194132 0.111578 -0.0481048 -0.14877 0.0998608 -0.121302 -0.0502679 0.231243 -0.0417366 -0.00607688 -0.14618 0.00355422 0.049361 -0.0363963 0.152074 0.160129 -0.0285094 -0.0998252 -0.159933 0.0717092 0.0235284 0.106355 0.0479883 0.108471 -0.0987567 -0.0327203 -0.131595 0.0340662 -0.215646 0.248879 0.00655849 0.108123 0.113306 0.0272231 0.0725414 -0.17555 0.0556867 -0.154344 0.224919 -0.0325076 0.0131549 -0.212329 0.217413 -0.0514314 4.58132e-05 -0.0758772 0.0494286 -0.179479 0.275607 0.125377 -0.0566315 0.0824209 0.167833 0.286696 -0.110601 0.31174 0.26103 0.181925 -0.113269 -0.0277704 -0.0410686 0.106632 0.080565 -0.174617 -0.0478436 -0.00271069 -0.198073 -0.035716 -0.0643545 -0.0866916 -0.059905 -0.0791242 0.214237 0.0483069 0.0732873 -0.0268208 0.0829675 -0.067574 0.0266844 -0.0438827 0.060847 -0.0792393 0.124918 -0.0712327 0.236236 0.18736 -0.0257954 0.165377 -0.140218 0.111006 -0.0775481 -0.0715377 -0.0217898 -0.144294 -0.00523506 -0.0434001 0.0307973 0.0484573 -0.0987274
时候 0.00623119 -0.0579517 0.177377 -0.112577 -0.129845 0.10681 -0.123075 -0.0393777 0.114977 -0.00500049 0.0653775 -0.0478766 0.11407 0.0682851 -0.170772 -0.0280687 0.196021 0.0217343 -0.180828 -0.14178 0.082498 -0.0231543 0.11695 0.0288275 0.131846 -0.0138461 0.014804 -0.191547 0.0381561 -0.106771 0.229172 -0.0671026 0.115133 0.16106 0.0599886 0.0645014 -0.101469 0.0819318 0.00666362 0.212359 0.213736 -0.0535822 -0.276626 0.125896 -0.0315109 0.0185202 -0.0359663 0.103099 -0.113299 0.132248 0.235752 -0.112689 -0.0272828 0.181028 0.230727 -0.22267 0.333059 0.176848 0.201073 -0.12545 -0.109902 -0.0790619 -0.0369606 0.00771296 -0.0547774 0.128509 -0.0348419 -0.274818 -0.0873359 -0.0516819 -0.0751683 -0.189636 0.0579379 0.197616 0.0934749 0.00747423 -0.00205043 0.147272 -0.0682557 0.0781711 -0.129387 0.00501747 -0.0102254 0.150455 0.0423302 0.259085 0.0216326 0.0215436 0.143187 -0.183462 0.132685 0.000608047 -0.0316359 -0.123753 -0.0580244 -0.12716 0.0464811 -0.0431651 -0.0467114 -0.132535
男生 0.0261532 -0.114633 0.151123 -0.0916117 -0.11025 0.0514681 -0.0929718 -0.0781234 0.20367 -0.0745513 0.0258351 -0.0860223 0.0503553 0.0276808 -0.12084 0.0448108 0.143425 0.00841323 -0.10745 -0.0513425 0.0362004 0.0415665 0.0794639 0.0217628 0.0841589 -0.0409037 -0.0414931 -0.125287 0.0475921 -0.096207 0.196632 -0.00911011 0.109245 0.0966697 -0.0278386 0.0639685 -0.122483 0.102227 -0.0206831 0.176052 0.072171 -0.0379558 -0.186945 0.136312 -0.0784177 0.0297202 -0.0565662 0.00810553 -0.149765 0.178306 0.140797 -0.0681243 0.00660758 0.160856 0.205584 -0.208577 0.257369 0.193242 0.107781 -0.0744357 -0.035424 -0.0574353 0.0599659 0.043212 -0.118379 0.0369868 0.0441895 -0.2215 -0.0649572 -0.02591 -0.0767244 -0.116748 -0.00299666 0.166681 0.0414631 0.019885 -0.00989601 0.123844 -0.0860774 0.0743584 -0.113865 0.0263155 -0.0257531 0.173827 -0.019687 0.214068 0.0983495 -0.0160923 0.184301 -0.10943 0.113876 -0.033971 -0.0531645 -0.100944 -0.0872251 -0.0596312 0.00711621 -0.0272633 0.0235157 -0.0627618
女生 -0.0151076 -0.183701 0.204532 -0.0931862 -0.159008 0.0607548 -0.187758 -0.0514553 0.193112 -0.0091266 -0.0224637 -0.098903 0.0747429 0.0549796 -0.13395 0.107397 0.107732 -0.0932126 -0.145817 -0.144395 -0.0148126 -0.00854957 0.108369 0.0348917 0.139009 -0.103242 -0.0137924 -0.10157 0.0591904 -0.160004 0.284648 0.0117597 0.134746 0.184746 0.00784775 -0.0153301 -0.179575 0.0568579 -0.0427017 0.220842 0.0347358 -0.00565353 -0.241897 0.193094 0.0594261 -0.0986023 -0.0179728 0.0158607 -0.0771086 0.229107 0.274061 -0.0600999 0.0287598 0.230023 0.213683 -0.124309 0.343811 0.179966 0.186225 -0.0953667 -0.0699879 -0.0747703 0.0703745 0.0640981 -0.0537189 0.0397648 -0.0230906 -0.139878 -0.0147805 -0.075938 -0.086852 -0.135389 -0.0169358 0.200975 -0.00474175 0.0587831 0.0109288 0.0938162 -0.0572446 0.0321756 -0.0608169 0.0600628 -0.0715416 0.139191 -0.0379806 0.166445 0.0870523 0.0288684 0.169577 -0.0948932 0.0649832 -0.0742515 -0.0267874 -0.0500578 -0.124851 -0.0734587 0.0221288 -0.0436315 -0.000957441 -0.104026
汽车 -0.0188415 -0.0496679 0.0606326 -0.0589533 -0.0680426 0.0531368 -0.0633089 -0.00515131 0.0890477 -0.0499208 0.0469587 0.00203879 0.0229314 0.0294421 -0.0839801 -0.00103249 0.0790729 0.042835 -0.0535605 -0.0536273 0.0182312 0.0364263 0.0421186 -0.0189932 0.10096 -0.00511152 -0.0186693 -0.0762017 0.0688542 -0.0269274 0.144069 -0.00740327 0.060443 0.0869936 -0.0126879 0.0312095 -0.0374213 0.0438004 0.0278758 0.116732 0.145983 -0.0468203 -0.139709 0.092919 -0.00800324 0.00278402 -0.00838967 0.0289073 -0.0862085 0.0536439 0.130048 -0.0296571 -0.0280586 0.143102 0.0959225 -0.155499 0.206606 0.0954993 0.0748718 -0.0769396 0.0166634 -0.0265447 -0.0230874 -0.0167584 -0.0671793 0.0402996 0.0384488 -0.162337 -0.0800142 0.00982195 -0.0641351 -0.125725 0.0571205 0.112212 0.0493685 -0.0156863 0.000148705 0.111315 -0.0830046 0.0901083 -0.0987914 0.0175743 -0.0293828 0.0873403 0.071733 0.116066 0.0462364 -0.00507533 0.0879968 -0.0708454 0.0767018 0.0311849 -0.0311 -0.0919285 -0.0126384 -0.0528084 0.0553524 -0.0498616 -0.0105321 -0.023721
有 -0.151411 -0.0530521 0.242287 -0.287188 0.095343 0.000256529 -0.244392 -0.15999 0.12359 -0.0068757 0.121635 -0.206319 0.10228 0.0398902 -0.300917 -0.217656 0.0333248 0.123371 0.0340006 -0.141704 -0.0493929 -0.0157228 0.0256415 -0.025111 0.231089 0.0944109 0.0123745 -0.236118 0.0791643 0.153154 0.225907 0.00548183 0.192167 0.148625 -0.251994 -0.121208 -0.183029 0.117546 0.172831 0.265665 0.445461 -0.128754 -0.342279 -0.00915376 -0.0066782 -0.292505 0.0429751 0.0793491 0.0350063 0.240672 0.375934 -0.215915 -0.0854309 0.340712 0.193116 -0.343985 0.458381 0.209113 0.156933 -0.0936204 -0.133952 -0.0170785 -0.203718 -0.0160265 0.0993036 0.222584 0.0621934 -0.241547 0.0047096 -0.0153005 -0.0813972 -0.166745 0.0954962 0.221005 -0.00883837 -0.0832114 -0.02464 0.224657 -0.0922464 0.140142 -0.282174 -0.0584067 -0.165827 0.076826 0.0513057 0.122626 -0.141931 0.112196 0.214573 -0.211773 -0.0192389 0.130989 -0.177111 -0.113698 -0.0118506 -0.325117 0.186286 -0.0498315 -0.0576929 -0.136095
前 0.0230948 -0.125995 0.0614183 -0.0306261 -0.146279 0.0689005 -0.130432 0.0264216 0.115506 -0.103922 0.0455098 -0.0671394 0.011996 0.0381938 -0.0789991 0.0287037 0.0600423 0.0270061 -0.0631956 -0.138138 0.0549384 0.061589 0.0661797 0.00587027 0.145852 -0.0261394 -0.0671898 -0.092817 0.0977373 -0.143649 0.175749 0.00989879 0.115065 0.108408 -0.00498601 0.0215997 -0.112542 0.0741641 -0.0486805 0.158557 0.0500019 -0.0942155 -0.19888 0.142879 -0.0616917 0.031882 -0.0192773 0.0236929 -0.148141 0.167289 0.0900627 0.0155753 0.0566888 0.169297 0.158721 -0.215425 0.273525 0.142972 0.0781753 -0.184796 -0.00145871 0.000878953 0.100849 0.00613803 -0.15167 -0.010546 0.0969216 -0.262995 -0.123649 0.0236225 -0.114374 -0.112444 0.0274965 0.212457 0.0383965 0.0198883 -0.00307564 0.160419 -0.089923 0.107734 -0.191359 0.0666751 -0.0097931 0.104723 0.0221698 0.200057 0.139931 0.0083089 0.147323 -0.124369 0.0684934 0.0192182 -0.142308 -0.0785367 0.00558518 -0.00846991 0.0527213 -0.0341659 0.0137453 -0.0286734
上 0.0117439 -0.125829 0.0815694 -0.0439223 -0.0882737 0.12343 -0.102243 0.0359834 0.099576 -0.0171477 0.0778264 -0.0821449 -0.0214715 0.0831494 -0.0441497 0.0860188 0.122843 0.116321 -0.0166533 -0.166655 0.0324631 0.0206072 0.0473655 -0.0575443 0.190526 -0.00838293 -0.0585216 -0.170131 0.126311 -0.12337 0.247638 -0.016613 0.0693365 0.105305 -0.00874331 0.0445363 -0.103952 -0.00260662 -0.0601939 0.16833 0.123743 -0.0228975 -0.247559 0.250961 -0.0275137 0.00393448 -0.0541795 0.123874 -0.0747612 0.0858293 0.190993 -0.038944 0.047101 0.139825 0.242125 -0.152809 0.294049 0.168685 0.113291 -0.194953 0.0113263 0.0509146 0.0595098 0.0139137 -0.216832 -0.051365 0.00294984 -0.174441 -0.11201 0.0425003 -0.11745 -0.163053 0.00771897 0.204014 0.0328982 -0.0194113 -0.0529003 0.082146 -0.101776 0.101469 -0.0734392 0.0385965 -0.0885612 0.0615214 0.0421574 0.194273 0.104255 -0.00524197 0.15563 -0.101719 0.109459 0.0768023 -0.0876397 0.00963437 -0.101102 -0.0263379 0.0182191 0.00628713 -0.0654932 -0.000301142
， -0.0413741 -0.2085 0.0506019 -0.0824503 -0.16615 0.050957 -0.169343 0.0142329 0.260406 -0.160068 0.0216563 -0.1049 -0.0620735 0.0575644 -0.107321 0.0873944 0.056803 0.125088 0.0211239 -0.117636 -0.0158566 0.106684 0.006981 -0.0665946 0.257913 -0.0260589 -0.0315286 -0.115803 0.201121 -0.155082 0.259135 0.0654254 0.0982027 0.140457 -0.078366 -0.00258582 -0.140906 0.105624 -0.0339904 0.184676 0.093082 -0.0936333 -0.336252 0.208809 -0.0699591 -0.0625602 -0.0749596 0.0147887 -0.223098 0.248263 0.144209 -0.0374662 0.0903092 0.329586 0.181112 -0.282446 0.410751 0.196936 0.115702 -0.173156 0.0112203 -0.01929 0.10773 0.0233004 -0.198467 -0.0820413 0.180832 -0.287437 -0.170064 0.0635153 -0.164708 -0.128077 0.0303353 0.197034 0.0176529 -0.0147104 -0.00535733 0.208911 -0.152922 0.193269 -0.186628 0.0854976 -0.10735 0.0950678 0.0397804 0.197669 0.170915 0.0222988 0.248834 -0.131624 0.0883379 0.0865178 -0.150934 -0.090821 -0.0335477 0.0244633 0.122126 -0.0821988 -0.0352022 0.0097828
问题 0.069228 -0.253948 0.00418695 -0.00162492 -0.119086 0.133111 -0.110382 0.105697 0.238902 -0.102609 0.0825821 -0.0904053 -0.0768093 0.0926536 0.0317497 0.194807 0.0976388 0.109488 0.163413 -0.082487 -0.0163384 0.205801 -0.00853371 -0.150343 0.225842 -0.108431 -0.134122 -0.0571511 0.194385 -0.178111 0.265282 0.106566 -0.0353576 0.122074 -0.100765 0.0624896 -0.0943075 -0.0126671 -0.0901721 0.204 -0.00203415 0.0265184 -0.207721 0.32784 -0.0593174 0.0258984 -0.110029 0.00339562 -0.160118 0.0927377 0.0643257 0.120144 0.105832 0.239975 0.229922 -0.124168 0.317949 0.234381 0.0506309 -0.1591 0.161493 0.069769 0.0873833 0.0434086 -0.356161 -0.205367 0.164086 -0.123274 -0.151486 0.183301 -0.143888 -0.0668766 -0.01985 0.206808 0.0138878 0.0423882 -0.115141 0.125843 -0.233491 0.171367 -0.0249023 0.119122 -0.213616 0.0712744 0.0521977 0.171062 0.231691 -0.0808407 0.280356 -0.0565113 0.140612 0.0710687 -0.0829319 0.0061251 -0.144126 0.0802866 0.0444466 0.0203463 -0.0819197 0.129045
大 0.0201279 -0.075229 0.100313 -0.0721791 -0.0952783 0.0901344 -0.069529 -0.0172429 0.136233 -0.0418339 0.0741547 -0.0528551 0.0121773 0.063125 -0.089464 0.0343615 0.16685 0.0785534 -0.0737771 -0.0914134 0.0515328 0.0423091 0.0664927 -0.0226281 0.127361 -0.0112562 -0.0322262 -0.157651 0.0842509 -0.0884638 0.205451 -0.0225653 0.0655034 0.089625 0.00338423 0.076708 -0.0803875 0.0641119 -0.0046952 0.156507 0.146752 -0.0336748 -0.19991 0.164392 -0.0625545 0.0606614 -0.0682378 0.0724395 -0.130424 0.0878896 0.138031 -0.072509 0.00618759 0.138584 0.21124 -0.189582 0.260077 0.177151 0.112112 -0.120219 -0.00648335 -0.0188728 0.0153814 0.0102232 -0.161345 0.01545 0.0292495 -0.217287 -0.11166 0.0199045 -0.098717 -0.16214 0.018045 0.158389 0.0550787 -0.0188332 -0.0269753 0.121067 -0.108536 0.0981191 -0.0877162 0.018089 -0.0308022 0.124037 0.0471158 0.215183 0.0786925 -0.0195134 0.154911 -0.121862 0.138437 0.0224149 -0.0446589 -0.0746903 -0.0878847 -0.0646425 0.0195885 -0.0309502 -0.0330497 -0.0300477
吗 -0.029931 -0.0249747 0.0521808 -0.131798 -0.000713507 0.0233675 -0.00578271 -0.116708 0.0932535 0.0282037 0.0550212 -0.121644 -0.11251 0.124577 -0.0544591 0.0687967 0.177832 0.24704 -0.11604 -0.157954 0.140816 -0.171268 0.0822838 -0.00968955 0.177205 0.104415 0.0679855 -0.329354 0.152782 -0.0844648 0.335232 -0.149665 0.0885222 0.0511852 0.00582808 0.0662175 -0.122023 0.0147492 -0.13378 0.186143 0.276486 0.049971 -0.294779 0.236655 -0.0291508 -0.0673314 -0.123142 0.209088 -0.0658115 0.10173 0.302741 -0.253634 0.0295718 0.0539607 0.37469 -0.143423 0.254674 0.214404 0.218682 -0.144195 -0.062932 0.0349159 0.0289618 0.00125108 -0.211027 0.0186622 -0.168322 -0.0713301 -0.109992 -0.0993559 -0.127681 -0.160987 -5.81945e-05 0.130312 0.11429 -0.117281 -0.00943505 0.0219504 -0.0543789 0.0522511 -0.00319429 -0.0706158 -0.0532371 0.0662617 0.00688564 0.248015 0.0511799 0.0010117 0.0879815 -0.180806 0.11039 0.0819153 -0.00494462 0.0573956 -0.202893 -0.163314 -0.0791977 0.00101947 -0.0100214 -0.108424
在 0.0191283 0.00150441 0.122252 -0.0873889 0.0187169 0.132681 -0.060408 0.0692814 0.0805001 -0.125223 0.15344 0.0236243 0.0286514 0.114053 -0.172582 -0.0258001 0.166876 0.252086 -0.0284039 -0.0802459 0.0100377 0.0982514 -0.020178 -0.14966 0.197921 0.0918525 -0.0812391 -0.216546 0.176115 0.0150969 0.285524 -0.0175447 0.0361686 0.121435 -0.111902 0.0993317 -0.0358827 0.0241986 0.0692697 0.17444 0.387831 -0.0868468 -0.230222 0.228534 -0.0519715 0.0875197 -0.0640728 0.111356 -0.126385 -0.133089 0.246881 -0.0350998 -0.0685845 0.189986 0.205905 -0.296533 0.360391 0.16498 0.0379627 -0.192623 0.0662171 0.0367162 -0.0794608 -0.0461515 -0.216881 0.0647598 0.0884675 -0.251949 -0.166466 0.091749 -0.131034 -0.290297 0.0880263 0.189537 0.087533 -0.0841244 -0.0565655 0.15333 -0.197535 0.225722 -0.119516 -0.0494168 -0.0912921 0.139617 0.215409 0.198996 -0.0063806 -0.0537908 0.25064 -0.137706 0.156848 0.155484 -0.0403649 -0.110294 -0.0669447 -0.106524 0.0738886 -0.0486035 -0.160163 0.108128
或 -0.049672 -0.00861963 0.0915515 -0.124907 -0.0742484 -0.0238269 -0.0550254 -0.0857275 0.0929168 -0.078732 0.0463543 -0.00505672 0.0521918 0.0108772 -0.161943 -0.108532 0.0817722 0.0964233 -0.0933442 -0.00574052 0.0339413 -0.0058117 0.0396176 0.0164996 0.100877 0.0388956 0.0566779 -0.104973 0.0745528 0.00510385 0.132304 -0.0202556 0.0999435 0.106026 -0.0421286 0.0116016 -0.0413812 0.0995376 0.0759283 0.154307 0.253313 -0.0693778 -0.180708 0.0152837 -0.00520867 -0.0779729 0.00428268 -0.000934189 -0.107153 0.098992 0.177424 -0.121064 -0.070096 0.188142 0.0715182 -0.227391 0.242093 0.067487 0.121604 -0.0216736 -0.0488071 -0.0740686 -0.0737716 -0.0412999 0.036864 0.151721 0.0529044 -0.191677 -0.0870783 -0.0283748 -0.0704766 -0.132561 0.0987012 0.0971727 0.0789165 -0.062636 0.0313897 0.167468 -0.054824 0.0810519 -0.193186 -0.0167814 0.00290898 0.110998 0.0708115 0.137635 -0.0128808 0.0262354 0.0626944 -0.139642 0.0500449 0.0115248 -0.0400341 -0.168255 0.0338717 -0.117251 0.100781 -0.109031 0.0113295 -0.0791864
不 0.0020602 -0.226849 0.046184 -0.00285773 -0.196272 0.0630124 -0.11083 -0.00751503 0.225047 -0.0366125 -0.00510636 -0.0921038 -0.107194 0.05202 -0.00281901 0.235883 0.126331 0.0261984 -0.101744 -0.181383 0.0239553 0.0152186 0.0756998 0.00436472 0.166363 -0.100923 -0.0508244 -0.159016 0.127123 -0.236882 0.310862 0.00307321 0.0853613 0.0941482 0.0380371 0.0539335 -0.139317 0.0480761 -0.151112 0.167681 -0.0865797 0.0245182 -0.24108 0.291984 0.0106348 0.0114789 -0.11181 0.0789114 -0.184971 0.225813 0.140128 -0.0743422 0.124902 0.168266 0.254072 -0.118215 0.281024 0.22213 0.153447 -0.175541 0.0284321 -0.01564 0.230182 0.0194303 -0.255663 -0.152048 0.0236243 -0.148678 -0.101783 -0.0491869 -0.148468 -0.135334 -0.0698417 0.175789 0.0117649 0.020851 0.0042415 0.0601152 -0.0646935 0.0578552 -0.0393549 0.0882434 -0.0373594 0.123743 -0.0710337 0.223198 0.235665 0.0019496 0.130469 -0.0607534 0.133279 -0.0510894 -0.0924535 0.019955 -0.183392 0.0723431 -0.0317139 -0.0255543 0.00837622 -0.0375407
适合 -0.00207689 -0.0266455 0.0968597 -0.10448 -0.0955612 0.039743 -0.0102254 -0.117481 0.111826 0.0394541 0.0289025 -0.0675635 0.0115954 0.0602926 -0.0791417 0.0174871 0.195226 0.0970623 -0.183042 -0.0885125 0.123635 -0.118707 0.102834 0.0693465 0.0778829 0.0173894 0.0794778 -0.227757 0.0400502 -0.103838 0.212382 -0.129496 0.084584 0.0628544 0.0929864 0.0797366 -0.0793806 0.0694756 -0.0587854 0.145834 0.179763 0.0155446 -0.22319 0.130532 -0.0523059 0.0062284 -0.0870791 0.135323 -0.0969979 0.131715 0.1942 -0.223518 -0.00237368 0.0476863 0.256747 -0.142213 0.203971 0.152084 0.203868 -0.0834955 -0.103901 -0.0518462 0.0176476 0.00810937 -0.0928156 0.0770069 -0.119598 -0.148206 -0.0779834 -0.0887201 -0.0796521 -0.14071 0.00992251 0.097287 0.1077 -0.0545136 0.0178281 0.0630014 -0.0111669 0.00619555 -0.0469517 -0.0242037 0.0278412 0.109694 -0.0300387 0.245685 0.0373735 0.0195617 0.0459186 -0.154652 0.119641 -0.0106252 0.0171951 -0.0399388 -0.116742 -0.118892 -0.0355751 -0.0241435 0.0117094 -0.149538
自己 -0.00676009 -0.154187 0.0832813 -0.07977 -0.219413 0.137061 -0.0844432 0.00358145 0.185 -0.0152757 0.071926 -0.0237602 0.0260358 0.0702477 -0.0497743 0.0878281 0.227869 0.0382785 -0.131395 -0.14428 0.0766812 0.0243028 0.126037 0.00875309 0.182983 -0.091921 -0.012097 -0.15522 0.111657 -0.150685 0.28121 -0.0519501 0.0645877 0.155809 0.096388 0.102956 -0.0765981 0.0203216 -0.0523805 0.248325 0.165207 -0.0156644 -0.283483 0.269095 -0.0128672 0.0176397 -0.0713242 0.110856 -0.142638 0.143908 0.185318 -0.0745123 0.0120343 0.214888 0.256261 -0.177649 0.364481 0.222671 0.199653 -0.155939 0.0356851 -0.0303358 0.00964684 -0.00273966 -0.208101 0.00241105 0.00929292 -0.237954 -0.155296 0.00519418 -0.119063 -0.196558 0.0538384 0.21853 0.121612 0.00153093 -0.0368997 0.165742 -0.149057 0.103588 -0.0860909 0.0802372 -0.0763111 0.133203 0.0656712 0.259869 0.168443 -0.0167169 0.11574 -0.127439 0.191899 0.0127107 -0.00934731 -0.0955024 -0.086689 -0.0397266 0.0260036 -0.0476537 -0.0129335 -0.0728976
是 0.0841151 -0.00216471 0.181598 -0.131663 -0.0402874 0.0960466 -0.0400614 -0.147522 0.12012 0.11256 0.0176949 -0.155994 0.0631175 0.0691567 -0.0881942 0.0551374 0.316782 -0.105046 -0.29996 -0.209297 0.229995 -0.125468 0.228788 0.188312 -0.0489076 -0.0115221 0.0264296 -0.280713 -0.17421 -0.116244 0.20137 -0.168417 0.150887 0.0142275 0.164443 0.189992 -0.176724 0.142468 -0.123605 0.117975 0.0254879 0.0177974 -0.191364 0.091698 -0.169326 0.197049 -0.102896 0.212746 -0.165583 0.219821 0.0760928 -0.252693 0.0270462 -0.0435572 0.371247 -0.11975 0.187087 0.322517 0.196888 -0.107005 -0.206613 -0.124406 0.00199321 0.0958136 -0.0875515 0.117199 -0.193201 -0.276409 0.0371992 -0.23208 -0.0169672 -0.081481 -0.143963 0.174145 0.142815 0.0611233 0.0120187 0.0162445 0.0156441 -0.106729 0.0242767 -0.0423459 0.113448 0.207158 -0.135208 0.336653 0.0423853 0.00494857 0.0582454 -0.177428 0.203041 -0.0965178 -0.0442735 -0.0146495 -0.177794 -0.1785 -0.174873 0.0906196 0.0683676 -0.226495
最 0.0678533 0.00360717 0.392337 -0.175952 -0.0894149 0.0516271 -0.183854 -0.152572 0.201768 -0.0543065 0.0080121 -0.012159 0.268586 0.00688524 -0.316017 -0.059121 0.216373 -0.272486 -0.413664 -0.0827648 0.135251 0.0515543 0.258816 0.19054 -0.102243 -0.0840537 -0.0133582 -0.118038 -0.206716 -0.040567 0.215694 -0.0566906 0.26692 0.14098 0.0657041 0.0931838 -0.181625 0.219186 0.048246 0.209432 0.080271 -0.0837612 -0.140497 -0.0679686 -0.0808432 0.143488 0.0272181 -0.0247543 -0.219683 0.197199 0.213339 -0.112558 -0.128267 0.210624 0.181291 -0.278437 0.274356 0.230448 0.154097 0.0233255 -0.176677 -0.269605 -0.0800605 0.0658598 0.17909 0.357744 -0.00728361 -0.414123 0.0844219 -0.275141 0.0317399 -0.161498 -0.0173677 0.211396 0.107179 0.108761 0.0864599 0.154382 -0.0402151 -0.0402108 -0.164508 -0.0632242 0.13496 0.405442 -0.0217691 0.265614 -0.070343 -0.0130164 0.150248 -0.147366 0.145315 -0.217941 -0.0125385 -0.26051 -0.0391298 -0.219365 -0.0186367 -0.083827 0.142124 -0.214971
被 0.0116317 -0.171916 0.117051 -0.024893 -0.122564 0.136981 -0.171819 0.0807621 0.145449 -0.0640173 0.067787 -0.0422767 0.0153688 0.0483889 -0.0821227 0.114871 0.0821543 -0.0223817 -0.0335041 -0.171649 -0.0113438 0.133858 0.0653356 -0.0584088 0.172962 -0.0681831 -0.154739 -0.0935354 0.0999353 -0.107197 0.230605 0.0499573 0.0885838 0.13309 -0.0268331 0.0437458 -0.123459 0.0396752 -0.0157956 0.176262 0.0370489 -0.0697779 -0.193455 0.234553 -0.0149473 0.0677874 -0.0286105 0.0310873 -0.111624 0.10062 0.149477 0.0608931 0.0493321 0.185511 0.198455 -0.181622 0.305298 0.186949 0.0489053 -0.221315 0.0590443 0.0187641 0.0948857 0.0129655 -0.209461 -0.0681488 0.0873809 -0.256092 -0.0937674 0.062419 -0.119861 -0.179888 0.00186765 0.248069 -0.022626 0.0374926 -0.0580213 0.141617 -0.149966 0.150423 -0.111965 0.0834473 -0.0596732 0.11212 0.0495106 0.18299 0.164461 -0.0293914 0.204469 -0.0552838 0.111492 0.0331434 -0.116608 -0.0367749 -0.0659272 -0.00572558 0.0463469 -0.0171856 -0.0466795 0.0376621
怎么 -0.028513 -0.129248 -0.158932 0.0645925 -0.338279 0.0390358 -0.145151 0.135261 0.0241856 -0.0777904 -0.0509666 0.0419621 -0.0710319 0.041251 0.01548 0.0738859 0.00312834 -0.0330928 -0.166128 -0.328725 0.17477 -0.0774293 0.119227 0.0345303 0.218797 -0.0486382 0.0629146 -0.0406926 0.148701 -0.330634 0.236323 -0.0324205 0.0919776 0.172718 0.20871 -0.001528 -0.0607485 0.040667 -0.192087 0.133526 -0.0474333 -0.0808983 -0.254238 0.120673 0.142777 -0.0260799 0.0298303 0.113407 -0.216853 0.193037 0.0608321 0.0302011 0.172832 0.191829 0.0898053 -0.103504 0.258675 0.0346656 0.253219 -0.294897 -0.0756659 -0.0286117 0.165899 -0.0648633 -0.0900994 -0.0864176 0.034374 -0.212689 -0.181917 -0.0818501 -0.176585 -0.0352275 0.0712948 0.173029 0.0677888 0.0152541 0.118665 0.182821 0.0132027 0.0714556 -0.176298 0.143912 0.0877948 -0.0638086 0.0249055 0.203932 0.25678 0.0416698 -0.0802028 -0.184246 0.0241843 -0.0256946 -0.147964 -0.0615642 0.0864896 0.0934284 0.0783533 -0.105131 0.0396643 -0.148157
处理 -0.00338052 -0.0254028 0.0100258 -0.0157009 -0.128298 0.0505799 -0.0396242 0.0102999 0.0590488 -0.0296392 0.016821 -0.00155315 -0.018788 0.0343706 -0.0500188 0.0302336 0.106162 0.0411577 -0.146218 -0.15092 0.103716 -0.0389042 0.0808892 0.046865 0.0874846 0.0154942 -0.00330164 -0.130774 0.051191 -0.12409 0.14735 -0.0794093 0.0849851 0.0562129 0.106017 0.072655 -0.0486953 0.0653943 -0.0733921 0.0827392 0.0715683 -0.0581916 -0.161746 0.111433 -0.0255493 0.0862756 -0.0384807 0.100889 -0.139986 0.0927889 0.0694174 -0.0779356 0.0458922 0.0496704 0.146699 -0.147173 0.158844 0.104876 0.11114 -0.159943 -0.0411203 -0.029404 0.0800327 -0.0152279 -0.112069 0.000495355 -0.0205192 -0.204239 -0.109704 -0.0450599 -0.0927435 -0.114353 0.0269383 0.124752 0.0767923 -0.0157308 0.0339061 0.0955177 -0.0339899 0.0544617 -0.0887362 0.0250062 0.07836 0.0670741 0.0200058 0.201698 0.120882 -0.000213312 0.0261262 -0.107631 0.0900712 0.00896215 -0.0619708 -0.0548884 -0.0076521 -0.0200334 -0.0121349 -0.0377057 0.0200231 -0.078844
? 0.0740793 -0.118703 0.228922 -0.083563 -0.0745608 0.135849 -0.175902 0.0476974 0.183961 -0.0871817 0.0409094 -0.0675767 0.0727818 0.0773734 -0.162392 0.126964 0.140657 -0.0821236 -0.11346 -0.165293 -0.00309869 0.133913 0.093173 -0.00955505 0.0977485 -0.047694 -0.179679 -0.110597 0.02975 -0.0875729 0.270259 0.0347638 0.141171 0.13393 -0.0606478 0.0982027 -0.174134 0.0608384 -0.0259181 0.174477 0.0391252 -0.081441 -0.166479 0.232514 -0.0710301 0.121141 -0.0621399 0.000692245 -0.125401 0.0896435 0.187526 0.0350037 0.0270093 0.171485 0.255672 -0.206582 0.332734 0.24021 0.0328745 -0.200751 0.0214404 -0.024625 0.0775671 0.0799927 -0.190513 0.0153509 0.0627125 -0.288292 -0.0311196 0.00376523 -0.0882654 -0.187043 -0.0502228 0.269648 0.0098863 0.0800671 -0.0489893 0.109607 -0.172883 0.0927897 -0.057435 0.0114219 -0.0353279 0.204725 0.0310186 0.21921 0.128627 -0.0411565 0.305208 -0.0689542 0.103946 -0.0299052 -0.0985354 -0.0422519 -0.0913559 -0.0669941 -0.0381191 0.00924828 -0.044057 0.0301075
给 0.0315223 -0.154998 0.0499838 -0.0118713 -0.116737 0.118398 -0.118585 0.0505321 0.148801 -0.0539026 0.0547682 -0.070375 -0.0214333 0.0453415 -0.0154917 0.123241 0.086619 -0.0130902 -0.0173361 -0.136 0.0344839 0.104227 0.0720372 -0.0173486 0.128565 -0.0683048 -0.111338 -0.0800979 0.0730931 -0.121204 0.187692 0.0300641 0.0660158 0.0727683 -0.00683294 0.0576864 -0.0985046 0.0326008 -0.0618309 0.136461 -0.0258016 -0.0437573 -0.156992 0.195982 -0.0636255 0.0776352 -0.043702 0.0395984 -0.133067 0.125272 0.0428113 0.0514857 0.0665619 0.141819 0.190393 -0.136767 0.23066 0.194363 0.0459252 -0.179893 0.0622601 0.0237764 0.113478 0.0227624 -0.219862 -0.0852087 0.0819332 -0.210137 -0.0906875 0.0412126 -0.100661 -0.0990505 -0.0208874 0.197015 0.0215837 0.0398746 -0.036451 0.112573 -0.129465 0.0994322 -0.0790364 0.0808144 -0.0597809 0.0879334 0.0168442 0.175154 0.177937 -0.0366343 0.158611 -0.051307 0.112806 0.0119305 -0.107837 -0.0169873 -0.0627348 0.0273001 0.0060023 0.0129356 0.00485153 0.0217958
我 0.133225 -0.249065 -0.0849714 0.0769088 -0.168235 0.148017 -0.0711261 0.155776 0.184107 -0.124754 0.11786 -0.0841967 -0.0973249 0.085118 0.125775 0.200296 0.113886 0.105192 0.207921 -0.0905175 0.0235078 0.261692 -0.0066659 -0.156904 0.209299 -0.105519 -0.175598 -0.0219607 0.189911 -0.215628 0.195951 0.117738 -0.0700794 0.0690017 -0.0865994 0.0963569 -0.0627159 -0.011093 -0.0958628 0.146195 -0.097198 -0.00137921 -0.159533 0.315096 -0.138193 0.144386 -0.113304 0.0204501 -0.209141 0.0739914 -0.111687 0.176496 0.152404 0.183523 0.183974 -0.135104 0.242119 0.233185 -0.0446137 -0.220301 0.223361 0.12517 0.157711 0.0215923 -0.43311 -0.274703 0.243886 -0.19325 -0.208344 0.222625 -0.150848 -0.0497016 -0.0307782 0.199288 0.0276985 0.0517507 -0.121757 0.16083 -0.243908 0.164712 -0.0796732 0.171319 -0.177724 0.0490344 0.0483133 0.204132 0.306137 -0.0847498 0.249724 -0.0386227 0.171846 0.0883367 -0.153143 0.00690787 -0.0969309 0.159389 0.016095 0.0586942 -0.0782516 0.189579
一个 0.107335 -0.167843 0.256286 -0.0495001 -0.094381 0.0996885 -0.09908 -0.0540764 0.258033 -0.0456916 -0.0106075 -0.112886 0.0796169 0.0583602 -0.121693 0.184031 0.197993 -0.0742889 -0.132749 -0.0436022 0.0131274 0.0848586 0.086135 0.0182986 0.0328743 -0.100141 -0.0981145 -0.122117 -0.00634029 -0.195213 0.257932 0.0320405 0.0958046 0.117492 -0.020319 0.101122 -0.190536 0.116354 -0.0688683 0.143342 -0.0867581 0.0296525 -0.154261 0.219156 -0.0989889 0.119403 -0.123276 -0.0129683 -0.181028 0.149086 0.158736 -0.0331201 0.0453685 0.126058 0.269602 -0.130954 0.228459 0.24122 0.0984693 -0.0516179 -0.0682601 -0.105303 0.143651 0.121821 -0.173054 -0.00869491 -0.00828229 -0.158881 -0.00624896 -0.0498352 -0.0636527 -0.101845 -0.120385 0.17402 -0.0268308 0.092466 -0.0426166 0.0360238 -0.0741182 0.0243084 0.0282405 0.0386878 -0.0167877 0.242506 -0.089438 0.244648 0.089837 -0.0354648 0.297732 -0.0608979 0.145034 -0.109691 0.00714873 -0.0357644 -0.220464 -0.00808211 -0.0742553 0.021249 -0.019516 -0.029613
人 -0.0451224 -0.179941 0.230214 -0.102227 -0.0604328 0.112817 -0.221267 -0.0548875 0.210931 0.00375709 0.0222876 -0.112003 0.0613506 0.0577884 -0.127128 0.113946 0.0942492 -0.0847476 -0.122822 -0.182617 -0.0187092 0.027201 0.123508 0.016696 0.144458 -0.0800158 -0.0808201 -0.155314 0.042593 -0.0708774 0.319791 0.00697196 0.154112 0.147994 -0.0438321 -0.0201112 -0.192567 0.0230486 -0.0565027 0.237212 0.0919715 -0.00904572 -0.240325 0.207106 0.0497646 -0.0862037 -0.0168517 0.0690674 -0.0438172 0.199375 0.314951 -0.0610921 0.00397466 0.225497 0.278233 -0.120492 0.340011 0.253384 0.14792 -0.12941 -0.0150245 -0.0378835 0.046945 0.05695 -0.0892284 0.0371626 -0.0421654 -0.157429 0.0257316 -0.0969661 -0.0827568 -0.168376 -0.0422714 0.227904 -0.0219929 0.0506632 -0.026723 0.0693057 -0.0974267 0.0612441 -0.0319667 0.0308524 -0.130835 0.146236 -0.00939371 0.158095 0.0623672 0.00188592 0.182799 -0.0633863 0.0970482 -0.0170333 -0.0450031 -0.0176024 -0.165084 -0.128419 0.00839505 -0.00780868 0.00200025 -0.0751147
可以 -0.0521946 -0.0627818 0.0207689 -0.0936759 -0.0929982 0.0466057 -0.0188392 -0.0599673 0.12526 -0.0480646 0.0847229 -0.0473623 -0.0578581 0.0552348 -0.0648049 -0.0010096 0.133186 0.196765 -0.0467605 -0.0750532 0.0706285 -0.0322124 0.0436244 -0.0256838 0.175153 0.0419588 0.0177945 -0.193521 0.15204 -0.0545915 0.214019 -0.0653844 0.0637118 0.063527 0.000551463 0.0581903 -0.0438524 0.0500938 -0.0125087 0.176703 0.258742 -0.0272402 -0.233912 0.169158 -0.0416373 -0.0314458 -0.0703472 0.107624 -0.116668 0.0942118 0.175766 -0.146794 -0.000532961 0.140184 0.207762 -0.203989 0.264175 0.150638 0.14246 -0.11893 0.00697895 0.0144847 -0.0028139 -0.0356095 -0.176796 0.0183038 0.000336293 -0.174064 -0.152771 0.0193049 -0.1259 -0.163385 0.0700924 0.137086 0.0897215 -0.100708 -0.0160957 0.136953 -0.0976408 0.12738 -0.118839 0.00731361 -0.0448164 0.0673485 0.0628308 0.207938 0.0842035 -0.00177557 0.0731621 -0.135129 0.114385 0.0810222 -0.0390048 -0.0686381 -0.0641709 -0.0766666 0.0371855 -0.05863 -0.00688987 -0.0543036
小 -0.0106552 0.00658738 0.0402399 -0.067131 -0.105315 0.0545101 -0.0424485 -0.0177785 0.0523553 -0.052029 0.0720754 -0.00980114 0.000191568 0.0545217 -0.0968769 -0.0504392 0.144031 0.125401 -0.133746 -0.144074 0.115374 -0.0345959 0.0686602 0.0222437 0.124128 0.0682768 0.0132046 -0.185864 0.0776614 -0.0760172 0.166189 -0.0972194 0.102297 0.0522611 0.0680905 0.0760816 -0.0411107 0.083538 -0.00367711 0.117393 0.209523 -0.0821713 -0.217337 0.0918597 -0.0747388 0.0838357 -0.038587 0.132286 -0.154559 0.0856158 0.114328 -0.128071 0.0089195 0.0840093 0.169766 -0.233772 0.226093 0.127585 0.114431 -0.179991 -0.0514014 -0.015385 0.0119566 -0.0474099 -0.117389 0.071894 0.00598836 -0.284727 -0.150009 -0.0274092 -0.10919 -0.18112 0.0672375 0.144706 0.105262 -0.0601435 0.0234822 0.152509 -0.0627303 0.0985757 -0.161167 -0.00534168 0.0593887 0.0923904 0.06901 0.241678 0.0713258 0.0126053 0.0551178 -0.165541 0.115683 0.055755 -0.0861883 -0.104122 0.00723978 -0.0812674 0.0314832 -0.0464361 -0.00865075 -0.0805232
买 0.049967 -0.149312 0.00741622 -0.0311559 -0.113405 0.0850246 -0.0775695 0.0215813 0.162057 -0.086184 0.0715327 -0.100902 -0.0363503 0.0415229 -0.023543 0.0613117 0.0963689 0.0866391 0.054484 -0.0772992 0.0495011 0.113733 0.0369218 -0.0368748 0.135535 -0.0273279 -0.0826624 -0.085659 0.105534 -0.125972 0.138417 0.0213742 0.0386277 0.0616536 -0.044816 0.0677265 -0.0846817 0.080286 -0.0365978 0.144062 0.027172 -0.0612218 -0.177149 0.170698 -0.142873 0.0800574 -0.078847 0.0277183 -0.176167 0.152729 -0.0154779 0.0276353 0.0766976 0.142 0.189487 -0.200186 0.231971 0.177386 0.045694 -0.156615 0.0473293 0.0375122 0.0780194 0.0282084 -0.249516 -0.0856718 0.136155 -0.230091 -0.144004 0.119433 -0.106017 -0.0599863 -0.000751521 0.187255 0.0524128 0.00794591 -0.0486702 0.151201 -0.142039 0.116044 -0.142087 0.0884988 -0.0562994 0.0900658 0.0130673 0.195474 0.180169 -0.0234645 0.184352 -0.101019 0.113085 0.0477826 -0.144424 -0.0469773 -0.0352062 0.0419976 0.0390319 0.0210846 -0.00534728 0.018188
多 0.0196843 -0.099126 0.0962933 -0.0633154 -0.0610044 0.0454354 -0.0891767 -0.0552148 0.134947 -0.0414397 0.0131609 -0.127983 -0.00318123 0.0636079 -0.0802974 0.0604753 0.0977156 0.0922257 -0.0604739 -0.103995 0.0486707 -0.0189141 0.0374404 0.00797074 0.110659 0.00497136 -0.00408289 -0.154935 0.0863095 -0.134652 0.198835 -0.0157668 0.0932918 0.0779408 -0.0315474 0.0265463 -0.134863 0.0592678 -0.0767238 0.149967 0.0728618 -0.00854509 -0.189199 0.155494 -0.0599532 -0.026852 -0.0758453 0.0573236 -0.109403 0.163539 0.150453 -0.0889843 0.0618214 0.104678 0.227688 -0.135792 0.228339 0.149879 0.123211 -0.115935 -0.0595323 -0.0106154 0.0795217 0.0477215 -0.14101 -0.00970241 -0.0137671 -0.136469 -0.0583413 -0.0127232 -0.0962037 -0.0870548 -0.0298379 0.149349 0.0263701 -0.0109249 -0.0133769 0.0697999 -0.048856 0.0432091 -0.0669155 0.0110739 -0.0345392 0.092584 -0.0339367 0.19679 0.0779595 -0.000995455 0.157424 -0.127882 0.05733 -0.000631759 -0.0626403 -0.0171986 -0.112736 -0.0553201 -0.00489334 0.00849168 -0.00672189 -0.0550834
和 0.015279 -0.00906287 0.132889 -0.0786149 -0.0514379 0.0665521 -0.0998818 -0.0333215 0.129013 -0.161463 0.0975511 -0.0130765 0.0871134 0.0238937 -0.196481 -0.101948 0.103062 0.10731 -0.075568 -0.0493283 0.0362445 0.112736 0.0137833 -0.0391501 0.107703 0.059222 -0.066214 -0.127332 0.0777669 -0.0160231 0.148222 0.0075934 0.107564 0.0853487 -0.0888403 0.0480091 -0.0618014 0.121403 0.0865082 0.138856 0.216882 -0.129182 -0.171873 0.0429569 -0.109701 0.0792438 -0.0175279 0.00118197 -0.177401 0.0531388 0.10917 -0.0267176 -0.041845 0.195681 0.0992594 -0.339168 0.275166 0.143387 0.023647 -0.12036 -0.00929701 -0.0302443 -0.0201797 -0.0190746 -0.0719976 0.107673 0.155539 -0.345249 -0.125636 0.0279052 -0.0819578 -0.181421 0.0717798 0.15363 0.0587649 -0.0150038 0.000428226 0.196664 -0.124005 0.169531 -0.23439 -0.022077 -0.00438961 0.170439 0.106691 0.201973 0.0175342 -0.0146601 0.21137 -0.151197 0.0812934 0.0334214 -0.110564 -0.177134 0.0347367 -0.0733802 0.0881566 -0.0662165 -0.0359122 0.0142285
过 -0.0425725 0.0185189 0.180147 -0.191271 -0.0478708 -0.0604526 -0.241921 -0.0961069 0.043353 -0.13032 0.0185129 -0.0859103 0.168217 0.0047512 -0.321214 -0.277214 -0.040444 0.0269384 -0.133588 -0.125162 0.0873711 0.00710675 0.0839129 0.065224 0.115349 0.0809002 0.0941423 -0.103834 -0.00551671 -0.0254487 0.129392 0.00866439 0.2531 0.207228 -0.114497 -0.0998866 -0.147066 0.209902 0.107822 0.20839 0.263423 -0.192172 -0.282533 -0.181429 -0.00513553 -0.194822 0.128888 -0.0134441 -0.133304 0.245897 0.233099 -0.116612 -0.0618368 0.349528 0.0225137 -0.374655 0.373889 0.047287 0.185014 -0.060045 -0.20411 -0.138608 -0.143514 -0.0543436 0.2685 0.331964 0.148608 -0.373667 -0.0201292 -0.109801 -0.057869 -0.086458 0.142253 0.17916 0.0907882 -0.0119461 0.115184 0.282634 0.0105232 0.0478996 -0.426445 -0.0444456 0.0290806 0.139856 0.0313244 0.138221 -0.129951 0.118058 0.110585 -0.300077 -0.0458037 -0.000534637 -0.223423 -0.244733 0.16054 -0.208379 0.226249 -0.138304 0.0202878 -0.193516
故事 -0.0480108 -0.00792852 0.137822 -0.108293 -0.0694755 0.0307526 -0.0871808 -0.0602424 0.0773602 -0.046983 0.0529032 0.0119405 0.069602 0.0465808 -0.191529 -0.0842111 0.111386 0.0897032 -0.146366 -0.0667052 0.0476253 -0.0228472 0.058672 0.00263533 0.118698 0.0336265 0.0465807 -0.167918 0.0725805 -0.0266188 0.195589 -0.0529407 0.114308 0.131572 0.000525205 0.00800792 -0.0509074 0.0824711 0.0609512 0.170138 0.274188 -0.0573652 -0.221654 0.0556795 0.0238754 -0.0460592 -0.0064392 0.0588708 -0.0873385 0.0631813 0.250167 -0.128446 -0.0657023 0.184475 0.126508 -0.227571 0.273056 0.0855965 0.147222 -0.072579 -0.0676301 -0.0718468 -0.0666118 -0.0402952 0.0250855 0.159768 0.0009076 -0.213144 -0.0891694 -0.0593772 -0.0760408 -0.191485 0.102668 0.119016 0.075948 -0.058029 0.0269366 0.143186 -0.0484322 0.0962479 -0.160877 -0.0276471 0.00152162 0.132472 0.0847672 0.17952 -0.0350675 0.0302379 0.0913568 -0.144597 0.0799571 0.0202149 -0.0112854 -0.150196 -0.0225618 -0.139039 0.088732 -0.102838 -0.0306697 -0.0955141
评价 0.0192794 0.16174 -0.0715197 0.0204688 -0.0369359 0.139387 0.126759 0.0993353 -0.0737062 -0.053529 0.201039 0.139688 -0.0767385 0.0610094 -0.0271897 -0.0746862 0.234564 0.294845 -0.0950098 -0.0858247 0.139596 0.0287582 -0.00603435 -0.0623004 0.114676 0.165788 -0.0654189 -0.23653 0.125794 0.0345955 0.0911107 -0.152203 -0.0357266 -0.0728792 0.119325 0.215276 0.117867 0.0418184 0.0694831 -0.0118192 0.367101 -0.103262 -0.0958872 0.153582 -0.147776 0.350963 -0.100798 0.217577 -0.167686 -0.239366 -0.0296098 -0.111685 -0.0435515 -0.0929063 0.125268 -0.261122 0.0890838 0.095986 -0.0496585 -0.257994 0.110893 0.0855321 -0.0164612 -0.141899 -0.279149 0.0184091 0.0165601 -0.332174 -0.269142 0.106745 -0.119348 -0.30948 0.106061 0.069412 0.157137 -0.151176 -0.0346303 0.127197 -0.147742 0.202927 -0.108492 -0.0609848 0.149398 0.0744078 0.221685 0.259549 0.0842579 -0.0795734 -0.000672471 -0.092347 0.229125 0.178783 -0.0320722 -0.0925013 0.0356138 -0.0374207 -0.00680323 -0.0344659 -0.105277 0.0910364
《 0.0811018 0.22781 -0.205212 -0.00974833 0.0572314 0.143261 0.225333 0.150448 -0.0599754 -0.205913 0.347169 0.13872 -0.189682 0.0665485 0.0152855 -0.167658 0.278066 0.520449 0.0991978 -0.0105265 0.167896 0.18881 -0.0858053 -0.166986 0.1459 0.303357 -0.150508 -0.271044 0.190825 0.182774 0.000578988 -0.145544 -0.0957224 -0.181874 -0.0481455 0.315722 0.185708 0.07694 0.159006 -0.0483413 0.51137 -0.219719 -0.0740472 0.139419 -0.368048 0.517188 -0.146962 0.214621 -0.272183 -0.344983 -0.232889 -0.0884728 -0.070052 -0.0954594 0.0887703 -0.436367 0.122092 0.170398 -0.250434 -0.311197 0.289037 0.213183 -0.0712601 -0.191102 -0.463114 -0.0120197 0.255498 -0.504683 -0.396312 0.283006 -0.168268 -0.348997 0.165488 0.0764658 0.246193 -0.228745 -0.0968736 0.238117 -0.320555 0.333589 -0.247414 -0.0880586 0.0979379 0.0635843 0.352074 0.289401 0.158614 -0.147241 0.0926198 -0.110924 0.289461 0.357179 -0.163175 -0.148052 0.135108 -0.0320766 0.0100559 0.0085439 -0.124514 0.26835
还 0.0557748 -0.124398 0.0956791 -0.0832475 -0.127921 0.157157 -0.0888341 0.0593644 0.186174 -0.110847 0.151993 -0.0416376 0.0296658 0.0736125 -0.120062 0.0352911 0.213138 0.121831 0.0113691 -0.0964028 0.044587 0.16717 0.0456776 -0.0889477 0.212681 -0.0163615 -0.120717 -0.145623 0.148843 -0.0784109 0.236891 0.0197532 0.0338858 0.141778 -0.0581001 0.122482 -0.0764162 0.0807339 0.0354003 0.220117 0.225299 -0.0982316 -0.252414 0.235235 -0.126625 0.131436 -0.085517 0.0650576 -0.191888 0.0611325 0.104689 0.0096146 -0.00408688 0.234767 0.233182 -0.313837 0.395851 0.242204 0.0613043 -0.187858 0.077425 0.0183843 -0.0171746 -0.00851249 -0.271598 -0.0124558 0.145405 -0.347946 -0.197177 0.137704 -0.140423 -0.22533 0.0564437 0.266368 0.092666 -0.0114475 -0.0828521 0.22104 -0.232467 0.208284 -0.172813 0.0645445 -0.0811433 0.160481 0.126112 0.273342 0.160815 -0.0564269 0.267183 -0.134734 0.198538 0.0946829 -0.113771 -0.138432 -0.0365795 -0.0382708 0.0767672 -0.0342862 -0.0902991 0.0535289
》 0.0803355 0.247259 -0.195525 -0.0346066 0.0719099 0.116244 0.243348 0.0707789 -0.0537534 -0.194302 0.309821 0.10692 -0.182904 0.0779565 -0.00828326 -0.184009 0.312807 0.579522 0.0658264 -0.00120448 0.220595 0.125781 -0.0970213 -0.155408 0.128447 0.310566 -0.083203 -0.325301 0.195932 0.13679 0.0387462 -0.161291 -0.0851183 -0.190477 -0.018554 0.321333 0.167782 0.108761 0.115388 -0.0363008 0.551477 -0.154315 -0.0939526 0.13105 -0.373999 0.482923 -0.171975 0.233009 -0.326834 -0.298389 -0.206251 -0.163203 -0.050534 -0.0949706 0.155501 -0.448322 0.123988 0.186219 -0.167315 -0.276417 0.20644 0.167481 -0.0855278 -0.181094 -0.437645 0.00267941 0.193653 -0.486852 -0.395565 0.219903 -0.167507 -0.320586 0.133902 0.0568572 0.274079 -0.252506 -0.0870648 0.239255 -0.262416 0.317959 -0.234648 -0.111994 0.129157 0.086858 0.314412 0.347276 0.119865 -0.136736 0.0858256 -0.197426 0.290373 0.321905 -0.126341 -0.162234 0.0740624 -0.0658028 -0.00457128 0.00233575 -0.107846 0.197365
中 -0.00719253 0.0650725 0.151896 -0.165308 -0.00401897 0.0530893 -0.014011 -0.0734934 0.0931434 -0.0943829 0.148465 0.0222823 0.0583582 0.0573174 -0.226523 -0.152785 0.207896 0.199591 -0.109502 -0.0165467 0.0964946 0.0503033 0.0404544 -0.0315047 0.107532 0.107619 -0.0046319 -0.236775 0.075088 0.071818 0.162018 -0.0698155 0.0962304 0.0692821 -0.0434979 0.113431 -0.0215009 0.130972 0.134064 0.167757 0.42481 -0.10362 -0.203396 0.0601215 -0.11874 0.0927878 -0.0444292 0.0783968 -0.157549 -0.0107345 0.191443 -0.175162 -0.113915 0.163253 0.165065 -0.347292 0.290088 0.157207 0.0715636 -0.0832398 -0.0296826 -0.0594707 -0.145658 -0.0596049 -0.0533048 0.199904 0.0506974 -0.352581 -0.152874 0.0209212 -0.0859208 -0.260598 0.119125 0.136981 0.144539 -0.104611 -0.012666 0.198322 -0.146921 0.163682 -0.207048 -0.0827157 0.0401263 0.198202 0.149844 0.247912 -0.036891 -0.0257561 0.135999 -0.183668 0.162075 0.0894519 -0.0377345 -0.207559 -0.0085654 -0.19727 0.0930932 -0.0923554 -0.0443859 -0.0421065
“ -0.0300603 0.0578201 -0.00278468 -0.0735641 -0.0510166 0.0728831 0.050638 -0.00550373 0.0475285 -0.0304797 0.115369 0.0772123 -0.02468 0.0433189 -0.0563242 -0.0385726 0.174297 0.165858 -0.0829133 -0.0318425 0.0643143 -0.00377051 0.0332849 -0.0313388 0.108949 0.0544939 0.0133222 -0.168241 0.0998656 0.0326081 0.141258 -0.103518 -0.00716296 0.0308336 0.0461953 0.104137 0.0468582 0.0090167 0.0497789 0.108102 0.322677 -0.0244079 -0.136188 0.12979 -0.0359777 0.0800947 -0.0576015 0.112937 -0.092228 -0.0622285 0.119823 -0.115248 -0.0769175 0.0675196 0.123737 -0.174698 0.189018 0.109018 0.0653141 -0.0881719 0.0565043 0.00728251 -0.0866623 -0.0577388 -0.122042 0.055793 -0.0187317 -0.176769 -0.146573 0.0259921 -0.0772305 -0.197515 0.107756 0.0757433 0.140826 -0.0940338 -0.026929 0.11584 -0.123746 0.123407 -0.0643774 -0.0323316 -0.00560159 0.0698809 0.144458 0.159782 0.0493737 -0.0333023 0.0173356 -0.0969016 0.147289 0.0841081 0.0380914 -0.102081 -0.013699 -0.0911238 0.0250972 -0.0509363 -0.0355369 -0.01648
” -0.035335 0.0637889 -0.00654157 -0.0941138 -0.0982233 0.061777 0.0790812 -0.0466671 0.0813307 -0.0160909 0.0919858 0.0873204 -0.0334291 0.0537601 -0.04786 -0.0265835 0.232574 0.193288 -0.137606 -0.0122205 0.0985024 -0.0517079 0.0522671 -0.0145778 0.105315 0.0459086 0.0791403 -0.188198 0.115373 0.000748888 0.175637 -0.134973 -0.00998756 0.0559465 0.0945895 0.137194 0.0507711 0.0143064 0.0303703 0.138693 0.352086 0.000121277 -0.171211 0.155052 -0.0195997 0.0715156 -0.0825272 0.122954 -0.115154 -0.0489634 0.161633 -0.172038 -0.0895141 0.0649898 0.157135 -0.162877 0.200607 0.115929 0.129205 -0.0532003 0.036772 -0.0220806 -0.0945799 -0.052457 -0.115386 0.0795497 -0.063616 -0.16432 -0.164281 -0.0106526 -0.0806224 -0.200138 0.126105 0.0557306 0.178064 -0.107404 -0.0205002 0.106228 -0.113154 0.112363 -0.0402691 -0.0317143 0.00261214 0.0856562 0.138238 0.198962 0.06016 -0.036231 -0.0101503 -0.122658 0.167931 0.0516023 0.104073 -0.125962 -0.0396074 -0.1008 0.000517577 -0.0819033 -0.0241121 -0.0666481
比较 0.00214287 -0.110237 0.106769 -0.134178 -0.152723 -0.0301335 -0.126204 -0.125012 0.262116 -0.179793 -0.013783 -0.0879772 0.0353339 0.00646169 -0.179018 -0.0366222 0.0677413 0.0875625 -0.0742749 -0.0152639 0.0568738 0.0575603 0.0478507 0.0292463 0.130041 -0.0125167 0.0441703 -0.0763705 0.0970642 -0.146462 0.199456 0.0435441 0.156875 0.149816 -0.0987368 0.00995779 -0.143766 0.171769 -0.00708871 0.212359 0.110153 -0.0798317 -0.230559 0.0599725 -0.0775261 -0.0995957 -0.0263669 -0.0875841 -0.235499 0.280104 0.15006 -0.0735268 0.0127104 0.307559 0.134282 -0.311692 0.340108 0.156454 0.154865 -0.0330904 -0.0689362 -0.104385 0.0272651 0.0323819 -0.025858 0.0938367 0.161354 -0.273065 -0.107278 -0.0296327 -0.101043 -0.0583856 0.054517 0.162125 0.0725265 -0.00572432 0.0385612 0.220686 -0.0913065 0.106625 -0.25374 0.0229949 -0.0318166 0.165207 -0.00811518 0.221047 0.104667 0.00969137 0.194784 -0.209682 0.0351659 -0.0550478 -0.0991172 -0.187672 0.00345687 -0.051353 0.113677 -0.116965 0.0711884 -0.0936777
次 0.000960636 -0.122891 0.245183 -0.120977 -0.0927432 0.149407 -0.185419 -0.0644069 0.196233 0.0178213 0.0570223 -0.100354 0.101811 0.048942 -0.159218 0.0730316 0.197807 -0.143085 -0.211943 -0.189317 0.0739881 0.0378744 0.193535 0.0814047 0.0825289 -0.0839141 -0.0882939 -0.182271 -0.0482155 -0.067872 0.245831 -0.0454821 0.164576 0.118426 0.0463602 0.0823389 -0.17954 0.100155 -0.0268951 0.221077 0.0988618 -0.0532122 -0.221776 0.157398 -0.0532214 0.0780922 -0.0324585 0.0995284 -0.109392 0.206455 0.216956 -0.0865158 -0.0262827 0.166019 0.301438 -0.192763 0.31692 0.295207 0.144865 -0.136417 -0.0531519 -0.0858302 0.0169947 0.0612867 -0.091473 0.102334 -0.05754 -0.31164 0.00141772 -0.10725 -0.0521286 -0.194924 -0.0413241 0.256364 0.0457864 0.0612764 -0.0227487 0.119505 -0.10801 0.0465275 -0.0785039 0.0259545 -5.7051e-06 0.223397 -0.00483061 0.260949 0.0812708 -0.0177544 0.159003 -0.0864094 0.165285 -0.0467568 -0.0513176 -0.079075 -0.115062 -0.151646 -0.0175699 -0.00341173 0.0414023 -0.129475
跟 0.0450427 -0.253182 0.0880398 -0.0229657 -0.121352 0.212514 -0.194926 0.104667 0.227654 -0.0648015 0.126944 -0.127466 -0.0473612 0.0782616 -0.00926054 0.192971 0.144673 -0.0355172 0.0475043 -0.227685 0.0204382 0.22213 0.101585 -0.0569657 0.213624 -0.124673 -0.24369 -0.128502 0.100131 -0.116515 0.25872 0.0512946 0.0668265 0.0983834 -0.0526098 0.0910891 -0.162758 0.0244452 -0.078762 0.217461 -0.00638867 -0.0656176 -0.227524 0.328304 -0.116282 0.141492 -0.0676596 0.0796999 -0.1672 0.186838 0.0487121 0.105419 0.0935879 0.213605 0.310176 -0.195662 0.37619 0.345864 0.0144768 -0.273464 0.156636 0.0705739 0.111156 0.0518991 -0.370939 -0.158442 0.132601 -0.343842 -0.129523 0.102473 -0.135542 -0.167532 -0.0496461 0.346212 0.0196082 0.0663975 -0.118406 0.171523 -0.257788 0.184266 -0.108285 0.11882 -0.134296 0.143076 0.0529133 0.247901 0.282489 -0.075261 0.257245 -0.0479924 0.198643 0.0742011 -0.180359 -0.00929136 -0.120328 0.0146388 0.0145411 0.0643471 -0.0126402 0.0818624
都 -0.0116251 -0.148797 0.242714 -0.114187 -0.135714 0.113588 -0.232991 -0.0228668 0.161491 -0.0370364 0.0322959 -0.0860945 0.148842 0.037048 -0.216117 0.00497676 0.11056 -0.119645 -0.171274 -0.189104 0.0298902 0.0473474 0.14222 0.0447222 0.13038 -0.0758801 -0.0677483 -0.122521 -0.00686453 -0.109979 0.223639 0.0042712 0.17071 0.20271 0.00459531 0.00128081 -0.175354 0.108217 0.00836083 0.235043 0.0880209 -0.101039 -0.267044 0.0870141 -0.00619276 -0.01526 0.030897 0.047731 -0.112237 0.232422 0.240398 -0.025539 -0.0118542 0.252492 0.20381 -0.238838 0.367961 0.18795 0.159428 -0.149854 -0.114529 -0.0916359 0.00595598 0.0471402 -0.00950809 0.117173 0.0271772 -0.323257 -0.0266401 -0.0645392 -0.0725186 -0.167029 0.0165525 0.257213 0.0054197 0.0636402 0.0168278 0.165069 -0.076169 0.0823503 -0.17363 0.0575844 -0.0215448 0.184425 0.000344016 0.212371 0.0431795 0.0270222 0.19792 -0.133133 0.0828931 -0.035805 -0.112131 -0.123407 -0.0304529 -0.112619 0.0768041 -0.0461585 -0.0072081 -0.122241
真 0.0114568 -0.0321591 -0.0196584 -0.0497931 -0.0587002 0.0564692 0.0193794 -0.0134645 0.079309 -0.0225251 0.0673682 -0.0462254 -0.0907132 0.0568699 0.0148065 0.0546299 0.140453 0.151447 -0.0340705 -0.0800314 0.0902588 -0.0199919 0.0471882 -0.00938798 0.114147 0.0441711 -0.015099 -0.160257 0.107672 -0.0530789 0.159485 -0.0730984 0.0257305 0.000947671 0.0208282 0.103451 -0.0421616 0.0291458 -0.0676273 0.0936323 0.136322 -0.0127393 -0.154797 0.172838 -0.086729 0.068787 -0.093258 0.107979 -0.104388 0.0560124 0.0633784 -0.0939171 0.0315984 0.0336736 0.199297 -0.132768 0.165344 0.150964 0.0717901 -0.133512 0.0348452 0.0434775 0.0508938 -0.0140093 -0.213553 -0.0449244 -0.0135237 -0.151642 -0.130291 0.0149793 -0.0996561 -0.11853 0.0128495 0.1054 0.0988615 -0.0669319 -0.0285055 0.0717088 -0.095219 0.0735186 -0.0529919 0.00610214 -0.0127743 0.051585 0.035882 0.18064 0.123261 -0.0259094 0.063068 -0.091733 0.115094 0.0736157 -0.040237 -0.0124054 -0.0603499 -0.0314078 -0.0364111 0.00754199 0.00692372 -0.019571
女朋友 0.0307412 -0.223448 0.135525 -0.00653432 -0.16043 0.185929 -0.132713 0.0456598 0.176222 0.0777615 0.0301829 -0.0866861 0.0227467 0.0893316 0.0114024 0.229848 0.17504 -0.120805 -0.104406 -0.204057 0.0383757 0.0380942 0.133886 0.0199803 0.123871 -0.162167 -0.104085 -0.115031 0.0268248 -0.196776 0.260979 -0.0244703 0.0527322 0.122207 0.116557 0.0738747 -0.139832 -0.0317788 -0.128586 0.19554 -0.0667688 0.0570474 -0.201272 0.303716 0.01192 0.0707148 -0.0772943 0.11689 -0.060543 0.157843 0.161634 0.00703826 0.0787023 0.090608 0.31075 -0.00604371 0.244306 0.246405 0.149725 -0.177433 0.0197867 -0.00369668 0.113677 0.079298 -0.244517 -0.114665 -0.101443 -0.125399 -0.0349977 -0.0121118 -0.0753485 -0.119467 -0.0786994 0.222445 -0.000482023 0.0950028 -0.0799072 0.0248325 -0.105039 0.0302735 0.084313 0.108706 -0.0853031 0.10815 -0.0372626 0.208443 0.180737 -0.0312601 0.140081 -0.0137059 0.165462 -0.0335708 0.00455662 0.0465214 -0.194686 -0.00121548 -0.0695783 0.0601897 -0.0279697 -0.0494127
种 0.0148581 -0.0883146 0.159785 -0.0256595 -0.176015 0.203868 0.00493425 -0.134689 0.187038 0.283082 -0.0267119 -0.0792593 -0.0139823 0.075513 0.0779924 0.310228 0.413253 -0.206935 -0.463916 -0.28056 0.237859 -0.248877 0.307744 0.255402 -0.0520136 -0.143634 0.02021 -0.303328 -0.148825 -0.222311 0.285151 -0.274899 0.103211 -0.0242761 0.417322 0.237089 -0.150942 0.0070846 -0.278592 0.13046 -0.0892658 0.151725 -0.168814 0.315209 -0.0518716 0.25643 -0.193844 0.318231 -0.0766646 0.228926 0.168458 -0.297104 0.063718 -0.214243 0.51482 0.102837 0.0487973 0.366551 0.282588 -0.150345 -0.120699 -0.0973136 0.195437 0.116351 -0.240634 -0.0388933 -0.461682 -0.112216 0.0423534 -0.295276 -0.0211489 -0.149505 -0.198102 0.14105 0.0892553 0.0714398 -0.0189465 -0.142321 0.0285629 -0.1469 0.296329 0.0353585 0.130467 0.178058 -0.175092 0.380837 0.204128 -0.0545314 -0.0825508 -0.0115304 0.29216 -0.17524 0.158745 0.111718 -0.341852 -0.087362 -0.333685 0.132453 0.118814 -0.282732
什么样 0.0542932 -0.0275766 0.15133 -0.0827186 -0.0598118 0.104938 -0.0138164 -0.0857695 0.119419 0.0965106 0.0318842 -0.0736878 0.0259326 0.0906773 -0.0652811 0.100125 0.262114 -0.00406674 -0.233067 -0.130201 0.151414 -0.0931401 0.15078 0.0962702 0.00127876 -0.0168452 0.0256028 -0.244667 -0.0502246 -0.123139 0.216929 -0.151488 0.0827298 0.0444381 0.135141 0.149992 -0.107009 0.0646048 -0.0977372 0.133087 0.0783814 0.0553907 -0.177858 0.165732 -0.0924718 0.144015 -0.118013 0.171829 -0.114909 0.11145 0.14892 -0.197975 0.00191377 -0.0265591 0.33154 -0.0879678 0.144087 0.236562 0.182712 -0.0868554 -0.116166 -0.0725943 0.032554 0.0608655 -0.124278 0.0687799 -0.195582 -0.152079 -0.0144019 -0.128474 -0.0385854 -0.122362 -0.0733153 0.122931 0.104604 0.0173009 -0.0184047 -0.00158403 -0.0240709 -0.0531343 0.0619712 -0.0215848 0.0558254 0.176122 -0.0659018 0.281256 0.0491567 -0.0234419 0.0719877 -0.111039 0.190485 -0.06314 0.0383139 0.00438181 -0.188654 -0.113293 -0.130147 0.0494851 0.00321076 -0.159244
体验 0.0316619 -0.0186553 0.243233 -0.0740326 -0.152802 0.204643 0.0403345 -0.194576 0.166186 0.353978 -0.0258835 -0.0852095 0.0235442 0.118469 0.0285288 0.292891 0.512274 -0.18333 -0.57321 -0.283824 0.280658 -0.332649 0.346545 0.293262 -0.0974446 -0.111543 0.0709311 -0.39267 -0.189988 -0.209635 0.323622 -0.36113 0.122393 -0.0223814 0.475433 0.283444 -0.157222 0.0239216 -0.266084 0.136114 -0.00450576 0.190856 -0.196945 0.332453 -0.0657077 0.289659 -0.23751 0.373315 -0.0521813 0.205312 0.250801 -0.416173 0.0394696 -0.291925 0.601891 0.0936721 0.044605 0.397861 0.340696 -0.146657 -0.202355 -0.135147 0.163208 0.133549 -0.221388 0.0444659 -0.581169 -0.107458 0.0709866 -0.345471 -0.00967853 -0.198868 -0.208611 0.132913 0.117608 0.0586803 -0.0171243 -0.187057 0.0599161 -0.200673 0.350064 -0.0260203 0.182956 0.224244 -0.203553 0.452712 0.147683 -0.0407686 -0.0808486 -0.058233 0.33357 -0.19779 0.229394 0.120107 -0.398445 -0.176747 -0.394308 0.141941 0.0915832 -0.353347
喜欢 0.0838552 -0.278686 0.268865 -0.0623699 -0.142593 0.187887 -0.222232 0.00887269 0.285814 -0.0167114 0.0476913 -0.139669 0.118299 0.0735814 -0.112011 0.198597 0.186237 -0.164973 -0.0650152 -0.155662 -0.0187567 0.164607 0.130747 -0.0164779 0.133882 -0.188623 -0.171476 -0.0904276 0.0110288 -0.178363 0.325393 0.0706862 0.100704 0.198796 -0.0392648 0.0560144 -0.216136 0.0421126 -0.0691634 0.268044 -0.0547124 0.019466 -0.224463 0.285847 -0.0396659 0.0472629 -0.0597725 0.012234 -0.130222 0.207731 0.200388 0.0693018 0.0480101 0.254886 0.317265 -0.136682 0.377358 0.321137 0.120216 -0.130482 0.0148861 -0.0617092 0.0770045 0.12472 -0.205402 -0.0387887 0.0470157 -0.217838 -0.00555011 -0.000697267 -0.0737882 -0.131904 -0.0961168 0.300846 -0.0146647 0.142037 -0.0956219 0.104951 -0.166028 0.076027 -0.0174642 0.100341 -0.158803 0.225999 -0.0295204 0.235323 0.144113 -0.0451707 0.315483 -0.0518071 0.171193 -0.0763967 -0.0568846 -0.0380775 -0.202798 -0.0379247 -0.00925457 0.0377109 -0.0385528 -0.00852723
可能 -0.00453156 -0.127683 0.126634 -0.0806709 -0.0883719 0.0475255 -0.131833 -0.0379618 0.158202 -0.0621744 0.0302832 -0.0899151 0.0209445 0.0613896 -0.110857 0.0478487 0.0879502 0.0502185 -0.0633249 -0.108542 0.0164937 0.0356554 0.0553475 -0.0193023 0.141681 -0.0139605 -0.037884 -0.134271 0.0961588 -0.106527 0.242516 0.0161008 0.111423 0.117416 -0.0514225 0.0122948 -0.126171 0.0751215 -0.0293194 0.180176 0.109383 -0.028935 -0.220484 0.150968 -0.0288658 -0.0515528 -0.0505043 0.0416008 -0.11222 0.157083 0.198166 -0.0594927 0.030746 0.198014 0.2005 -0.175623 0.286296 0.173889 0.12302 -0.109207 -0.0222373 -0.0189284 0.0583665 0.0235968 -0.120915 0.0257707 0.035494 -0.18024 -0.0670309 -0.0165592 -0.098446 -0.124129 0.00148209 0.166938 0.0121911 0.000213173 -0.0128388 0.118208 -0.0866478 0.0834921 -0.109802 0.0321853 -0.065015 0.115548 0.0120744 0.184538 0.0652511 0.00642044 0.174908 -0.109851 0.0762916 0.006454 -0.0708381 -0.05836 -0.0941376 -0.0656981 0.0365699 -0.0385147 -0.00809351 -0.0461019
要 0.0232812 -0.29752 0.0923072 0.0252788 -0.220106 0.188694 -0.208269 0.11764 0.206253 0.0116244 0.0359159 -0.0705418 -0.00269758 0.0941792 0.0168528 0.253135 0.131371 -0.0946864 -0.033652 -0.239624 0.00573135 0.105557 0.110895 -0.0554611 0.237125 -0.187015 -0.146233 -0.0767867 0.121184 -0.233997 0.335365 0.058653 0.0399539 0.19472 0.0445997 0.0330953 -0.153599 -0.0454233 -0.139642 0.235822 -0.0656669 0.0241718 -0.269634 0.360505 0.068526 0.0165482 -0.0651375 0.0870162 -0.0947828 0.161855 0.189243 0.100081 0.108904 0.229303 0.280171 -0.0524121 0.355095 0.253387 0.1399 -0.228078 0.0819651 0.0230168 0.142513 0.059407 -0.290389 -0.167087 0.0159576 -0.14624 -0.101347 0.0351489 -0.124947 -0.133516 -0.0437027 0.277842 -0.0157527 0.106623 -0.0811037 0.089012 -0.162859 0.108055 0.0297216 0.158491 -0.164024 0.0782081 0.0251091 0.200884 0.239895 -0.0332096 0.198077 -0.0119613 0.146475 -0.000315197 -0.062624 0.0254245 -0.167852 0.0611063 -0.0101099 0.0142101 -0.0564921 0.0227718
一起 0.00778224 -0.151374 0.0810053 -0.0528042 -0.0797868 0.135873 -0.11197 0.0393618 0.169783 -0.0761603 0.0983496 -0.0861469 -0.0328704 0.0711048 -0.0568653 0.0987977 0.122023 0.0885691 0.0090677 -0.149031 0.0175448 0.101988 0.0609655 -0.0602167 0.196805 -0.0296339 -0.133028 -0.155674 0.132079 -0.0872856 0.242914 0.00705405 0.0622254 0.0814889 -0.066123 0.0695684 -0.11565 0.0346241 -0.0428424 0.18685 0.111175 -0.0533278 -0.219783 0.25172 -0.07189 0.061686 -0.0698765 0.0809733 -0.130596 0.105372 0.134799 -0.000314749 0.0429624 0.179582 0.258127 -0.199428 0.321165 0.239367 0.0551456 -0.195034 0.0742395 0.0552913 0.071751 0.0209894 -0.272493 -0.0778757 0.0723445 -0.244092 -0.131647 0.0663505 -0.128142 -0.176778 0.000893852 0.239293 0.0329989 -0.0136195 -0.0743516 0.130158 -0.172708 0.16071 -0.109226 0.0487501 -0.104001 0.106304 0.0627329 0.212324 0.15333 -0.0429266 0.20957 -0.0811425 0.139402 0.070145 -0.117747 -0.0279357 -0.106289 -0.0335684 0.0220447 0.0102839 -0.0389912 0.0429619
做 0.00311596 -0.106729 0.104853 -0.111023 -0.226975 0.00686616 -0.109704 -0.066803 0.196695 -0.177036 0.0469547 -0.0220462 0.0524204 0.00976946 -0.186544 -0.0378382 0.134498 0.052693 -0.148675 -0.0569583 0.0760087 0.063179 0.096846 0.0225535 0.155605 -0.0391915 0.0138814 -0.104932 0.12016 -0.146407 0.217722 -0.00568633 0.149322 0.160863 -0.00434885 0.0494693 -0.0980276 0.153802 0.0181653 0.228991 0.167346 -0.124498 -0.255089 0.0910816 -0.0519593 0.00493887 -0.0136146 -0.0348564 -0.236854 0.208764 0.142862 -0.0539849 -0.00258141 0.294565 0.122063 -0.361166 0.370233 0.144077 0.161828 -0.0900054 -0.0414346 -0.105659 0.03929 -0.0241636 -0.0777483 0.0889236 0.156591 -0.363117 -0.18849 -0.0190453 -0.121332 -0.162869 0.102948 0.22737 0.128994 -0.00664271 0.0535122 0.258269 -0.102562 0.130718 -0.297514 0.0451495 0.0348243 0.21114 0.0574842 0.260807 0.129005 0.0242019 0.15862 -0.199996 0.11149 -0.0373339 -0.110452 -0.238114 0.0476459 -0.0371608 0.110844 -0.142695 0.0511448 -0.0840943
或者 0.0442744 -0.143385 0.13277 -0.0653605 -0.156284 0.168715 -0.109843 -0.000249805 0.181497 -0.0418833 0.0876247 -0.0792074 0.0350216 0.0428923 -0.0867889 0.100478 0.219266 -0.0544512 -0.109246 -0.159982 0.0779224 0.0931384 0.147376 0.0328672 0.109232 -0.0723614 -0.132305 -0.141085 0.0044563 -0.11249 0.186795 -0.0315489 0.0910862 0.0949209 0.0493037 0.127621 -0.133934 0.0905011 -0.0351002 0.184431 0.0415616 -0.0703686 -0.206307 0.194569 -0.125637 0.167935 -0.0550604 0.0917813 -0.171956 0.171862 0.0748443 -0.0207071 0.0180194 0.145337 0.263655 -0.215217 0.314355 0.273212 0.0914903 -0.172557 -0.00126438 -0.0219543 0.0638175 0.0475876 -0.225714 -0.00881993 0.0380348 -0.364227 -0.0972993 0.000673193 -0.0851664 -0.178037 -0.0313604 0.263531 0.0699779 0.054772 -0.0500863 0.142763 -0.154309 0.101092 -0.112236 0.0645643 0.00134361 0.178046 0.0164545 0.277467 0.168818 -0.0361193 0.18673 -0.0887772 0.180521 -0.0163756 -0.0999831 -0.0830122 -0.0671513 -0.0337227 -0.0103205 0.0163712 0.0199985 -0.0399888
什么 0.136009 -0.0580517 0.217247 -0.150824 -0.17963 -0.125466 0.0124237 -0.242581 0.151301 -0.0766755 -0.0513923 -0.226264 0.109079 0.0671822 -0.218882 -0.0741432 0.229059 0.167011 -0.187732 0.0643823 0.155457 -0.155744 0.0765483 0.126918 0.0156467 0.0180594 0.217871 -0.207205 0.0155803 -0.326432 0.161559 -0.0538945 0.135418 0.170186 0.0139476 0.0729111 -0.211567 0.272648 -0.0523088 0.168616 0.0693849 0.0239205 -0.282983 0.0406247 -0.181627 -0.0836323 -0.125759 -0.0437018 -0.231287 0.31891 0.178865 -0.288268 0.0607794 0.122969 0.24314 -0.24213 0.269712 0.077542 0.312913 0.0877531 -0.354251 -0.181421 0.0675439 0.0967751 0.0104792 0.198783 -0.0175735 -0.166603 -0.106069 -0.0910031 -0.0822235 -0.0223512 -0.0153365 0.104038 0.103435 -0.0232733 0.0720803 0.138166 0.0973171 -0.0983544 -0.202547 -0.00656577 0.123891 0.207283 -0.20315 0.370218 -0.0243392 0.0995511 0.202008 -0.356129 0.032222 -0.151717 -0.00739966 -0.131284 -0.121201 -0.118071 0.0169411 -0.0768686 0.0351968 -0.240102
让 -0.0152873 -0.164051 0.152164 -0.16162 -0.19387 -0.0116558 -0.133139 -0.10462 0.261636 -0.177162 0.0428046 -0.0504338 0.11846 0.000238189 -0.227165 -0.0912913 0.0963399 0.0812541 -0.0270716 0.0463111 0.00152034 0.126346 0.0486163 -0.014548 0.17406 -0.0573311 0.0159455 -0.0441287 0.12919 -0.0955972 0.194524 0.086722 0.120348 0.22651 -0.118457 -0.0076536 -0.10843 0.157222 0.0980534 0.29994 0.224604 -0.0919131 -0.260429 0.0701674 -0.0406189 -0.14412 0.00263751 -0.131506 -0.205438 0.242815 0.203847 -0.0364248 -0.0539681 0.399969 0.10114 -0.337463 0.423605 0.120506 0.169487 0.00935187 -0.0363484 -0.121041 -0.066528 -0.00221114 -0.0184786 0.134267 0.215158 -0.286533 -0.15767 0.0677076 -0.115154 -0.114104 0.121688 0.214946 0.0764167 -0.0135532 0.00396223 0.291336 -0.140277 0.159031 -0.316703 0.073489 -0.0823659 0.197907 0.0561397 0.203203 0.0728025 0.00942528 0.227994 -0.195644 0.0723508 -0.0367256 -0.0816805 -0.279442 0.0293347 -0.079496 0.194606 -0.155561 0.0355293 -0.0702277
、 -0.10066 0.0435264 -0.19633 -0.232547 -0.211807 -0.128504 0.243071 -0.0845703 0.183768 -0.225633 0.119865 0.117659 -0.141084 -0.0213713 -0.0416314 -0.150534 0.242252 0.505419 0.0749988 0.266944 0.011207 0.0175963 -0.0794493 -0.0677656 0.213074 0.094099 0.243366 -0.059013 0.315317 0.0907088 0.0997161 -0.0823136 -0.109993 0.068924 -0.069546 0.16822 0.175721 0.0559186 0.14592 0.220811 0.589691 -0.0908433 -0.205547 0.144654 -0.0868107 -0.129717 -0.125466 -0.0810671 -0.212644 0.00755633 0.0464367 -0.212572 -0.135027 0.300535 -0.0391701 -0.358868 0.390406 0.025511 0.121957 0.140318 0.194957 -0.0221166 -0.265083 -0.166065 -0.140776 0.105292 0.256684 -0.150114 -0.380381 0.199084 -0.17132 -0.203182 0.317234 0.0363972 0.350298 -0.249646 0.0100179 0.323023 -0.229766 0.187714 -0.279455 0.0247225 -0.0897568 0.049162 0.277076 0.130448 0.161367 -0.0171528 -0.0305972 -0.208666 0.15307 0.152912 0.0530341 -0.330583 0.154567 -0.042212 0.17606 -0.235626 0.0510907 0.019905
意义 -0.0208056 -0.00124604 0.0799697 -0.108489 -0.0672518 0.00995699 0.00632878 -0.0878036 0.0902511 -0.0262889 0.0456916 -0.0308068 0.0113232 0.0483092 -0.106011 -0.0438991 0.152584 0.139732 -0.121975 -0.0316451 0.0753357 -0.0668756 0.0510916 0.0225298 0.0847156 0.0422901 0.0862407 -0.168668 0.0664066 -0.0466171 0.165296 -0.0825179 0.0662964 0.0769479 0.0243176 0.0567524 -0.037513 0.0674085 0.0117415 0.142039 0.231753 -0.0126176 -0.190998 0.0815019 -0.0371762 -0.0268465 -0.0656912 0.067387 -0.101902 0.0775898 0.17029 -0.17559 -0.0365801 0.100962 0.154823 -0.1742 0.209038 0.101571 0.152535 -0.0357762 -0.0724496 -0.0590214 -0.0409902 -0.0180062 -0.0428738 0.104909 -0.0354864 -0.143426 -0.0908829 -0.0399304 -0.0706851 -0.127121 0.0592734 0.075955 0.103947 -0.0727663 0.0125566 0.0965482 -0.0439139 0.0517644 -0.0851477 -0.0269953 0.00612629 0.100899 0.0308995 0.192048 0.00501448 0.0111177 0.0568007 -0.145895 0.0920985 0.0167909 0.0141416 -0.091097 -0.0593032 -0.111139 0.0268547 -0.0653569 -0.00181237 -0.0956291
长 0.0341283 -0.183815 0.0807245 -0.0397574 -0.181455 0.0915475 -0.110121 -0.0185072 0.233148 -0.0739868 0.0212181 -0.0954297 -0.027243 0.0280431 -0.0426975 0.132574 0.154538 -0.006534 -0.0789591 -0.120016 0.0567022 0.0725864 0.0983873 0.0360023 0.12788 -0.0868073 -0.0692187 -0.10109 0.0693364 -0.174049 0.200557 0.0116498 0.0932819 0.0965397 0.0313011 0.0880052 -0.14138 0.0914646 -0.089329 0.174307 -0.0166892 -0.0413819 -0.206485 0.206486 -0.0906667 0.0749711 -0.0792492 0.0230786 -0.199274 0.236022 0.0734921 -0.027691 0.0774611 0.160267 0.241184 -0.174362 0.285752 0.23053 0.113948 -0.142076 0.0132585 -0.040017 0.134187 0.0531811 -0.219555 -0.0667966 0.0600225 -0.265943 -0.11617 0.00895026 -0.113958 -0.106734 -0.038574 0.215614 0.0341114 0.0427672 -0.0268298 0.137326 -0.120407 0.0919219 -0.0954958 0.0921688 -0.0227034 0.143625 -0.0285138 0.248646 0.205838 -0.028897 0.165628 -0.0908072 0.139916 -0.0313014 -0.0837248 -0.0726766 -0.0852214 0.0221392 -0.0101878 -0.00690642 0.0434081 -0.0427911
经历 -0.0520279 -0.034114 0.149442 -0.125304 -0.0665348 0.0387038 -0.14351 -0.0580138 0.0734148 -0.0507164 0.0577097 -0.0473117 0.0807878 0.031291 -0.190777 -0.108451 0.0612603 0.0448265 -0.11402 -0.115477 0.0426415 -0.00304974 0.0790464 0.0205389 0.13127 0.0361489 0.00205474 -0.147957 0.0527939 -0.00674413 0.172183 -0.0309778 0.148503 0.131549 -0.0296142 -0.0261246 -0.0893041 0.0913805 0.0596075 0.183583 0.250086 -0.103416 -0.225567 0.0272141 -0.00739469 -0.0739924 0.0346587 0.0588767 -0.0659489 0.134073 0.238185 -0.103647 -0.0499604 0.202076 0.130992 -0.247798 0.299416 0.104333 0.127258 -0.114905 -0.0769708 -0.0423159 -0.0609851 -0.0335637 0.0194835 0.160743 0.0305246 -0.264616 -0.0719379 -0.0332651 -0.0858518 -0.178596 0.0949949 0.177569 0.0561581 -0.0352573 0.0250223 0.170414 -0.0600336 0.0976584 -0.227591 -0.00718662 -0.0024492 0.118131 0.0574869 0.163868 -0.0236062 0.0429587 0.0970827 -0.159077 0.0444482 0.0376971 -0.0944694 -0.138672 0.0245131 -0.155248 0.11326 -0.0789739 -0.00309258 -0.104994
事 -0.0547568 -0.045298 0.156048 -0.127922 -0.214524 -0.0205814 -0.156221 -0.0911196 0.115431 -0.100986 -0.0230138 0.0146951 0.145217 0.00978518 -0.239467 -0.129764 0.0750086 -0.0282645 -0.259019 -0.106519 0.085452 -0.0573623 0.123787 0.0926099 0.120008 -0.021045 0.114184 -0.091377 0.0383703 -0.138904 0.193569 -0.0405095 0.190607 0.211553 0.0562608 -0.0375153 -0.0948404 0.146711 0.0399306 0.218922 0.191454 -0.106829 -0.260108 -0.0262034 0.0567512 -0.119133 0.061894 0.00158315 -0.15972 0.218146 0.257155 -0.105532 -0.0486824 0.286876 0.0623148 -0.286656 0.338251 0.041891 0.249375 -0.0554306 -0.170079 -0.170029 -0.0395357 -0.0383644 0.1463 0.226314 0.0468224 -0.297638 -0.0940128 -0.132423 -0.0731765 -0.143232 0.130283 0.16425 0.0951827 -0.00957641 0.113782 0.227657 0.00205777 0.0530285 -0.286265 0.0197015 0.0645171 0.170745 0.031061 0.203792 -0.0100299 0.0682988 0.0482029 -0.228177 0.0231484 -0.0851727 -0.0717753 -0.237307 0.0873714 -0.107387 0.139283 -0.168908 0.0554293 -0.200103
怎样 0.0446713 -0.0582421 0.137962 -0.0847112 -0.103417 0.159154 0.0603381 -0.13073 0.202016 0.166627 0.0562892 -0.0662466 -0.0401343 0.125329 0.0283921 0.224247 0.399642 0.0319206 -0.308474 -0.149072 0.201953 -0.14852 0.199603 0.103465 0.0273727 -0.0568447 0.0353921 -0.33696 -7.99847e-05 -0.155326 0.320766 -0.233091 0.0453684 0.0016418 0.241116 0.230511 -0.095092 0.000211349 -0.194015 0.182629 0.118657 0.152695 -0.202388 0.339006 -0.0828522 0.18897 -0.226956 0.257094 -0.117355 0.121464 0.211232 -0.286358 0.0238785 -0.109443 0.496758 -0.0187201 0.136328 0.347122 0.240439 -0.124145 -0.0478942 -0.0465529 0.0973872 0.0711586 -0.305904 -0.0233474 -0.337033 -0.0999352 -0.0508161 -0.146438 -0.0749712 -0.182928 -0.112534 0.127171 0.131172 -0.00835204 -0.0673879 -0.0570914 -0.0644837 -0.0340732 0.210414 -0.0139433 0.0242528 0.187982 -0.0615099 0.378808 0.169588 -0.0787121 0.0392374 -0.0939431 0.297936 -0.0654459 0.164005 0.0530261 -0.338735 -0.126512 -0.230143 0.0836502 0.0368357 -0.175248
中国 0.00504475 0.0266087 0.0581782 -0.0871374 -0.0571623 0.0246882 0.0188431 -0.0462544 0.0835451 -0.100182 0.0945313 0.0219687 0.0147974 0.0768755 -0.135308 -0.0883091 0.157855 0.271239 -0.046861 0.0171439 0.0578511 0.0044133 -0.028418 -0.0746873 0.144296 0.0936904 0.0537708 -0.181168 0.158054 -0.0412645 0.185029 -0.0493771 0.0249992 0.0962704 -0.0489092 0.0682598 -0.00179218 0.0711848 0.0595673 0.139506 0.338656 -0.0303465 -0.201344 0.108451 -0.0621664 0.00763495 -0.0792952 0.0541117 -0.134587 -0.025354 0.186408 -0.129691 -0.0518747 0.146906 0.129569 -0.249381 0.245035 0.0807798 0.0982159 -0.0558491 -0.0167296 -0.0151408 -0.0753101 -0.0435566 -0.0949513 0.0946356 0.0599638 -0.17817 -0.166334 0.045929 -0.103579 -0.174594 0.115607 0.0659155 0.121754 -0.0981837 -0.00800533 0.144676 -0.095454 0.137293 -0.141254 -0.0463081 -0.0266812 0.109248 0.123916 0.19648 -0.0147043 -0.0103087 0.137513 -0.1808 0.106866 0.0722148 0.00786275 -0.140284 -0.0367654 -0.0865973 0.0749619 -0.0883385 -0.0891289 -0.00878476
会 0.0383618 -0.152085 0.0138716 -0.0739442 -0.229627 -0.0354079 -0.100114 -0.0406904 0.229058 -0.209051 -0.0171711 -0.102603 0.0301507 0.0227596 -0.1329 -0.0414697 0.0799665 0.103014 0.0124343 -0.00381906 0.0426471 0.0953495 0.0107168 -0.00671041 0.144429 -0.0366634 0.0659858 -0.0111194 0.124998 -0.220062 0.131696 0.0658382 0.0781376 0.152633 -0.0600627 0.0444234 -0.121191 0.190067 -0.00566875 0.180181 0.0341691 -0.0937404 -0.259591 0.0728589 -0.115614 -0.065936 -0.0528457 -0.0822826 -0.272212 0.289029 0.00628677 -0.0224073 0.0871484 0.3379 0.0852204 -0.299559 0.367791 0.133589 0.15425 -0.0397463 -0.0771692 -0.0861282 0.0206434 0.0218067 -0.0667667 0.0146349 0.256813 -0.278333 -0.168091 0.0798752 -0.126109 -0.0164207 0.0567955 0.149774 0.0810685 0.015704 0.0462165 0.246894 -0.0915931 0.106817 -0.272771 0.0917505 -0.0322486 0.121075 -0.0189142 0.218026 0.15019 0.0211209 0.211943 -0.234942 0.052697 -0.0358528 -0.152775 -0.184294 0.0396885 0.0481249 0.155436 -0.0951055 0.00952246 -0.05902
对 0.0105715 -0.107625 0.0816894 -0.111467 -0.118625 -0.0112046 -0.1498 -0.0548083 0.183599 -0.22667 0.0527051 -0.0836743 0.0445835 0.0131171 -0.174096 -0.0856919 0.0259811 0.107461 0.00434838 -0.029507 0.0275351 0.129869 0.0255296 -0.0266153 0.165545 0.0222885 -0.0203085 -0.0678087 0.123433 -0.0849749 0.17533 0.0803095 0.137511 0.14185 -0.159937 -0.00599444 -0.114297 0.156086 0.052576 0.201772 0.152202 -0.135113 -0.228901 0.0381318 -0.0935373 -0.0717284 0.0089745 -0.079971 -0.211556 0.20509 0.107622 0.00391816 0.00620095 0.332385 0.079376 -0.348101 0.359341 0.136664 0.0604698 -0.0938383 0.0041605 -0.0349838 0.00731379 -0.012206 -0.0502072 0.0901895 0.245566 -0.321487 -0.143224 0.0436144 -0.122276 -0.0915279 0.0896803 0.184584 0.0668734 -0.0172683 0.0209041 0.273233 -0.126837 0.159485 -0.33708 0.0356872 -0.0548684 0.145711 0.0535306 0.181027 0.08728 0.00698094 0.229431 -0.198011 0.0290597 0.0187492 -0.17616 -0.199521 0.0689683 -0.056116 0.152441 -0.0999044 0.0266539 -0.0152253
影响 -0.0235377 -0.15985 0.128847 -0.076584 -0.133756 0.00880783 -0.192407 -0.0390339 0.168937 -0.113289 -0.000460917 -0.0875159 0.0557706 0.0256766 -0.143729 0.00939514 0.0132234 -0.0189355 -0.0412054 -0.0910889 -0.00928125 0.0739721 0.0542167 3.93731e-06 0.148989 -0.0582236 -0.0163138 -0.0430091 0.0858434 -0.116348 0.205127 0.0767154 0.1341 0.160366 -0.0832321 -0.0522244 -0.147548 0.096586 -0.000156055 0.199044 0.0435566 -0.0761493 -0.215825 0.0854998 0.0148373 -0.126261 0.0249989 -0.0448579 -0.120768 0.233888 0.174152 0.0127956 0.0390119 0.286512 0.10818 -0.204228 0.324769 0.121095 0.12309 -0.0799049 -0.030292 -0.0555693 0.0429465 0.0142292 -0.0159837 0.0457611 0.129245 -0.197641 -0.053803 -0.0131123 -0.0917058 -0.0775733 0.0377182 0.183344 -0.00289583 0.0317508 0.0208601 0.174783 -0.0726685 0.0902733 -0.202251 0.0666785 -0.0737835 0.114543 -0.00568884 0.135202 0.0779931 0.0307244 0.175251 -0.130783 0.0133447 -0.0319574 -0.118309 -0.10738 -0.0130207 -0.0462649 0.112659 -0.0789578 0.020248 -0.0541663
了 0.0532739 -0.222493 0.00395034 -0.0239184 -0.0622576 0.102726 -0.122862 0.0413217 0.149765 -0.0795066 0.0938577 -0.216453 -0.094286 0.084369 0.00946782 0.101909 0.0129196 0.211389 0.17418 -0.148071 0.0266896 0.0879062 -0.00821392 -0.0977464 0.235386 -0.0113206 -0.0873137 -0.157248 0.189982 -0.198673 0.198586 0.0455751 0.0603703 0.0788427 -0.140994 -0.007201 -0.139233 0.0256048 -0.126684 0.206642 0.0123814 -0.0225689 -0.236942 0.26424 -0.128528 -0.0462171 -0.0776739 0.060941 -0.118931 0.225221 0.0793563 0.043537 0.141182 0.150099 0.282145 -0.180349 0.277635 0.181946 0.0895512 -0.218613 0.0486342 0.139852 0.147096 0.0326238 -0.332798 -0.169834 0.101856 -0.150984 -0.133492 0.167632 -0.162567 -0.0490984 -0.00796538 0.25108 0.0007027 -0.0334514 -0.0873425 0.109321 -0.119048 0.127266 -0.185757 0.0976088 -0.161138 0.028699 -0.0557424 0.206225 0.194736 -0.0135087 0.219271 -0.167271 0.0690723 0.1079 -0.225589 0.0620309 -0.109739 0.0289675 0.0704527 0.0604862 -0.0326467 0.0181086
吃 -0.0438128 -0.0181126 0.177495 -0.121236 -0.0985153 -0.0399851 -0.160931 -0.0950578 0.0797084 -0.0971449 0.00030823 -0.0314687 0.108358 0.0369336 -0.250746 -0.131006 0.0194246 0.0444151 -0.188039 -0.088436 0.0544459 -0.0524804 0.0800104 0.0419654 0.116722 0.0271119 0.0867532 -0.126885 0.0783146 -0.0866366 0.215844 -0.0297533 0.191781 0.177454 -0.0259384 -0.0786587 -0.109467 0.124069 0.0392879 0.187582 0.216331 -0.0860953 -0.248081 -0.00970111 0.0587929 -0.143907 0.046928 0.00652161 -0.099914 0.156091 0.308751 -0.111729 -0.0447104 0.250319 0.0858546 -0.26022 0.294636 0.0375155 0.186628 -0.0594761 -0.146378 -0.118218 -0.0255598 -0.0417912 0.123104 0.217184 0.035446 -0.212946 -0.0656671 -0.112303 -0.0904696 -0.143617 0.116995 0.142762 0.0663708 -0.0355613 0.104059 0.168626 0.00758121 0.053577 -0.260121 -0.0294761 0.0289169 0.155185 0.0275916 0.163464 -0.0675493 0.0762331 0.0820283 -0.207479 0.00162173 -0.0261342 -0.0808168 -0.178754 0.0290935 -0.144936 0.141639 -0.15543 0.0218778 -0.147333
男人 0.0154122 -0.13302 0.222126 -0.0906275 -0.138843 0.0673121 -0.143662 -0.0706675 0.171807 0.0122062 -0.017824 -0.0805769 0.0985662 0.0497239 -0.144498 0.0811185 0.158867 -0.0959539 -0.202269 -0.131884 0.0399891 -0.0267198 0.134036 0.0761465 0.0780023 -0.0872607 -0.0112147 -0.126692 -0.00713761 -0.14418 0.234707 -0.0179563 0.128824 0.152259 0.0622323 0.0412203 -0.166149 0.084612 -0.0467316 0.184879 0.0420894 -0.00441592 -0.216001 0.149785 0.00951058 -0.0165268 -0.0399004 0.0363786 -0.095778 0.20273 0.239998 -0.0890523 0.0144635 0.150768 0.235206 -0.12661 0.280154 0.177415 0.193659 -0.0821643 -0.114969 -0.103928 0.0518374 0.0707981 -0.0427859 0.0754951 -0.0737275 -0.181256 -0.00844862 -0.0984861 -0.0537074 -0.125953 -0.0374655 0.190473 0.011893 0.0553973 0.00566247 0.0808747 -0.0294356 0.00206783 -0.0403092 0.0339446 0.00214397 0.1661 -0.0588788 0.220148 0.0606361 0.023863 0.148503 -0.104687 0.0870157 -0.0887142 -0.00262584 -0.0615484 -0.120032 -0.0832875 -0.00825189 -0.0282612 0.0117831 -0.132217
哪 0.0116995 -0.0335725 0.120175 -0.122031 -0.150139 0.0398459 -0.0692126 -0.114055 0.19493 -0.111174 0.0556479 0.000768989 0.0907986 -0.000152524 -0.167604 -0.0770106 0.164553 0.0202084 -0.183944 -0.0257038 0.12156 0.0506423 0.125714 0.0718696 0.0534367 -0.018714 0.0255699 -0.110339 0.00535259 -0.0681818 0.157663 -0.0411227 0.134905 0.117078 0.0181356 0.0926025 -0.077411 0.141823 0.0281261 0.217786 0.191411 -0.0701967 -0.174496 0.0273501 -0.0795935 0.0400147 -0.0160303 -0.0114604 -0.22027 0.174103 0.121839 -0.101196 -0.071102 0.222455 0.150445 -0.280635 0.287716 0.173634 0.155552 -0.0260289 -0.0398986 -0.114419 -0.0620823 -0.0114928 -0.0109039 0.175608 0.0806468 -0.332518 -0.0969022 -0.060447 -0.0682787 -0.127546 0.0715233 0.163722 0.132525 -0.0101162 0.0280344 0.206519 -0.0992002 0.0858461 -0.215022 0.000547508 0.0270142 0.214173 0.0552766 0.245413 0.0687273 -0.0329523 0.0949065 -0.170411 0.122728 -0.0658991 -0.0405234 -0.227536 0.0175248 -0.110371 0.0639314 -0.0981002 0.0955869 -0.121523
感觉 0.0362268 -0.0778797 0.19749 -0.0843201 -0.11339 0.108716 -0.0634326 -0.0873622 0.174907 0.0319201 0.0463015 -0.0635194 0.0784554 0.0589682 -0.115054 0.0772222 0.241827 -0.0435784 -0.215225 -0.11648 0.0938356 -0.0150942 0.136891 0.0640407 0.0414736 -0.0576612 -0.0350124 -0.19833 -0.0293081 -0.110328 0.222862 -0.07777 0.103072 0.0857265 0.0820937 0.120483 -0.119918 0.0964502 -0.0387823 0.166058 0.080372 0.0103316 -0.188913 0.162995 -0.0745175 0.113597 -0.0835702 0.0940297 -0.123507 0.138387 0.17526 -0.135969 -0.0129714 0.0678747 0.282804 -0.161575 0.229394 0.240936 0.151701 -0.0963677 -0.0861568 -0.0865981 0.040104 0.0559234 -0.127719 0.0620398 -0.0970308 -0.228953 -0.0398718 -0.0865098 -0.0532401 -0.166072 -0.0481481 0.163102 0.0566373 0.0308195 -0.0269107 0.0594437 -0.0642726 0.0272323 -0.0191757 0.00221071 0.0340224 0.199891 -0.0321328 0.271501 0.0617353 -0.0138587 0.141469 -0.102804 0.175644 -0.0707505 0.0126651 -0.0726823 -0.158223 -0.102322 -0.0617264 -0.00220097 -0.00287158 -0.114823
能 -0.0840767 0.00749248 -0.0179306 -0.170775 -0.0837681 0.0359535 0.0316279 -0.0971476 0.120161 -0.0629475 0.118985 -0.0136302 -0.071894 0.0398241 -0.0770355 -0.0852186 0.187346 0.253431 -0.0588997 -0.0368192 0.101373 -0.034562 0.0433621 -0.0177347 0.183778 0.0823689 0.0407247 -0.220723 0.172114 0.0542148 0.165093 -0.120281 0.0499092 0.0482279 -0.0145552 0.0968935 0.000128439 0.0471367 0.0522545 0.196111 0.418224 -0.0576547 -0.259532 0.144333 -0.0702373 -0.0253895 -0.0633864 0.111724 -0.107006 0.0794124 0.181608 -0.197121 -0.0620394 0.147318 0.196718 -0.274492 0.30079 0.173668 0.133314 -0.109477 0.0434218 0.0179147 -0.0932821 -0.0814708 -0.168352 0.0687568 0.00908971 -0.240313 -0.209067 0.0480805 -0.128928 -0.207946 0.138203 0.140845 0.171784 -0.140916 -0.0305452 0.182409 -0.146734 0.168909 -0.17754 -0.0139876 -0.0453016 0.0864578 0.136009 0.21642 0.0971408 -0.0162069 0.0440403 -0.166565 0.155405 0.140745 -0.0202704 -0.148284 -0.00709571 -0.12984 0.0620327 -0.0730566 0.0129569 -0.0629524
关于 -0.0200224 0.0644095 0.033957 -0.0898356 -0.0263308 0.0330924 -0.012269 -0.0342857 0.0232573 -0.0748126 0.0989453 -0.0128523 0.000235547 0.0344052 -0.110875 -0.112734 0.121639 0.166271 -0.0924308 -0.070568 0.0932753 -0.00509322 0.0407854 0.00748406 0.0923437 0.10783 0.00766041 -0.181682 0.0574541 0.0211083 0.0928819 -0.0802478 0.0791534 0.0127486 0.00266361 0.0834276 -0.0153912 0.0979072 0.061535 0.0904356 0.279958 -0.108749 -0.158376 0.0277286 -0.111535 0.0796691 -0.0259249 0.101912 -0.133143 0.0242093 0.0770331 -0.140235 -0.0387305 0.0707355 0.117983 -0.250794 0.192558 0.107362 0.0492196 -0.121441 -0.0132835 0.00563734 -0.0469165 -0.0639991 -0.0745633 0.121984 0.0448874 -0.285381 -0.134643 -0.00403535 -0.086778 -0.178701 0.0900597 0.104352 0.111871 -0.0968836 0.0184284 0.150958 -0.0786617 0.106532 -0.196285 -0.0468106 0.0645283 0.0914216 0.0891833 0.195247 0.0155114 -0.00293005 0.0559413 -0.147007 0.0975594 0.0887901 -0.0863417 -0.117404 0.035319 -0.112682 0.0506953 -0.0434698 -0.00749484 -0.0410056
是否 -0.0264383 -0.0223303 0.013288 -0.117173 -0.0775562 -0.00100335 0.0166454 -0.0739583 0.0801627 -0.0557998 0.0644489 -0.0673286 -0.0628199 0.0585486 -0.0796308 -0.0408277 0.137575 0.237264 -0.0462061 -0.0538921 0.0973324 -0.0786095 0.0296444 0.00111257 0.143456 0.0667542 0.077791 -0.209326 0.141811 -0.0755627 0.171292 -0.0762808 0.0675072 0.0635685 -0.00161099 0.0690061 -0.0519101 0.0704674 -0.0315923 0.176249 0.274602 -0.0321267 -0.229104 0.131465 -0.0630319 -0.0542645 -0.0753413 0.0951056 -0.11441 0.113372 0.16885 -0.187766 0.000250407 0.108335 0.19123 -0.19735 0.255943 0.106604 0.155056 -0.0880504 -0.0364531 0.00414507 -0.0293774 -0.0293156 -0.130396 0.0542589 -0.00791505 -0.168464 -0.151715 0.0123711 -0.126685 -0.133842 0.0893668 0.117752 0.123548 -0.120501 -0.00554971 0.138972 -0.0554955 0.0815887 -0.145705 -0.0079809 -0.00275186 0.0604556 0.0390306 0.214632 0.0712186 0.0167044 0.0461344 -0.191565 0.0889776 0.0683519 -0.0428626 -0.0800532 -0.0458897 -0.103987 0.0473788 -0.0546309 0.00788067 -0.0909765
像 -0.040477 -0.0466456 0.0692442 -0.127093 -0.0900203 0.0231508 -0.0448875 -0.0676012 0.111212 -0.0553907 0.0682626 -0.0453042 -0.000509442 0.0392723 -0.114024 -0.0365925 0.129396 0.12895 -0.0737575 -0.0598288 0.0571588 -0.0101862 0.0585272 0.00186093 0.132151 0.0229676 0.0271906 -0.1656 0.0942707 -0.0244111 0.164885 -0.0473722 0.0837587 0.0733558 -0.0110442 0.0511992 -0.0555103 0.0774578 0.0247567 0.182432 0.235977 -0.0578342 -0.212925 0.110403 -0.0483856 -0.032275 -0.0346985 0.0599329 -0.108087 0.127216 0.168177 -0.145775 -0.0247166 0.156544 0.162998 -0.216149 0.283578 0.142545 0.121653 -0.0752758 -0.0155887 -0.0192214 -0.0432312 -0.029007 -0.0851971 0.084864 0.0240088 -0.221333 -0.115602 -0.000800423 -0.0999098 -0.162892 0.0756106 0.134424 0.107661 -0.0683272 -0.00511457 0.152609 -0.0857866 0.0954923 -0.16453 -0.00751945 -0.0127542 0.110207 0.0495397 0.189438 0.0645729 0.00975422 0.0816194 -0.146268 0.0991794 0.0485707 -0.0498618 -0.109321 -0.0283181 -0.115752 0.0651026 -0.0655901 0.0149651 -0.0780609
这么 -0.0229131 -0.103334 0.10398 -0.117394 -0.0981006 0.0161368 -0.0957948 -0.0664599 0.172703 -0.0754015 0.0182702 -0.0726792 0.0120987 0.0247784 -0.125354 0.0071477 0.0864982 0.0593297 -0.055432 -0.0447241 0.00677868 0.02236 0.0438958 0.00437147 0.112649 -0.0279197 0.0141871 -0.100936 0.0814331 -0.0575992 0.167547 0.0109255 0.0979111 0.100277 -0.0423077 0.0235946 -0.102774 0.0821764 -0.00327268 0.181212 0.139458 -0.0445662 -0.184399 0.111886 -0.0223139 -0.0776019 -0.0311841 -0.0102912 -0.10625 0.18319 0.174452 -0.0842703 -0.000594133 0.208032 0.142946 -0.185819 0.290097 0.134314 0.128438 -0.0442553 -0.0252546 -0.0457781 -0.000416376 0.0117629 -0.0547314 0.0565411 0.0483967 -0.182572 -0.0696946 -0.000360495 -0.0893489 -0.111464 0.0373754 0.147121 0.0496332 -0.0198194 0.0048013 0.136345 -0.0820146 0.0740496 -0.127806 0.0155538 -0.0476804 0.11307 0.017596 0.156398 0.0736691 0.00219978 0.13109 -0.123893 0.0589323 -0.0118808 -0.0487399 -0.102893 -0.0411219 -0.0786694 0.0716065 -0.0622561 0.0253563 -0.0656425
类 -0.0345853 -0.0444178 0.0718523 -0.111601 -0.092486 0.0484628 -0.0701684 -0.0302359 0.125675 -0.0683846 0.0707298 -0.00827854 -5.07108e-05 0.0419103 -0.119869 -0.0291628 0.124512 0.107383 -0.0783619 -0.067691 0.0400077 0.0279954 0.0506326 -0.0103242 0.142709 0.0151812 0.00466033 -0.139483 0.101691 -0.0190989 0.182284 -0.0275333 0.0853328 0.0946169 -0.0169203 0.0558029 -0.0519715 0.0610584 0.0365245 0.168251 0.237077 -0.0661879 -0.20944 0.113223 -0.0244515 -0.00959443 -0.0347837 0.0464103 -0.118414 0.0867687 0.166689 -0.0903529 -0.028033 0.191304 0.140882 -0.226898 0.29132 0.141995 0.104982 -0.101128 0.0136036 -0.0253253 -0.0384708 -0.0262098 -0.0880035 0.0757113 0.0463276 -0.233519 -0.122293 0.0128494 -0.101112 -0.168567 0.0821679 0.141409 0.087781 -0.0555764 0.00116295 0.164603 -0.116877 0.11653 -0.140369 0.00539834 -0.0262557 0.103063 0.0880232 0.17421 0.067298 -0.00116049 0.0978409 -0.124088 0.103667 0.0499134 -0.0470591 -0.120203 -0.00962209 -0.0856438 0.0736931 -0.0728457 -0.00666354 -0.044324
淘宝 -0.0138928 -0.0562191 0.00278456 -0.0587493 -0.0797652 0.0219256 -0.01641 -0.0179562 0.117723 -0.0751467 0.0363015 -0.0174267 -0.0312926 0.0181432 -0.0501249 -0.00135011 0.07384 0.118841 0.00631839 -0.00783536 0.0272254 0.0280599 0.00174827 -0.0345938 0.10941 0.00687627 0.0162695 -0.0747138 0.104367 -0.0558099 0.118232 -0.000560358 0.0167685 0.0665396 -0.032375 0.0333281 -0.0199609 0.0388553 -0.00506931 0.117724 0.129694 -0.0291688 -0.139382 0.101525 -0.0342038 -0.0223874 -0.0456622 0.0149803 -0.110734 0.0768515 0.0734202 -0.0455975 0.000971538 0.142739 0.0885612 -0.15514 0.184637 0.0869163 0.0819206 -0.050967 0.020244 -0.00460222 -0.00968365 -0.0177732 -0.09454 -0.00455306 0.0741651 -0.119335 -0.107767 0.0480757 -0.0850891 -0.0779443 0.0499465 0.0830889 0.0661524 -0.037115 -0.0135903 0.108812 -0.0797988 0.0869546 -0.0973437 0.0235205 -0.0486709 0.0577017 0.0487873 0.122591 0.083527 -0.00686049 0.0784361 -0.0869527 0.0715521 0.0361755 -0.0413058 -0.0820478 -0.0174143 -0.0135772 0.0540992 -0.0480216 -0.00555752 -0.0121064
学 0.0282122 -0.152869 0.132484 -0.0659804 -0.164119 0.089232 -0.117764 -0.0248988 0.197815 -0.0376501 0.0258426 -0.0746999 0.0238946 0.0642302 -0.0896214 0.105932 0.157907 0.0106156 -0.12369 -0.135218 0.0629947 0.0277915 0.0986859 0.0186662 0.134744 -0.0799769 -0.0277805 -0.141908 0.0751805 -0.179435 0.265046 -0.0117661 0.0976802 0.131806 0.0351968 0.0563705 -0.129923 0.0644906 -0.0755921 0.206264 0.0587604 -0.00532495 -0.241062 0.212783 -0.0222389 0.0204072 -0.0735245 0.0565822 -0.155334 0.189846 0.181594 -0.0588016 0.0414802 0.178109 0.260002 -0.164317 0.308231 0.206543 0.176328 -0.132213 -0.0333458 -0.0603204 0.0813839 0.0410546 -0.156107 -0.0036475 0.00406359 -0.216384 -0.0896173 -0.0336638 -0.103438 -0.138786 -0.0103048 0.197782 0.0495528 0.023834 -0.0210072 0.109265 -0.0928325 0.0763137 -0.0714285 0.0533316 -0.0343637 0.146921 -0.007561 0.251216 0.13722 -0.00784739 0.163642 -0.115213 0.133288 -0.0360096 -0.0393406 -0.0643635 -0.112835 -0.0295075 0.00540953 -0.0333185 -0.00203018 -0.0698254
容易 -0.0324298 -0.0669599 0.109664 -0.109984 -0.112344 0.0198655 -0.0812632 -0.0801519 0.134754 -0.00909596 0.0111231 -0.0387442 0.0528859 0.0458424 -0.124166 -0.0129939 0.123497 0.027497 -0.131758 -0.0739653 0.0572903 -0.0467194 0.0875187 0.0295764 0.0998661 -0.0321157 0.0558854 -0.12994 0.0509024 -0.0773295 0.196204 -0.0376721 0.092175 0.131623 0.0288862 0.0229443 -0.0822938 0.0580723 -0.00815042 0.189949 0.174442 -0.00110654 -0.211618 0.0972029 0.0286262 -0.0867363 -0.0205131 0.035886 -0.071683 0.153508 0.219213 -0.121289 -0.0213404 0.175097 0.166385 -0.142625 0.264849 0.127663 0.187252 -0.0345984 -0.069268 -0.0734248 -0.0448347 0.00747081 -0.000787745 0.0977911 -0.0363822 -0.144289 -0.0583364 -0.0576089 -0.0674905 -0.112135 0.0541782 0.123452 0.0768908 -0.0195031 0.0159088 0.103356 -0.0498689 0.0455725 -0.0883427 -9.27135e-05 -0.0303086 0.113505 0.0145068 0.171012 0.0405265 0.0149766 0.0738205 -0.137382 0.0711701 -0.0365079 0.00554913 -0.0942564 -0.0536902 -0.101792 0.0478321 -0.0696337 0.0182381 -0.124245
呢 0.0417579 -0.113145 0.00842619 -0.0471768 -0.144585 0.0350891 -0.0123353 -0.0237021 0.15458 -0.0784746 0.0497788 -0.0684937 -0.0355805 0.0751339 -0.0467526 0.040064 0.131403 0.209012 0.00984263 -0.0193288 0.0639499 0.0199313 -0.00101673 -0.0489881 0.171316 -0.00860415 0.0442927 -0.126814 0.172794 -0.188875 0.196879 -0.014408 0.0175634 0.109915 -0.014395 0.0528793 -0.0576307 0.0617258 -0.0597528 0.172332 0.128754 0.00853401 -0.238826 0.195567 -0.0722097 -0.0315349 -0.106687 0.0314512 -0.156755 0.130899 0.110365 -0.0629939 0.0534306 0.162954 0.185957 -0.185005 0.260365 0.115603 0.144378 -0.0830825 -0.00499883 -0.00591765 0.0499519 0.00184373 -0.195477 -0.0467116 0.0707899 -0.130245 -0.171742 0.0903648 -0.118991 -0.0795127 0.0448721 0.130129 0.0947475 -0.0465656 -0.0220908 0.131327 -0.0967208 0.0969585 -0.122072 0.04257 -0.0696572 0.0845943 0.00941854 0.219172 0.124377 -0.000854354 0.146984 -0.17501 0.106574 0.0308741 -0.0484002 -0.0591193 -0.0708642 0.0201662 0.0583256 -0.0492858 -0.0452784 -0.0241456
如果 0.0660715 -0.136292 0.0942856 -0.0328486 -0.108265 0.0253256 -0.106183 -0.0210127 0.207779 -0.172318 0.01819 -0.088811 0.00235836 0.0245259 -0.108946 0.0580037 0.0773638 0.0534762 -0.0164549 -0.0245847 0.0243023 0.147609 0.0241316 -0.0164091 0.0855468 -0.034234 -0.0716861 -0.0686872 0.0806508 -0.150965 0.150947 0.0795897 0.0990425 0.0717096 -0.0816218 0.0539378 -0.128692 0.155563 -0.0323445 0.130224 -0.0220362 -0.062966 -0.143808 0.117225 -0.127611 0.0627064 -0.054202 -0.058205 -0.2419 0.182126 0.0289615 0.0147237 0.0630186 0.212167 0.143118 -0.233394 0.254109 0.174572 0.0448105 -0.0745122 0.00399132 -0.0476042 0.117978 0.0306759 -0.150326 -0.0242362 0.176922 -0.263763 -0.099521 0.0323214 -0.102892 -0.0770236 -0.0268202 0.166759 0.00887296 0.0172176 -0.0016346 0.156542 -0.112995 0.111271 -0.173046 0.0449178 -0.00416605 0.171333 -0.0235492 0.206073 0.132884 -0.0366792 0.230267 -0.117554 0.0926947 -0.0390274 -0.125222 -0.105144 -0.0494334 0.0272784 0.0560885 -0.0493235 0.0256026 0.020416
那么 0.0128044 -0.068722 0.0660105 -0.0535754 -0.103473 0.0522927 -0.0346514 -0.040554 0.123798 -0.0371978 0.0305244 -0.0469709 -0.00671326 0.0448739 -0.0634637 0.0362513 0.13506 0.111779 -0.0718938 -0.0645293 0.0534342 -0.0109147 0.0367835 0.0015862 0.109486 -0.00860554 0.0233233 -0.135239 0.0884934 -0.128018 0.179665 -0.0391386 0.0484265 0.0794784 0.0224089 0.0590295 -0.0680708 0.052902 -0.0424797 0.145157 0.119416 -0.00499847 -0.191447 0.15074 -0.048065 0.000986328 -0.0795559 0.0615718 -0.115316 0.112518 0.129235 -0.0990691 0.0198136 0.10508 0.18027 -0.147579 0.206448 0.126946 0.134286 -0.0852393 -0.0370226 -0.0324569 0.0363119 0.00822169 -0.130154 0.0115397 -0.00665272 -0.138714 -0.104194 0.00569984 -0.094019 -0.107397 0.015982 0.114441 0.0623696 -0.0255472 -0.0140316 0.0891849 -0.0564933 0.0697106 -0.0665272 0.0191466 -0.0172526 0.0846703 0.00884862 0.199344 0.0807767 0.00218474 0.110971 -0.119362 0.0985069 0.0028703 -0.0201554 -0.0530386 -0.0798463 -0.025936 0.0179905 -0.0296915 -0.0254899 -0.0522239
天 0.0432674 -0.159353 0.158412 -0.0968478 -0.11036 0.143275 -0.143177 0.00609242 0.227579 -0.0694254 0.0894308 -0.0834476 0.0591451 0.0604445 -0.115819 0.0788878 0.174436 -0.0104661 -0.039504 -0.0965402 0.0319157 0.154926 0.0981269 -0.0285716 0.142991 -0.0890856 -0.11336 -0.125409 0.0598961 -0.089554 0.22816 0.0227324 0.0796301 0.132439 -0.0529656 0.0957234 -0.130345 0.0818175 -0.0105521 0.23273 0.0900391 -0.0510999 -0.222492 0.191687 -0.0871387 0.0810058 -0.0618491 0.0321265 -0.164311 0.15693 0.13171 0.00167914 0.00575956 0.234721 0.240398 -0.220873 0.342669 0.260456 0.0828057 -0.120351 0.0359357 -0.0276083 0.00060069 0.0448459 -0.184743 0.00369239 0.0870461 -0.285077 -0.0819196 0.0395018 -0.0867209 -0.143577 0.00227632 0.237276 0.0561286 0.0520481 -0.0685554 0.1617 -0.178244 0.133381 -0.107982 0.0610874 -0.0990626 0.190936 0.0391198 0.22609 0.137063 -0.043709 0.243465 -0.106702 0.177271 0.0100058 -0.0819774 -0.10663 -0.0966389 -0.0615677 0.0399981 -0.00846237 -0.0272078 -0.0143127
没 -0.054986 0.0170645 0.190946 -0.156799 -0.0276146 -0.0418689 -0.0943549 -0.106429 0.0950428 -0.146639 0.056539 -0.0107788 0.115635 0.0558305 -0.306552 -0.17183 0.0601856 0.221655 -0.0824528 0.0202377 -0.0123256 -0.00107807 -0.0279523 -0.0620332 0.162473 0.108383 0.0721861 -0.168838 0.151028 -0.0106917 0.219574 0.0185696 0.117312 0.189872 -0.135386 -0.0512944 -0.0641258 0.124481 0.131713 0.209909 0.416293 -0.0914505 -0.23858 0.0189689 0.0150183 -0.161003 0.00117603 -0.0198687 -0.11321 0.0409505 0.355914 -0.140128 -0.106026 0.273889 0.0874551 -0.315046 0.340561 0.0279932 0.159977 -0.0275505 -0.10008 -0.0827729 -0.111643 -0.0515975 0.0621353 0.246893 0.0783508 -0.203946 -0.116841 -0.00452799 -0.113117 -0.225263 0.160344 0.10494 0.0407006 -0.113291 0.0368055 0.206061 -0.0605618 0.148869 -0.254603 -0.057354 -0.0211047 0.139794 0.128489 0.173486 -0.113227 0.033611 0.193499 -0.209377 -0.00064534 0.0412798 -0.0214127 -0.2154 0.00491075 -0.193195 0.183519 -0.164801 -0.0791227 -0.0557037
时 0.013007 -0.0571763 0.157754 -0.110505 -0.0608274 0.0876234 -0.104191 -0.0043772 0.143972 -0.100941 0.0928418 -0.0269944 0.0620862 0.0769754 -0.174183 -0.0301919 0.142829 0.119259 -0.0525738 -0.0631468 0.0220728 0.0825033 0.0364516 -0.063628 0.160795 0.0157331 -0.0431871 -0.157324 0.110945 -0.0462458 0.241045 -0.00256412 0.0835221 0.148737 -0.0722695 0.0438551 -0.0784796 0.0795079 0.0547849 0.1892 0.26919 -0.0690948 -0.239361 0.145154 -0.0609732 0.0140745 -0.048246 0.0458557 -0.148812 0.0432364 0.217259 -0.0525078 -0.0382635 0.233755 0.186119 -0.270725 0.33464 0.168174 0.0946048 -0.10775 0.00193751 -0.0333641 -0.0564953 -1.90269e-05 -0.116178 0.101239 0.0827238 -0.258305 -0.120925 0.0328263 -0.0950349 -0.196157 0.0744407 0.177249 0.0715419 -0.0246551 -0.037819 0.17857 -0.149007 0.151424 -0.150395 -0.00688097 -0.074578 0.156672 0.116843 0.209933 0.0199825 -0.0205207 0.220968 -0.141335 0.118562 0.0601973 -0.0492836 -0.140925 -0.0454356 -0.104008 0.0856483 -0.0672479 -0.0713383 0.00348689
这 0.00686395 -0.0381703 0.0314859 -0.0741521 -0.115316 0.0677686 -0.035245 -0.0155262 0.122556 -0.0960927 0.0836188 -0.0294363 -0.0357342 0.0424161 -0.0709184 -0.00119346 0.154489 0.130737 -0.0781702 -0.0888932 0.0894212 0.0419293 0.0677617 0.00546075 0.120359 0.0311081 -0.0279918 -0.151256 0.100306 -0.0667376 0.148836 -0.0473236 0.0773471 0.0442939 0.0219115 0.109927 -0.0606143 0.0884326 -0.0115015 0.138416 0.190094 -0.0832305 -0.189828 0.134115 -0.105308 0.104851 -0.0708351 0.0739756 -0.175901 0.102046 0.0727356 -0.083933 0.0125066 0.115662 0.17583 -0.243701 0.252053 0.172913 0.0744112 -0.143601 0.021312 -0.00196077 0.034022 -0.0221723 -0.177983 0.0239914 0.0601915 -0.298466 -0.167004 0.0287102 -0.11207 -0.164447 0.060414 0.167207 0.106576 -0.0535009 -0.0154196 0.174423 -0.130259 0.126576 -0.167203 0.0186609 0.0292078 0.112226 0.0727241 0.242189 0.141193 -0.027011 0.106234 -0.141715 0.13491 0.0476636 -0.0776489 -0.107584 -0.0105062 -0.0496842 0.024491 -0.0391136 0.0178024 -0.0336898
太 0.0303173 -0.118171 -0.0155448 -0.0151824 -0.0996939 0.132968 -0.00716295 0.0438235 0.124923 0.0148365 0.0815255 -0.0628864 -0.109311 0.0880561 0.0646475 0.147112 0.178638 0.132204 -0.0127603 -0.140355 0.0850795 0.0235554 0.0523002 -0.0368481 0.15185 -0.0246112 -0.0582443 -0.179733 0.122687 -0.124556 0.208577 -0.0645216 0.000386476 0.0313301 0.0633472 0.118188 -0.0516546 -0.0183169 -0.119523 0.13391 0.0749993 0.0238845 -0.198133 0.281932 -0.0815683 0.103396 -0.136512 0.15591 -0.112362 0.0753729 0.0581085 -0.0630652 0.0723037 0.0323302 0.283687 -0.0836293 0.201866 0.21668 0.0915599 -0.187207 0.0808301 0.0705503 0.0836683 0.017879 -0.32691 -0.13138 -0.0358276 -0.144392 -0.143282 0.0628874 -0.118219 -0.124944 -0.0171436 0.150535 0.0787693 -0.0231458 -0.0795398 0.0533225 -0.129655 0.0952606 0.0174758 0.0580486 -0.0629018 0.0556073 0.0203853 0.226101 0.195605 -0.0425422 0.10161 -0.0661606 0.183127 0.0870735 -0.0395834 0.039389 -0.142899 0.0134746 -0.0577689 0.0504201 -0.0404816 0.00616758
这样 0.0121738 -0.0998756 0.100685 -0.0698278 -0.145595 0.0653228 -0.0502718 -0.0585793 0.151447 -0.0020382 0.0173363 -0.0688028 0.00126445 0.0766121 -0.0662787 0.074979 0.183826 0.0701657 -0.161777 -0.123094 0.100281 -0.0679169 0.102562 0.0399186 0.116571 -0.028445 0.0490873 -0.191517 0.0718272 -0.174764 0.257608 -0.0813237 0.0832291 0.109605 0.0792977 0.0810665 -0.10884 0.0563261 -0.102193 0.183219 0.112971 0.0158693 -0.249006 0.19461 -0.0349464 0.00314891 -0.0996969 0.117078 -0.127496 0.16127 0.196198 -0.148767 0.0356198 0.114348 0.267109 -0.140224 0.253825 0.178901 0.210498 -0.105726 -0.065094 -0.0473512 0.0574565 0.0310331 -0.144654 0.0217295 -0.0740599 -0.15895 -0.095116 -0.0639508 -0.0979321 -0.130641 0.000677718 0.14474 0.0932869 -0.013389 0.00520119 0.0788815 -0.0452469 0.0286824 -0.0407591 0.0246619 -0.00987173 0.133501 -0.017965 0.256564 0.099045 0.00318749 0.096361 -0.155346 0.133522 -0.0255622 -0.00501429 -0.0397118 -0.134445 -0.0565387 -0.0258155 -0.0271251 -0.00055235 -0.118106
