185 100
如何 0.00458385 -0.00112348 -0.000197408 -0.00292627 0.0022126 -0.00197787 0.00448298 -0.00476286 0.00260764 -0.00223854 0.00406176 0.00302273 0.00189783 0.00092914 0.000284837 7.49201e-05 0.000351427 0.00164614 0.00315664 0.00479595 0.00132441 0.00249817 -0.0038675 0.0006374 -0.00446655 0.00131394 0.00184087 -0.00445227 -0.000313885 0.00250848 0.0019764 -0.00069042 -0.00241924 -0.00416329 -0.00316331 -0.000963237 0.0041066 -0.00491433 -0.00146226 0.00163364 0.00468401 0.00400008 0.0042023 -0.00243613 -0.00237467 0.00458188 -0.00262701 -0.00346223 -0.00346111 -0.00373374 -0.00489994 0.00266519 -0.00182901 -7.27699e-05 0.0022514 0.000315553 -0.000325686 0.00276781 -0.00232265 0.00291164 0.00453207 0.00168287 -0.00399937 0.00282744 -0.000577824 -0.00351287 0.00323919 -0.000304529 2.42203e-05 -0.00343518 0.00216944 0.0026444 -0.00366931 5.6944e-05 0.00488575 0.00433528 -0.00475913 -0.000616091 -0.00348706 0.000316103 0.00402234 -0.00492051 -0.00252234 0.00268526 0.00390271 0.00314265 0.00303752 -0.00222468 0.00482408 -0.00182078 -0.001125 -0.00305994 0.00468967 -0.00112111 0.00101606 0.00146576 -0.00351468 0.00375689 0.00194486 0.00376008
得 -0.00380999 -0.00228057 0.00117665 0.00278576 0.00336622 -0.0048276 -0.00422781 0.00186108 0.000379648 0.00259149 0.00301744 0.00333574 0.00464301 -0.000485834 -0.00308093 -0.00395859 -0.00490786 -0.0017736 -0.000456398 -0.00445755 -0.00408915 -0.00267986 -0.00256729 -0.000646463 -7.66894e-05 0.0040991 -0.000600095 -0.000951535 0.00491878 0.00408582 0.00201235 -0.00399996 -0.00404629 0.00344522 -0.00356222 -0.00215505 0.00222809 0.00317517 -0.00233396 0.00111807 0.00328659 -0.00224738 -0.00231462 0.000361739 0.00267266 0.00277892 -0.000169139 0.00241946 -0.00125731 0.0049856 -0.00261338 0.000249712 -0.00387621 0.00189517 0.00153308 0.000659906 -0.00233682 -0.00345985 -0.00273812 -0.00490118 6.24086e-05 -0.00184822 0.0048531 0.00016899 -0.00302424 0.00311232 0.00446111 -0.00474301 -0.00341546 0.00422693 0.000237893 0.00230113 0.000247094 0.000706996 0.00107257 0.00115987 -0.00149319 0.00321906 -0.002879 0.00103453 -0.00253596 -0.000116592 0.00443984 0.00424406 -0.00402963 0.00133095 -0.00272253 0.000385657 -0.00165975 0.00113453 0.00255981 0.00121893 -0.00276196 -0.000364035 -0.000450305 -0.00410217 0.00104331 0.00454406 -0.00334449 0.00486167
别人 -0.00264477 0.000460846 0.00184511 -0.00258948 -0.00168379 0.0037502 0.00173938 -0.00490479 0.000650202 0.000124051 0.000659445 0.00305967 0.00422324 0.00175446 0.00328483 0.00450041 -0.00494439 -0.000644077 -0.00459747 0.0018998 -0.0030263 0.00493994 -0.000329759 0.00399793 -0.00161249 0.000181747 0.00305983 -0.000391839 -0.0020449 0.00116702 -0.00484738 0.000338495 -1.7735e-05 0.000806613 0.0037035 -0.00204776 0.000232065 -9.1743e-05 -0.0038695 0.00455284 -0.00496209 0.00317593 0.00162505 0.0028492 0.0008796 -0.00185297 0.00368167 0.00396203 -0.00118243 -0.00160349 0.00448327 0.000788308 0.000126221 -0.00300851 -0.00286447 -0.00385265 -0.00253124 -0.00228789 -0.00111362 -0.00385064 -0.00473631 -0.00350093 0.00399098 -0.00148333 0.00228256 0.000957669 -0.0039198 0.000591587 0.00459116 -0.00323565 -0.000350623 0.00144151 0.000665278 -0.00440314 -0.00274581 -0.000645703 0.000672333 0.00182689 -8.24353e-05 -0.000821297 0.00341736 -0.00132069 0.00281177 -0.00163361 -0.0043769 0.00165078 -0.00288799 -0.00444826 0.003301 0.0048328 0.000494691 0.000742074 -0.000512774 -0.00174746 -0.00187178 0.003763 -0.00267858 -0.000193369 0.000847483 0.00497643
一 -0.00338024 -0.00295345 0.00170478 0.00353713 0.00321508 0.0045983 0.00153002 -0.00407019 0.00333197 -0.00136017 0.00185938 -0.00143322 -0.00300335 -0.00245687 -1.64527e-06 0.00389756 -0.00134698 -0.00460208 0.00342176 0.00242553 0.0016615 0.0028121 -0.0019007 0.00466351 -0.00324662 -0.00316838 -0.00474768 0.00063848 -0.00372755 -0.00437092 0.00227452 -0.000559205 0.00288776 -0.00183384 0.00262369 0.00328832 -0.00377532 0.0049408 -0.00441326 0.00404443 0.00241326 -5.94729e-05 0.000480112 -0.00239934 0.00444788 -0.00290716 0.00214541 -0.00165537 -0.00411852 0.00450778 -0.00162014 -0.000244521 0.00319649 0.00244197 0.00459621 0.00108194 -0.00420627 0.00478274 0.00253039 0.000588487 0.00166246 0.00152853 0.00400036 -0.00200081 -0.00287302 0.00404179 -0.00256118 -0.00253793 0.00346671 0.00390077 0.00271573 0.000495258 -0.0026794 -0.00355138 -0.00307376 -0.00158464 -0.0032171 0.00260463 -0.00475961 0.00368297 -0.000458281 -0.00309629 0.0030054 0.00226595 -0.000691089 0.00436163 0.00492449 0.00142869 0.000478879 0.00283638 0.00247036 -0.00430631 -0.0015257 0.000831326 -0.00353047 0.00360491 -0.00179048 0.0032559 0.00368047 -0.00403851
的 0.0020622 -0.00280475 0.00335112 0.00288074 -0.00480931 -0.000188346 0.00164413 0.00191264 0.00298834 -0.000774815 0.00279569 -0.000554321 0.000371113 0.000269008 -0.00441603 0.00224732 0.00179752 0.00332162 0.000610978 -0.000261632 -0.000274232 0.00430573 -0.000849602 -0.00362203 0.0026117 0.000666744 -0.00277316 -0.00432913 0.00165931 -0.00397831 0.000551523 0.00182095 -0.00356662 0.00473551 0.0001737 0.000714057 0.00110024 0.00224864 0.00318742 0.00432229 0.00192544 0.00108675 -0.00495608 0.00462456 0.00426361 9.29897e-05 -0.00458658 -0.000741697 -0.00477992 -0.00118295 0.00437649 -0.00274886 -0.00141032 0.000814968 0.00129451 -0.0019372 0.00452724 -0.00174986 0.00411456 -0.00153604 -0.00293396 -0.00441603 0.00289605 -0.0024549 -0.00375529 -0.00375117 0.000633931 -0.00467885 -0.00405866 0.00348924 -0.00371158 -0.0048605 0.00251915 0.0032139 0.00121881 -0.00355408 -0.00342827 0.000853904 0.00225817 0.00364976 0.00092007 0.00451996 0.00425697 0.00426968 -0.00193138 0.00422573 0.00210109 0.00134331 0.00362344 -0.00119107 0.00349808 0.000106719 0.0039473 -0.00357246 -0.00457524 0.0029788 0.00389484 -0.00441168 -0.00490824 0.000697254
？ -0.00106843 0.00306483 -0.000819741 -0.00457781 -0.00301572 0.00403416 -0.00281914 -0.000385762 0.00104631 -0.000130612 0.000615439 -0.000208405 -0.00162968 0.0015576 0.00287032 -0.00205289 0.00283443 0.00302294 -0.00447836 -0.0025281 0.00381921 -0.00395189 0.00403238 0.000448624 0.00343802 -0.000114369 0.00414219 -0.00192323 0.000730782 -0.00129317 0.00312372 -0.00472996 0.0047674 0.00048687 0.00180496 0.00152644 -0.00158701 -0.00156392 -5.69621e-05 0.000881456 0.00454736 -0.00167912 -0.0049648 0.00221814 -0.00354979 0.00126986 0.000512314 0.00411795 0.000496528 0.00120796 0.00397252 -0.00357791 1.11622e-05 0.00234946 0.00452429 -0.0047809 0.00422863 0.00425665 0.00237176 -0.00432196 0.00123283 0.00405615 -0.00118228 0.000653615 -0.00203689 0.00411251 -0.00116771 -0.00434395 -0.00175435 -0.00153585 -0.00110773 -0.00170355 0.00397797 0.00279014 0.00405719 -0.000786989 0.00140691 0.002814 -0.00334376 0.000259833 -0.00387656 -0.00059402 -0.00478936 -0.00168838 0.00275397 0.00183336 -5.11735e-05 0.00194042 -0.00207505 -0.0048226 0.000805025 0.00436987 -0.00240764 -0.000542437 0.00479033 -0.0039355 -0.000302066 -0.00037768 0.0014751 -0.00298843
你 0.00429352 -0.00184237 0.00215309 -0.000947954 0.00122999 -0.000945256 -0.00265259 -0.00132206 0.00227803 -0.0017708 -0.001193 0.00295489 0.00432842 -0.0022532 -0.00471143 0.00194432 -0.00217889 -0.00387758 0.00315737 -0.00142431 -0.00070001 0.00253941 0.00261637 -0.00471764 -0.00203671 -0.000269489 -0.00124803 0.0011241 9.54902e-06 0.00191577 0.00454581 0.00456544 0.00338756 0.0036858 -0.000730132 -0.00394705 0.00437298 -0.00320214 0.00358417 -0.00280505 -0.00467281 -0.00211222 0.00160012 -0.00370716 -0.0028735 0.00439752 0.00420643 0.00382858 -0.00159395 -0.00301788 0.00227543 0.00313198 -0.00407469 0.00119725 -0.00337415 -0.00154558 -0.00312088 0.000237662 0.0023305 -0.0027404 -0.0015259 -0.00224533 -0.00204223 -0.000282895 0.00183635 0.000340256 0.00149356 -0.00423201 -0.00260295 -0.00365663 0.000851609 0.00103205 -0.00258371 0.000324944 -0.000383502 0.00363779 -0.00115971 0.00206162 -0.00155244 7.87041e-05 -0.00151181 0.00138418 -0.00346397 0.00239484 0.00433319 -0.00180531 -0.00333592 0.00225444 0.00215628 -0.000279081 -0.00165537 -0.00475568 -0.00394692 -0.00220684 0.00308928 -9.37513e-05 0.00247914 -0.00195429 0.000928834 0.00372231
哪些 -0.00403002 -0.00222571 -0.00251496 0.00487532 0.00269789 -0.00443099 0.00226502 0.00103719 -0.000510548 -0.00366686 -0.00419498 -0.000754071 -0.0047244 0.00284503 -0.000339425 -0.000566464 -0.00464731 0.00434466 -0.00308448 0.00156458 7.41596e-05 -0.00174325 -0.00159376 -0.000723656 0.00272192 0.00438341 0.00367099 -8.40853e-05 0.00495921 -0.000873432 0.000161978 0.00499581 0.00398203 -0.00109037 -0.00219981 -0.00426707 -0.00151365 -0.00277141 -0.00309886 0.000466529 0.00483825 -0.000150652 0.00294901 0.00137437 -0.000941788 -0.00113438 0.00498637 -0.00250179 -0.00105474 0.000281765 0.00476443 0.00372512 -0.00178069 0.00124301 0.0018079 0.00432139 0.000290711 -0.00283772 -0.00459211 0.000663932 0.00485886 0.001505 -0.000124936 -0.00429016 0.00359095 0.00185794 0.00142709 0.00220653 -0.000682084 -0.00178825 -0.0041718 -0.00484494 -0.00275177 5.03922e-05 0.000679391 -0.00145243 0.00131573 6.92083e-05 -0.00217883 -0.000158209 -0.00473288 0.00349274 -0.00151214 0.0015833 0.00292983 -0.00190449 0.000161696 -0.00435098 -0.00358302 -0.000228858 0.000607869 0.00211362 -0.00165867 -0.0040898 -0.00445014 -0.0021021 0.00211471 -0.00474922 0.00213904 8.75373e-05
为什么 0.000152847 0.00128978 0.000630312 0.00462097 0.00431849 0.00134565 0.00445582 0.000511785 -0.00018078 -0.00208754 0.00188512 -0.00284506 -0.000939095 -0.00311376 0.00295066 0.0026113 0.00317199 0.00116042 0.00108216 -0.00382929 -0.00278646 0.00417346 -0.000234921 9.41775e-05 -0.00101359 0.000526184 -0.00220749 -0.000540859 -0.00161068 0.00105558 0.00105155 0.00336875 0.00135681 -0.00135032 0.00163182 0.000608885 0.00181269 -0.00156628 0.000586474 0.00430431 0.00255454 -0.000791429 0.000792459 0.00106928 0.00381674 0.000203024 -0.000390257 0.00348945 -0.00490176 0.000969166 0.00179054 -0.00451942 -0.00444043 -0.00281542 0.000198052 0.00362727 0.00463213 0.00293812 0.00333424 0.00061485 0.00225718 0.00034724 -0.000875827 -0.00350783 -0.00109867 -0.00165825 0.00137586 -0.00274981 0.00258447 -0.00134528 0.000900653 -0.000969974 -0.00271274 0.00183486 0.00136258 0.000748508 0.000696942 -0.00221631 0.00445019 0.00250032 0.000164449 -0.00408967 -0.00441051 -0.0028778 -0.000148497 -0.00472569 0.00146502 -0.0012015 -0.00118889 -0.00485524 5.76598e-05 -0.00135448 -0.00249099 0.00120553 -0.00100054 0.00339887 -0.0038607 0.00290172 0.00117408 -0.000296175
时候 -0.00147675 -0.000648647 -0.00243474 -0.00119006 -0.00175279 0.00154678 -0.00499857 0.00073278 -0.0019253 0.00354978 0.00229706 -0.00321796 0.00202272 -0.00380808 0.0031059 -0.000532359 0.00317143 -0.00165839 -0.0013669 -0.00160825 -0.00418749 -0.00461191 0.00282032 -0.00141232 0.00251449 0.00422645 -0.00098291 -0.00413365 0.000681982 0.00404248 -0.00278831 0.00278582 -0.00324007 -0.000204393 0.00128507 0.000582467 0.00291949 -0.00272792 0.000756236 0.00110165 0.00193622 -0.00214792 -0.00484799 -0.00184789 -0.00357447 0.000825258 -0.0048208 -0.00384372 0.00117907 -0.000595993 -0.0019538 0.00462504 0.000700387 0.00471938 -0.000230153 0.00462866 0.003784 0.000496711 0.0036744 0.00386887 -0.00339242 -0.00484583 0.00445415 -0.00379145 0.000459797 -0.00187468 0.00322051 -0.00223256 -0.000502871 -0.00435467 0.00157547 -0.00420299 0.00364292 0.00281008 0.00218115 0.00256676 -0.00271659 -0.000438975 0.00366441 0.00496805 -0.00249283 -0.00276899 -0.00465223 -0.00482395 0.000920005 0.00383169 -0.00140581 0.000932767 0.00200171 -0.00134919 0.000694259 0.00440928 0.000561983 -0.00173962 -0.00183209 0.00233878 0.00116704 0.00455773 -0.00241826 -0.00455561
男生 -0.000466527 -0.00242343 0.00181704 1.43571e-05 -0.00298992 -0.00421544 -0.000354817 8.34059e-05 0.00376611 -0.00167255 -0.00489044 -0.00126803 0.0048659 -0.00317946 -0.00121053 -0.00336072 0.000830985 -0.00387133 -0.00303602 0.00372786 -0.00372364 -0.00433305 -0.00219504 -0.00375918 -0.00106221 0.00198736 -0.00171608 -0.00357794 0.000949088 0.00484931 -0.000178514 -0.00397596 0.00256939 -0.00163456 0.00162556 0.0026216 0.00300414 -0.00114366 -0.00226375 0.0026322 -0.00239244 -0.00307904 -0.00424033 0.00112532 0.000100746 0.000983087 0.00259561 0.0031354 0.00248967 0.00374824 -0.00230983 -0.00286235 -0.000977939 -0.00390943 0.00494981 -0.00478166 -0.00206086 0.00255966 0.00196784 -0.000716379 -0.00254218 0.00205536 0.00289069 0.000161385 0.00123658 -0.00277959 0.00307438 -0.00213358 0.00363665 -0.00139925 0.0035999 0.00468901 0.00453294 -0.00477814 -0.00115088 0.00329194 0.000803663 0.00261198 0.00301712 0.00303065 0.000825466 -0.00287293 -0.00137933 -0.00320747 -0.00306631 -0.000285689 0.00396587 -0.00358367 0.00465805 8.31735e-05 0.00465567 0.00317501 -0.00355265 0.00120747 -0.00343769 -0.00129823 -0.00380522 0.0036264 -0.00397982 -0.00449483
女生 0.00464546 0.000654169 0.00319794 -0.00068758 0.000444854 -0.00106809 0.000194645 -0.00414069 -0.00165088 0.00312959 0.00179815 -0.00114414 -0.00399684 0.00219494 -0.00209053 0.00226346 0.00124707 -0.00340495 0.00416443 -0.00129199 0.000370776 -0.00392555 0.000291838 -0.000612377 0.00436871 0.00174988 -0.00132363 0.00287251 0.00468154 -0.00337657 0.00331921 -0.00321309 0.000154841 -0.00442783 -0.0001884 -0.00464898 -0.00350771 0.00444672 0.00448052 -0.00309613 0.000685205 0.00304607 0.00368693 0.00437684 0.00397181 0.00497309 0.00404341 -0.00168861 -0.000650499 0.000278267 -0.00300616 -0.00104596 -0.00201495 -0.00286927 -0.0040487 -0.00203647 0.00323408 0.0030553 -0.00417313 0.000898431 -0.000263385 0.0020583 0.00363322 0.00473164 -0.00189489 0.00177302 -0.00254145 0.00455333 -0.0039766 0.00387871 -0.00235285 -0.00312646 -0.00128674 -0.00199798 0.000802236 -0.000924685 0.00358093 -0.00191079 -0.00415579 0.00493023 0.00129291 -0.00337001 0.00226891 0.000534986 -0.00129724 -0.00403951 -0.000539494 -0.000708446 0.00186227 0.00376081 0.00122128 -0.00123893 0.00226231 0.00202651 -0.00448348 -0.0010613 -0.00385165 0.00451028 0.000472579 0.00214896
汽车 0.000428265 -0.00255326 -0.00382351 0.00231267 0.00337703 0.00260385 0.00348779 0.000970627 -0.0041395 0.00158699 -0.00302816 0.000631994 0.00300697 0.00276078 0.00344089 0.00428836 0.000635563 -0.00270523 0.000858221 0.00344092 -0.000843791 -0.000499887 0.000367596 0.000588633 -0.00489145 0.000542655 0.0006505 0.00483503 -0.00194302 -0.000138928 0.00156172 0.00045807 0.00443817 0.00371726 -0.00169688 0.00372822 0.00200248 0.004119 0.00458774 -0.00446242 0.0018939 0.00118691 0.0042593 0.00465252 -0.00492407 0.00347618 0.00467637 -0.0026055 -0.00357429 0.00269532 0.00254677 0.00246533 -0.00403188 -0.00237854 -0.00110712 -0.000319974 0.00256696 -0.00368096 0.00121464 -0.000931822 0.0045974 -0.00314945 -0.00466954 0.000569904 -0.00457094 -0.00411376 -0.00366654 0.000532523 0.00104992 0.00470431 -0.000554197 -0.00441184 0.00390512 0.00030489 0.00389259 0.00470974 0.00426394 -0.000897668 0.00332675 -0.00421324 -0.00130913 0.00415688 1.41306e-05 0.00399774 0.00310078 -0.000507565 0.00401992 0.00196356 0.00156545 0.000540284 0.00190681 0.00346758 0.000944853 -0.00353626 -0.00282291 -0.00349205 0.00260949 0.00487107 0.00355081 -0.00489519
有 -0.00226638 0.00195011 0.0042141 -0.0033426 0.00321365 -0.00143529 -0.00355145 -0.00157887 -0.00136152 0.00499845 0.00451327 -0.000857126 0.0042336 0.000200156 -0.00461388 -0.00466483 0.00256239 0.000282323 0.00187458 -0.00233204 -0.00122972 0.00284669 -0.00398441 0.0019601 0.00189706 0.00131872 -0.000212334 -0.000981294 0.00059131 0.00434943 0.00353967 0.000540046 0.00180449 -0.00203613 -0.00420733 -0.00289524 -0.00193652 -0.000146657 0.0045491 0.00240351 0.00469507 0.000428836 -0.00224483 -0.00409157 0.00127633 -0.00406394 -0.00280542 0.000404434 0.00458696 0.00330695 0.00159373 -0.00429334 3.70553e-05 0.00286388 -0.000320182 -0.0024033 0.00460504 0.00386355 -0.000716597 -9.64128e-08 -0.00478646 0.000280489 -0.00367162 -0.000437184 0.00399638 0.00124282 0.00322446 0.00128119 0.00148048 -8.44574e-05 0.000389761 0.00393913 -0.00130506 0.00266157 -0.0032271 0.000792922 -0.001056 0.00347644 8.65932e-05 0.00193467 -0.0010536 -0.00169201 -0.00143624 -0.00117267 5.45042e-05 0.000872829 -0.00337281 0.00332316 0.00370966 -0.00247691 -0.00150551 -0.000961995 -0.00118438 -0.0011054 -0.000844183 -0.00494387 -0.00152644 0.000266407 -0.00224197 -0.00219959
前 0.00340055 -0.00395161 -0.00429333 0.0037567 -0.00126884 -0.00356741 0.00344689 0.00317564 -0.00300972 -0.00336908 0.0039214 0.00472603 -0.000159809 0.00277845 0.00209524 -0.00321004 -0.00312289 0.00303804 -0.00192666 0.00408686 0.00241741 -0.000568239 -0.00339555 0.00377522 -0.00208748 0.00169717 -0.0036806 -0.00190938 0.00404344 -0.000646517 0.000641814 -0.00127846 0.000885762 -0.0008192 0.00483691 -0.0047696 0.00149707 -0.00325356 -0.00434727 0.00214014 0.00351546 -0.0009405 -4.30937e-05 0.0040517 -0.00459341 0.00165198 -0.00338886 -0.00457884 -0.00118423 0.00242738 -0.0023597 -0.000120934 -0.00273675 -0.00175948 0.00227916 -0.00243212 0.00129679 0.00231101 -0.00482421 -0.00377633 0.00255044 0.00101313 0.00299649 -0.000159502 -0.000665199 0.000578654 -2.42366e-05 0.00400759 -0.00389438 0.00270435 -0.00322417 0.00410784 -0.00116593 -0.00030967 -0.000226531 0.00384134 -0.00381884 -0.000872486 0.00234016 0.00235634 -0.00312138 0.00126619 0.000116778 0.00496351 0.0027142 0.00016506 -0.000283551 0.00295874 0.0002773 0.000451029 -0.00424025 0.00145365 -0.00133446 0.000313846 0.00272784 -0.00298807 -0.000913401 -0.000466268 0.00132773 -0.00295857
上 0.00367513 0.000561087 0.0041713 -0.00289943 0.000124066 0.00198097 -0.00179272 -0.00206743 -0.000798886 -0.00203582 0.000314017 -0.00404017 0.00374003 -0.00301945 0.000167511 -0.00174601 0.00184974 0.00452483 0.00321208 -0.00174697 0.000751321 0.000951482 0.00279507 -0.00196912 -0.00228514 0.00341408 0.00053655 0.00444943 0.00166441 0.00461986 0.0044666 0.00250507 0.00489943 -0.00432954 0.00158456 -0.000408567 -0.00444531 -0.00448137 -0.00462185 -0.00288733 0.00025553 -0.00186237 -0.00265286 0.0014305 -0.0022544 -0.0012222 0.00392893 0.00308519 0.0012659 -0.00316814 0.00427649 0.00295622 -0.000853974 0.00455882 -0.000986089 7.229e-05 0.00285576 -0.00308125 -0.00226935 0.00125522 -0.00367523 0.00368155 -0.000190383 0.0031288 0.00255622 0.00117121 -0.000269069 0.00271527 0.0019439 -0.00285269 -0.00142204 -0.000494658 -0.00186312 0.00280611 -0.00401289 -0.00045103 -0.00153039 -0.00359807 0.00400956 -0.00410654 -0.000879691 -0.00208833 -0.00164553 -0.00447299 0.00469874 -0.00116354 -0.00405417 -0.00327285 5.3084e-05 0.00347107 -0.00245495 0.00428115 -0.00217378 0.000567097 0.0024652 0.00425433 -0.000454251 0.00341781 0.00458043 0.00261341
， -0.00126461 -0.0041063 -0.00477481 0.0019783 -0.0028564 0.00152683 0.00109203 0.00429689 0.00418991 -0.00290359 -0.00159821 -0.00341647 -0.00485523 0.000177453 0.00412221 0.00285614 -0.00464795 0.00042217 0.00442151 1.4266e-06 0.000415701 0.00444138 0.000252284 -0.00141239 0.00469666 -0.00257048 -0.00240092 0.00108603 0.00337048 -0.00411766 2.02679e-05 0.00420552 -0.00165958 0.0011725 -0.000282584 -0.00180468 -0.00340709 -0.00137898 -0.00325543 0.000632034 -0.00349389 -0.000825288 -0.00189845 0.00265326 -0.00495164 -0.00159976 -0.000168097 -0.00499544 -0.00399015 0.00399248 -0.00432221 0.00270559 0.00475119 0.00447022 0.00171364 0.000767252 0.000971105 -0.000266344 -0.00246181 -0.00214366 0.00352768 0.00166218 0.00275362 0.00143502 -0.00390081 -0.00337162 0.0036963 -0.00326054 -0.00151675 0.0032423 -0.00207137 0.00382818 -0.00220101 -0.000915386 -0.0029332 0.000106532 -0.00340116 0.00271729 -0.00393466 0.00414551 -0.000684219 0.00234523 -0.00373743 -0.0029886 0.000160327 0.000907592 0.00443052 -0.00443168 0.00431046 0.00231544 -0.00189213 0.00480344 -0.0032643 0.000830262 0.000957923 0.00238088 0.00334649 -0.000127387 -0.000357295 0.00285528
问题 -0.00282585 -0.00323703 -0.00371008 -0.00200802 0.00379956 -0.00371395 -0.00497058 -0.00187782 0.00265691 -0.000861479 0.000445406 -0.00270032 -0.0036175 -0.00335207 0.00330854 -0.00455225 -0.00376887 0.00435397 0.00192971 -0.00256593 0.00318434 -0.00408991 -0.000409287 -0.00128703 0.00121982 -0.00335867 -0.000897351 -0.00206956 -0.0021026 -0.00390494 0.00100247 0.000128867 -0.00102741 -0.0016766 0.00439952 0.00183552 0.00255719 0.0033003 -0.00492474 0.00152749 -0.00288014 0.00406996 -0.00407456 -0.000802457 0.00232571 -0.00181154 0.00256638 0.00114318 0.00270592 -0.00498705 0.0047609 0.000863352 0.0032103 -0.00156222 -0.000868757 0.00174952 0.000435044 0.00281576 0.00483654 -0.0029615 0.00347262 0.0026846 0.00170959 -0.00473084 -0.00275976 -0.000210747 0.00121929 0.00314737 0.000555946 0.00446933 -0.00448142 0.00489021 0.000149169 -0.00375616 -0.000412653 0.00437242 0.00334966 -0.00156675 -0.00329779 -0.00142598 -0.000100206 -0.00344317 -0.00125891 -0.000554543 -0.00447146 -0.00249311 -0.00355127 -0.00400576 0.00058877 -0.00200537 -0.0044736 0.000247754 -0.00330354 0.00480902 -0.00196823 -0.00408139 0.00346713 0.00282852 -0.000128994 -0.000889417
大 -0.00375055 0.00407085 -0.000297469 -0.00472757 -0.00355329 0.00230963 -0.00441392 -0.00227251 0.00232993 0.00457969 -0.00280823 -0.00355219 -0.0046798 0.00385294 0.00495615 0.00055066 0.00432331 -0.00355417 -0.00257671 -0.00322002 -0.00443646 -0.00318256 0.00470744 -0.00110302 0.00228078 -0.00102671 0.00379474 -0.00141859 0.00443331 0.00174159 0.00281884 -0.000144978 0.00407579 -0.00302275 0.00326356 -0.00252134 0.00275089 -0.00381897 0.00499926 -0.00455694 -0.0028257 -0.00322749 -0.000252521 -0.00149071 0.00148725 0.0024638 -0.00110416 0.00192286 0.00495935 0.00456509 -0.00145813 -0.00172347 0.00202379 -1.90006e-05 0.00376382 0.00403911 -0.00317421 -0.00103396 0.00489038 0.00120382 0.00331616 0.00106562 -0.00385224 0.00466305 -0.000827609 -0.0049789 0.000280311 9.7859e-05 -0.00153872 0.00208676 -0.00211586 -0.00416465 0.000550251 -0.00416492 -0.00363373 -0.0010886 0.00464209 -0.0030288 -1.26074e-05 -0.00492933 0.00427737 -0.00418311 -0.00317675 -0.00291581 0.00469158 -0.00486105 -0.00136932 -0.0010118 -0.00076646 -0.00413729 0.00371341 -0.00367416 -0.00255861 -0.000261359 -0.0036455 -0.00410326 -0.00297316 -0.0041163 0.00368326 -0.00426322
吗 -0.00171471 -0.000193458 -0.00497082 -0.00186163 0.00474958 -0.00347568 0.00251643 -0.00387963 -0.00282028 0.000854739 -0.00313533 -0.000275959 -0.00144453 -0.00287491 -0.00293058 0.0043258 0.00202256 0.00167575 0.00423034 -0.000664207 0.00145037 -0.0035912 0.00313207 -0.00172129 0.00104458 0.00449162 -0.00100954 0.000204233 0.00391523 0.00438014 0.00177451 -0.00377687 -0.00331684 0.00314396 -0.000589375 0.00149686 -0.00443647 0.000881286 -0.00276169 0.00402693 2.12343e-05 -0.00299042 3.89083e-08 -0.00051969 -0.00175305 -0.00410849 0.00404306 0.00291591 0.0018161 0.00109927 -0.000138379 0.00304911 0.000767918 0.000603457 0.00183625 -0.00435238 -0.00219443 0.0037308 0.00336102 0.00330444 -0.00188079 -0.00177325 -0.00441292 -0.00297171 -0.00276592 0.00178803 -0.00202869 0.00115876 -0.00393739 -0.00432819 0.00336971 0.00103396 -0.001603 -0.000935258 -0.00161128 -0.00261595 0.00232239 -0.00062758 -0.00372308 0.00255212 0.00288957 -0.00290479 0.00158546 -0.00386053 -0.000580112 -0.00198932 5.04112e-05 -0.00343532 0.00324275 0.00124062 0.00269454 -0.00231319 -0.00149158 0.00462036 -0.00100777 -0.000421992 -0.00361532 0.00256291 0.00385849 0.000992936
在 0.00101545 0.00399851 -0.000197372 -0.000482179 0.0045335 0.00192291 -0.00212414 0.00277988 0.000662941 -0.00223369 -0.00265256 0.00200273 0.00328511 0.00119229 -0.00117203 0.00432923 -0.00109011 0.00186146 0.0025489 0.00185036 -0.00413881 -0.00343282 -0.00296908 -0.0011937 -0.00486722 -0.00482194 0.00208223 0.00415713 -0.00239867 0.00108197 0.00236659 0.00106803 -0.00256397 0.00270442 -0.00446231 0.00386908 -0.000657045 0.00344911 -0.00159371 -0.000523642 -0.000201268 -0.00418714 0.00199273 0.00204767 0.00274331 0.00139368 0.000846857 0.00399009 0.000698673 -0.00487744 0.000642027 0.00366139 -0.0037918 0.00337926 -0.00125176 -0.00293871 0.00282848 0.000323375 0.00240418 -0.0019162 -0.00322769 -0.00297978 -0.00408392 0.00211004 -0.00227289 0.00232951 -0.000109321 0.00426932 0.00212583 0.00179959 0.00159012 0.00442778 0.000727088 0.00302861 -0.00361001 -0.0020747 0.002733 0.00336964 -0.00216163 0.00119598 0.00448234 -0.000988609 0.000401372 -0.000656752 0.000913543 -0.00415957 -0.00472582 0.00153962 0.00165159 3.9137e-07 -0.00230864 -0.000442234 0.00326852 -0.00213606 0.00479362 0.00311439 0.00442404 0.00455163 -0.00139524 0.00439348
或 -0.0029327 -0.00354556 -0.00153141 0.000332687 -0.00362824 -0.00276607 -0.00132863 6.24029e-05 -0.00190234 8.12633e-05 0.00290281 0.000873232 0.00266354 0.00209959 0.00110095 -0.00408331 0.000939413 -0.00492616 -0.0023524 0.00442404 -0.000600161 0.00295037 0.0003873 0.00236769 0.00161362 0.000340086 -0.00126654 0.00384022 0.00438012 0.00495913 0.000186182 0.00419582 0.00334036 0.00150254 -0.00379276 0.00419984 0.00083867 0.00366315 0.00346304 0.00354059 0.00443764 0.00330869 -0.00244984 0.00314782 0.00317375 -0.00163139 0.00183271 -0.00465132 -0.00375391 0.00287741 -0.00162471 -0.00236015 -0.0041911 -0.00394661 0.00271174 0.000368515 -0.000347 0.00223712 0.001321 -0.00473474 0.00182382 -0.00223631 0.00372976 -0.000613015 -0.00138 -0.00156575 -0.00371449 0.0017044 0.00368828 0.00189646 -0.00297539 -0.00199653 -0.00319215 0.000126827 -0.00122897 0.000543904 -0.000872985 0.00375361 -0.00252842 -0.00246531 -0.00322297 0.000628639 0.00108454 0.000191297 0.00473154 0.00377624 0.00236115 0.00025289 -0.00415344 0.00166308 0.00339924 -0.00221319 -0.00482824 -0.0044134 0.00402086 -0.00377268 -0.000861929 -0.00207021 -0.00444636 0.00488704
不 -0.000335799 -0.00291942 -0.00228243 -0.00133243 0.00421581 -0.000122846 -0.00398766 0.000337636 -0.00026426 -0.000273424 -0.000241945 0.00443097 -0.00494586 0.000889298 -0.00416014 0.00480115 0.00377083 0.00384985 -0.00492528 -0.00339534 -0.000633951 -0.000968142 -0.00200654 0.000853377 0.00121136 -0.00497736 -0.000441618 -0.000710523 0.000665417 0.00367245 0.00290379 -0.00255718 0.00127072 0.00317943 -0.00355446 0.00449609 0.00228108 -0.00319645 -0.000277577 -0.000316749 -0.00335725 0.000759841 0.00107893 0.00117036 0.00302675 -0.00193187 -0.00134418 0.00197408 -0.00130632 0.00173287 -0.000773183 -0.00113832 -0.000278159 0.00175152 0.000508301 -0.00448285 0.00310667 0.00116814 0.00249254 -0.000531041 0.00256084 -0.00137416 0.00286676 -0.00321764 -0.0040931 -0.00340701 0.00481982 0.00480409 -0.00167112 -0.00179633 0.00427147 -0.00328911 -0.00311205 0.00144932 0.00305815 0.00318104 0.00329688 -0.00297755 0.00067695 0.00121285 -0.00153305 -0.00300502 -0.00201166 0.00397371 0.00410333 -0.00326564 0.00475067 -0.000689347 0.00138305 0.00154788 -0.000909946 -0.002323 -0.000146537 0.00254963 -0.000258175 0.00356467 -0.00265476 -0.00494253 0.00493049 0.00471935
适合 0.0043505 -0.00449609 -0.000666038 0.00014574 -0.000510841 0.000397602 -0.00109015 -0.0040899 0.00492695 0.00363117 -0.00383522 -0.00366402 0.00495538 -0.00305104 0.00234261 0.00336694 -0.00236546 -0.00307904 0.00482029 0.00493942 0.00196544 0.00187387 -0.00130436 0.00399425 -0.00143765 -0.00342312 -0.0048087 -0.00057189 0.00197095 0.00358563 0.00453287 -0.00402355 -0.00417918 -0.00120164 -0.00215532 -0.00354811 -0.000743548 0.000705938 -0.00159198 -0.0029576 0.00318333 -0.00485397 0.00200188 -0.00171078 -0.00449258 0.000169647 0.00276838 0.00134724 0.0032675 -0.00358854 -0.0018244 -0.00389371 0.00141394 -0.00228661 0.00486426 -0.0017502 0.00333558 -0.00481274 0.00112072 -0.0047609 0.00229441 0.00131572 0.00242581 -0.000461362 -0.00186245 -0.00438941 0.00129686 -0.000732641 -0.00148723 0.00334472 -0.00255766 -0.00415022 -0.00388454 0.000787119 0.00101235 -0.00370987 0.0034948 0.00354642 0.00204143 -0.00372699 -0.00161702 -0.00115244 -0.00112165 -0.00493243 -0.00487581 0.00125138 -0.00199463 -0.000711218 0.000975291 0.00199406 -0.00247988 0.000489229 -0.00188991 0.00291024 -0.000992869 -0.00207376 0.00232993 0.00202343 0.00157818 0.00371876
自己 -0.00196389 0.000818825 0.00134886 -0.000939786 -0.00144573 0.00185623 0.00329358 0.00328511 -0.00394844 -0.000966126 -0.00306843 0.000202265 0.00458326 0.00132017 0.00181973 9.35061e-05 0.00309769 -0.00206851 -0.00208669 -0.00416146 -0.00101331 -0.00108871 0.00177734 0.000503033 -0.00332536 -0.00373631 -0.00250511 0.00179654 0.000533756 -0.00235394 -0.00328664 0.00431382 0.00237176 0.00307069 0.00356608 0.0026844 -0.000359777 -0.00399107 -0.000702867 -0.00246694 -0.00302506 -0.00229412 -0.00100472 0.00335669 -0.00167719 -0.00228644 0.0031419 0.00414243 0.00210866 -0.00422673 -0.00424869 0.00162768 0.00112222 0.00451528 -0.00435435 0.00112169 -0.00117676 -0.0044062 0.00402498 -0.00373168 0.00187322 5.71057e-05 -0.00161825 -0.0015761 -0.000264058 0.00219026 0.00398061 0.00179652 -0.00107022 -0.00042792 -2.33977e-05 -0.00461684 0.000525876 -0.000232985 -0.00121899 -0.0010614 -0.00227787 0.00421582 -0.0028232 -0.00184876 -0.000172806 -0.000557438 -0.000664929 0.00317845 -0.00282882 -0.00291857 -0.00283258 -0.000368088 0.0042962 0.00170523 -0.00372736 -0.000982404 0.00389359 0.00236718 0.0039051 0.00480261 0.00288345 0.000295638 -0.00478607 0.00172121
是 0.00271762 0.000936466 -0.00242148 0.000930181 0.00349034 0.000278029 0.000495812 -0.000649364 0.00206249 0.000418344 -0.00397412 -0.00491394 -0.00078689 0.00219066 0.00153416 0.000254407 0.000579768 -0.00232337 -0.00360125 -0.00399784 0.00462668 0.000128914 0.00229536 0.00441309 -0.000786941 0.00060771 0.000168472 -0.00243903 -0.00216171 -0.00168831 -0.000318764 0.00388932 0.00368497 -0.000145697 0.00114992 0.00321629 -0.00305941 0.0024289 -0.00458992 -0.00152238 -0.00346776 -0.00192246 0.00216638 0.00332299 -0.00480404 0.00462456 0.00118459 0.00328523 -0.00494763 0.00232105 -0.00299794 0.00140869 0.00182465 -0.00280207 0.00340905 0.00282712 0.00361809 0.00352038 -0.0027543 -0.00241624 -0.000874762 -0.00236547 -0.00279272 0.0030232 -0.00489503 -0.00133173 -0.0047032 -0.00354174 0.00274698 -0.0041012 -0.00217033 0.00371662 -0.00424944 0.00337685 0.00352976 0.00352869 0.000282903 -0.00238568 1.51322e-05 -0.00440062 0.00372468 0.00283426 -0.000316299 0.00210382 -0.00330926 0.00103947 -1.34425e-05 -0.00202614 -0.0020093 -0.00295609 0.00490149 0.000948138 -0.00321311 -0.00193256 -0.00229769 -0.00467065 -0.00454951 0.00032845 0.00253749 0.00360921
最 0.00355815 0.000228365 0.00447316 -0.00217955 -0.00484964 0.00118094 -0.00297466 0.00385948 0.000602122 -0.00132533 0.0010582 0.00234879 0.0028329 -0.00104622 0.00340733 0.00332927 0.00198835 -0.00316247 -0.00447543 0.00118542 0.00278319 0.00323149 0.00450379 -7.94977e-05 -0.00050042 -0.00437534 -4.1016e-05 0.00444118 -0.00151068 -0.00201282 0.00424339 0.0026844 -0.0010139 -0.00444001 0.00166004 0.00106 -0.00181826 0.00420947 -0.0035442 0.00460821 -0.00479208 0.0036827 -0.00293406 -0.00443506 -0.00407644 0.00142475 -0.00380427 -0.00413216 -0.00445448 0.00428671 -0.000761308 0.00275541 -0.000483635 0.0026523 -0.000749922 -0.00161204 0.00167358 0.000239353 -6.05899e-05 0.00184405 -0.00416796 -0.00329229 -0.00231521 0.0048556 0.00283203 0.00188452 0.0045147 -0.002229 0.00401666 -0.00103834 0.000822631 0.000446194 0.00286852 0.00149579 -0.000913152 -0.00280451 0.0043081 0.000968878 0.00194188 0.00154919 -0.000161243 -0.00125856 0.00139066 0.00427138 -0.0049168 0.00210654 -0.000801988 -0.00257156 0.00238 0.00251061 0.00351122 -0.000626288 0.00404867 -0.00028429 -0.00431613 0.000295405 -0.000641035 -0.00313259 0.00455827 -0.00481947
被 0.000547045 -0.00407093 0.00485278 -0.00108549 0.00247477 -0.00253877 -0.00456925 0.000584327 -0.00429323 0.00270498 -0.000463082 0.00485989 0.000713403 -0.00231959 0.00448822 0.00342033 -0.00213868 -0.00180444 -0.00375723 -0.00254006 -0.000886 -0.000692358 0.00165195 -0.00412166 -0.00288157 -0.000118124 -0.000144016 0.0029244 -0.00202957 0.00362329 0.00377069 0.000575154 0.00485613 0.0024875 0.00369162 0.00367406 -0.00478158 0.00294223 0.00420622 0.00178334 -0.00491501 4.88134e-05 -0.0028962 0.00442671 4.20674e-05 0.00367374 0.000583589 -0.00243103 0.00108859 -0.00382919 0.00343859 9.93777e-05 0.00475871 -0.00441474 0.00366282 -0.00378717 -0.00130876 -0.000942893 -0.00357723 -0.00216974 0.00252255 -0.000752007 -0.00330105 -0.00409679 0.00234836 -0.00167493 0.00434054 -0.00489734 0.00478457 -0.00279161 0.00238302 -0.00369564 -0.000849308 0.00184789 -0.00314004 0.00313274 0.000431532 0.0025782 0.00446219 -0.00200313 -0.00199988 0.000866493 -0.00113423 0.00231144 -3.47811e-05 -0.0040635 0.00169251 -0.00109996 -0.00263993 -0.00320154 0.00300157 0.00300704 -0.00308503 0.00490149 -0.000176406 -0.00112156 -0.00411431 0.0019712 0.00157361 0.00492161
怎么 -0.000394546 -0.00198092 -0.00467866 -0.00281142 0.00465844 0.0023259 -0.00312477 0.00475758 -0.000467185 -0.00478754 -0.0047744 -0.00144201 -0.00238429 -0.00112411 -0.000963364 0.0031209 0.000949882 -0.00417275 -0.000731431 -0.00487968 0.00427857 -0.00362907 -0.000681608 -0.00402021 0.00389892 0.00217513 -0.000777934 0.00255066 0.00381339 -0.00184874 0.00442215 0.00160895 -0.0015704 -0.000594431 -0.00423931 0.00341283 -0.00200792 -0.00168855 -0.00465411 -0.00144209 0.00246622 -0.00378156 0.0047373 -0.00259902 0.00449146 0.00409343 0.00392138 -0.0032551 -0.00267868 -0.00191646 -0.00269735 0.00342701 0.00361012 0.000972371 0.000803906 0.00459473 0.00295347 0.00109738 0.00323737 -0.00249686 -0.00488737 0.00162774 0.00068195 -0.000984675 -0.00178099 -0.00311815 -0.00329934 0.00247254 0.00263237 -0.00210044 -0.00364133 0.00424704 -0.00486706 0.00342686 -0.00172778 -0.000195992 0.0033508 -0.00123466 0.00228366 0.00179785 -0.0022076 0.00189606 0.00310545 -0.00400756 0.00169931 -0.00349291 0.00481656 -0.000410744 -0.00415533 -0.000247719 -0.00320056 0.000971055 -0.00473118 -0.00156348 0.003293 -0.00161855 0.00253173 0.00199401 0.00164989 -0.00317977
处理 -0.00367288 0.00467683 -0.00225206 0.00261635 0.000996665 -0.00399241 0.00316549 0.00139172 -0.00108664 0.00490932 -0.00165209 0.000114903 0.00441116 -0.000802583 -0.0043948 -0.00350292 -7.57469e-05 0.00196644 0.000427328 -0.0039056 -0.00358436 7.96862e-05 -0.00129427 0.00467334 -0.000313937 0.00488148 -0.00300934 -0.00377664 -0.00313393 -0.00344487 -0.00150943 -0.00394515 0.0022751 0.0028791 0.00263578 0.000695114 0.00211636 0.00419813 -0.00421721 -0.00176212 0.00097731 -0.00291902 -0.00272674 0.00153853 0.00421263 7.66877e-05 0.00324657 0.000726348 -0.000383737 0.000463421 -0.00188748 -0.00353805 0.00199681 -0.00282057 -0.00288734 -0.00409034 -0.00233237 0.00141823 -0.000120143 0.00337069 -0.00035423 -0.00489496 0.000395346 0.000301394 0.00377962 -0.00458034 -0.00105382 0.0041162 0.00109996 0.00184392 -0.00018136 0.00101694 0.00467733 0.000731678 0.00477271 0.00384467 0.0038415 0.00179354 -0.000150815 -0.00264408 0.00255992 0.00114782 0.00240361 -0.00356882 0.00222286 0.00375162 0.00396429 -7.85415e-05 0.00115579 -0.000619548 -0.0024421 0.0041719 0.000752204 0.000470259 0.0020306 -0.00426325 -0.00474119 -0.00475243 -0.00030408 -0.00346115
? -4.74155e-05 0.00303497 0.0039583 -0.00466123 -0.00301883 -0.00134598 0.00145581 0.00315854 -0.0026948 -0.00273928 0.000701584 0.00235387 -0.00274009 0.0022394 -0.0043868 -0.000710118 -0.00125281 -0.00472512 -0.00217002 -0.00404653 -0.00407113 -0.000220009 -0.00233411 0.00264696 -0.00065384 0.00242915 -0.00366549 0.00362105 -0.00188653 0.00427287 -0.00414656 -0.00129057 0.00454581 0.00212049 -0.00336089 0.00233893 0.00241566 -0.00281787 0.00112158 0.000267352 0.00112906 -0.00152161 0.00203498 0.00230578 0.000134509 -0.00374274 8.40619e-05 -0.00454716 0.00269372 -0.0031569 0.00388247 -6.50918e-05 0.00094274 0.00204505 0.000199959 -0.00176706 0.00375896 -0.00459269 -0.0028735 -0.0024727 0.00355251 0.00216998 -0.00338543 -0.000261256 0.0023004 0.000341739 0.00467219 -0.000345566 0.004401 0.000468314 0.00225746 -0.00140794 0.000299091 0.00310511 0.00104488 -0.00256958 0.00108714 -0.00143486 -0.00412569 -0.00369148 -0.000900696 -0.00366686 2.64689e-05 0.00323477 -0.00423319 -0.00116238 0.00158848 0.00291235 0.00148753 -0.00204521 -0.00311033 -0.00303121 -0.00487029 0.000885947 0.00487245 0.00106347 -0.00458161 -0.00171635 -0.00481014 -0.0015847
给 -0.0042302 0.00319561 0.00374265 -0.00173354 0.0048144 0.00283198 -0.00192202 -0.00125995 -0.00215295 0.00127587 0.00278155 -0.00369573 -0.000561452 0.00297649 -0.00369909 0.00426959 0.00102715 0.00377297 -0.00149839 0.000925917 0.00164954 -0.0024703 -0.00340425 0.00272912 0.000310847 0.00161808 0.0035636 -0.00455202 -0.00059674 0.00176377 0.00222926 0.00367819 0.00226194 -0.00125932 -0.00311063 -0.000948817 0.00133592 -0.00281142 0.00436085 -0.00219286 -0.000912139 -0.00117372 -5.56307e-05 0.00249952 -0.00437757 -0.00272557 0.00465035 -0.00414118 0.00248912 -0.00461915 -0.00187962 0.00335499 -0.0037271 0.00233596 0.00441548 -0.00239996 0.0019088 0.00486673 0.000816412 -0.00296366 -0.00051747 -0.00103547 0.00420655 -0.00481273 0.000628147 0.00372945 0.00225183 -0.000627335 7.97436e-05 -0.0013039 -0.00320023 -0.00487478 0.00337686 0.00260342 0.0029704 -0.00153039 0.00235732 0.00136692 -0.00146043 0.00226844 0.000785302 -8.63544e-05 -0.00398803 -0.00261627 0.00269836 0.00147925 0.000300154 -0.00413556 0.00443817 -0.00309873 -0.00256315 -0.00422242 0.00154465 0.00234401 -0.00186664 0.000642388 0.00372368 0.000998474 0.00243718 0.00323975
我 0.00399201 0.00373912 -0.000383621 0.000143455 -0.00255758 0.000254926 0.00126528 -0.000816808 -0.00323638 0.00234672 0.00476129 -0.00373849 -9.32491e-05 0.00477036 0.00405176 -0.00134418 0.000666105 -0.00264143 0.00450207 -0.000723377 0.0009238 0.00333907 0.00126929 -0.00168348 -0.00329141 1.4666e-05 0.00185201 0.00172345 5.32954e-05 -0.000819212 -0.000526595 0.00166379 -0.00472251 -0.00192652 -0.00245179 -0.00238537 0.00137064 -0.00134543 0.00156591 0.00329784 -0.000440576 0.00431613 -2.9322e-05 0.000784851 0.00106948 -0.00240504 -0.000275336 0.00337282 0.00209395 -0.0026161 0.000942479 0.0046192 0.0016517 0.000981201 -0.00230298 0.00195274 -0.000160687 0.00100848 -0.00378526 -0.0032265 0.00433808 0.00471509 0.000805636 -0.00131365 -0.00063089 -0.00317853 0.000939032 0.000210878 0.00099568 0.00434959 -0.000205763 0.000321382 0.00459065 0.000394053 0.00060205 -0.00356617 0.000923365 0.00085527 -0.00409676 -0.00415014 -0.00191591 0.00349195 -0.00197861 0.00240691 -0.00368829 0.004235 -0.000252528 0.00296234 -0.00317099 0.000274502 0.00256064 -0.00147887 -0.00236306 0.000657416 -0.00356089 0.00106815 -0.00281758 0.00344093 -0.00378688 0.00216788
一个 -0.00364615 -0.000747384 0.0043319 -0.00350547 0.00166218 0.00348338 0.00147591 0.00369888 0.00336801 0.00219426 -0.00384392 0.00143035 0.0005039 -0.0043146 0.00424999 0.00231842 0.000320582 -0.000285645 0.000393858 0.0040302 -0.00258416 0.00141865 -0.0028804 -0.00165903 0.00261909 0.00421287 -0.00200501 0.000452207 -0.002584 -0.00291161 0.00209501 0.000185559 0.0040761 -0.0035676 -0.00490997 -0.000742303 -0.00137311 0.00328229 0.00458945 -0.00467084 -0.00399056 -0.00315285 0.00463993 0.00447286 0.000614836 0.0019277 -0.00258752 0.000380178 -0.00206718 -0.00257214 0.00470392 -0.000494295 0.00260319 0.0026782 -0.00406955 0.00221816 0.000944741 0.00228637 -0.00204466 0.00201267 0.00474432 0.000288762 0.00424671 -0.00337844 0.00240775 0.00180042 -0.00245675 0.00453207 0.00469637 -0.00487628 -0.00226397 0.00292572 0.00109321 0.00174643 -0.00397095 0.00180286 0.000904549 -0.00186647 0.00372287 -0.00126848 -0.00171995 0.000500415 -0.000396019 -0.00407668 -0.000229784 -0.00400201 0.000911642 0.003751 0.00484378 -0.00307573 -0.000719411 0.000956844 0.00124733 0.00184939 -0.000906967 0.00250718 -0.00453357 0.00485658 0.0031097 -0.00474218
人 0.00249752 0.00112888 0.00106669 0.00309602 0.00340535 -0.000482317 -0.00372005 -0.00202357 0.0041379 -0.00436245 0.00288471 -0.000138188 -0.00158134 -0.00155045 0.00387234 -0.000451939 -0.00179404 -0.0016658 0.00326566 0.000404187 -0.00306159 0.00313485 0.00478024 0.00283378 -0.00220747 0.00340817 -0.00430936 -0.000421432 9.19521e-05 -1.56134e-05 0.00495584 -0.0023679 0.00143789 -0.00415714 -0.00419815 -0.00346043 -0.00469407 -0.00115179 -0.00174358 -0.00485656 0.00133441 -0.000625025 -0.00184109 0.000448718 0.00367348 0.00285077 0.00169028 0.000471979 0.00384534 -0.0024374 -0.00203402 -0.00135768 0.000320184 0.00137437 0.00186889 0.00328425 0.00120462 0.00433409 -0.00400873 -0.000149706 0.00417946 0.00272045 0.00416398 -0.00066363 0.00157782 -0.00345021 0.00472259 0.000638456 0.00179445 -0.00430476 -0.00355149 -0.00335652 -0.00488453 0.00124286 0.00128421 0.00391756 7.71517e-05 -0.0039584 -0.00423304 -0.00419557 0.00455022 5.72734e-05 -0.00441831 0.000880283 -0.00491158 -0.00324688 -0.000641342 0.00479964 0.000724157 -0.00264419 0.00400537 0.00401199 -0.000816629 0.00446843 -0.00197061 -0.00405475 -0.00052174 0.00329647 -0.00324296 0.00450124
可以 -0.00490993 -0.00429608 -0.00128863 0.00181311 -0.00239306 0.00208416 0.00343822 0.000134695 -0.000145734 -0.00337401 0.00247707 -0.00498864 0.000481043 0.000976121 -0.000359822 -0.00246504 -0.00337308 0.00294741 0.00359726 0.00319738 -0.00100747 -0.00264259 -0.000753313 0.00192768 9.09426e-05 -0.000545178 -0.00384924 0.00016383 0.0016545 -0.00218533 0.00374199 0.00034086 0.00330401 -0.00332229 0.00211345 0.00316722 0.00272419 0.00377107 0.00305252 0.00261189 0.00357381 -0.000498592 0.00258965 0.000591918 -0.0030233 -0.00162178 0.00237644 0.00277445 -0.003121 -0.00318951 -0.002999 -0.00381557 0.00378152 0.00245502 -0.00326852 -0.000346282 0.00398858 -0.00364673 0.00141057 0.00281823 -0.00480779 -0.000298288 -0.00499073 0.000380979 -0.00417746 0.00162681 0.00089171 0.00338835 0.00331571 0.00183854 -0.00254753 0.000618986 0.000595888 0.0036269 -0.0009485 -0.00426742 0.00399287 0.00378691 0.00484435 1.02776e-05 0.00091469 -0.00324577 0.000369387 -0.00370213 -0.00456265 0.00174203 -0.00427282 0.00375376 -0.00321029 -0.000154608 -0.000858424 -0.000372672 -0.00300821 0.00461441 0.00189905 0.00437565 -0.00488162 -0.00348481 -0.00262447 -0.000821806
小 0.00169445 0.00410228 5.93138e-05 0.00232374 -0.00268513 -0.00254479 0.00378122 0.00283155 -0.00288119 -0.00470349 -0.00375834 0.00481284 0.00382114 0.00452555 0.00233353 -0.00296474 0.000857206 0.00419711 0.00476725 -0.00449834 -0.00344878 -0.00103716 -0.00438115 0.000192118 -0.00163111 0.00448969 -0.00193648 0.00432854 -0.000969257 -0.00357215 0.00039964 -0.00429079 0.00491498 -0.00489495 0.00201586 0.00345531 0.00397817 -0.00361914 0.000382829 0.0015118 -0.00425446 0.0017027 -0.00262759 -0.00178893 -0.004561 0.0043591 0.00416837 -0.00051948 -0.00299138 0.00440532 -0.0012549 0.00311009 0.00457819 -0.0031534 -0.00170555 0.00178943 0.000164065 -0.00224489 -0.002425 -0.00210339 -0.00440206 -0.00180442 -0.00467108 -0.00261785 -0.00257574 0.00204102 0.00205899 -0.00091599 -0.00378564 7.06435e-06 -0.00330868 -0.00473943 0.0021083 0.00395913 0.000442499 0.000927229 -0.000437181 0.00316204 0.0019377 -0.000555085 0.0039342 -0.00255495 -0.00129399 -0.000347156 0.00461813 0.00437481 0.00163541 0.00237502 0.00317891 -0.00425592 0.00311201 -0.00239343 -0.00174693 -0.00460305 0.00253975 0.00131037 0.000623521 0.00253576 -0.00361833 -0.0029074
买 -0.00164996 -0.00237011 -0.00133419 0.0017009 -0.00219126 -0.000912824 -0.00155453 -0.00225463 -0.00245552 0.000823227 -0.00183038 0.00236495 -0.00178936 -0.00118608 -0.00059919 -0.00430209 -5.59973e-05 -0.00165824 -0.00460519 -0.00186009 -0.000689788 -0.00400277 0.00333129 -0.000253679 -0.00467103 0.0019595 -0.000333003 -0.00298367 -0.000350734 0.00135637 -0.00201475 -0.00281902 -0.00410451 -0.00276756 0.00462189 -0.00317526 0.000548604 0.00453038 0.00448468 0.000157902 -0.000239601 -0.00171451 0.00429107 0.00370055 -0.00429648 0.00262893 -0.00184533 0.00121814 -0.000509085 -0.00420797 -0.00284699 0.0047697 0.00179263 -0.0039471 0.0024427 0.00101516 -0.00453091 -0.00187512 -0.00110679 -0.00280412 0.00144394 0.0031653 -0.000898081 0.00394781 -0.00222331 1.39388e-05 0.0037943 0.00183411 -0.00255413 0.00337236 0.00199507 0.00120621 0.00123534 1.64624e-05 0.0049839 0.00076925 0.00100711 -0.000790211 0.000555155 -0.00256659 -0.00406183 0.00253496 0.00411165 0.00173166 0.000903934 -0.00491046 0.00222778 0.0019939 -0.00281375 -0.00302683 -0.000226022 -0.00482493 -0.000314672 0.0017206 -0.00424642 0.00444 0.00290113 0.00383629 0.000857464 -0.00499385
多 0.00250938 0.000324738 0.000476245 0.000617308 -0.00192078 0.000906686 -0.00334332 -0.00393767 -0.000240365 -0.00193795 0.00102621 -0.0039196 0.00483438 -0.00167152 -0.00183013 0.00270652 0.00332251 0.00383739 -0.00151777 9.00529e-05 -0.000954199 -0.00307919 -0.00314139 0.00337497 0.000744579 0.00105054 0.000933837 -6.90956e-05 0.00456372 -0.00131864 0.00341256 0.000572102 0.00048607 -0.00239892 -0.00319189 -0.00254504 -0.00305159 -0.00164017 0.00144345 0.00108145 -0.00290236 -0.000153787 0.00405613 0.000742867 0.00114583 -0.00157044 -0.00475261 0.00155397 0.00066538 0.00019762 -0.00484789 0.000624506 0.00391996 3.92519e-05 -0.0019087 -0.000964276 0.00319306 -0.00402524 -0.00434982 -0.00216265 -0.00184015 -0.00174676 -0.00183988 0.00473004 0.000236529 -0.00401566 -0.00305577 -0.000188096 0.000227715 0.000761433 -0.00135951 -0.00138568 -0.00263345 0.00370739 0.00450582 -0.00368434 -0.000992791 0.00134062 -0.00290984 -0.00382754 0.00299042 -0.00427927 0.004308 0.00228181 -0.000173866 0.00454362 -0.00227048 -0.00119161 0.00173384 0.00220694 -0.00418063 -0.00376306 -0.00151703 -0.00464507 -0.00337108 -0.00142509 -0.00188091 0.00370461 0.0018635 0.0026278
和 -0.00292838 0.00492527 -0.00309883 0.00290607 0.00472107 0.00312908 -0.00151587 -0.00308303 0.0021828 -0.00371404 4.99833e-05 -0.00309645 0.00187498 -0.00189439 0.000261678 -0.00246192 -0.00245919 0.00393993 -0.00487817 0.00122104 0.00048775 -0.000221129 -0.00247658 0.0027208 -0.00260419 0.000583152 0.00250521 -0.00436296 0.00425481 0.001541 -0.00315892 -0.00348614 -0.00442812 -0.000782102 -0.00453716 0.00239264 0.00142357 -0.00149356 -0.00191698 0.00474414 -0.00101374 -0.000432945 -0.00183639 -0.00103386 -0.00355614 -0.00350132 -0.00374447 -0.00444003 0.00105378 0.00297927 -0.0031581 0.00470321 0.00245429 -0.00376736 -0.00245958 -0.00461008 0.000650854 0.0010436 -0.00218989 0.0041952 -0.000142973 0.00172034 -0.0049615 0.00483081 0.000997021 -0.000503508 0.00086901 -0.00235465 -0.00257269 7.07386e-05 0.000390185 3.41085e-05 0.0033688 -0.00158922 -0.000261237 0.00411535 0.00233572 0.00112419 -0.00149946 -0.00153239 0.00231766 0.00136223 -0.00453646 -0.0024273 -0.00194899 0.00328012 0.00202117 0.000722783 -0.000555909 -0.00177072 -0.00238024 -0.00449369 0.00312053 0.00186101 0.0018301 0.00213251 -0.00325738 0.00175327 0.00279525 -0.00354589
过 0.00297132 0.00322276 0.000333167 -0.00229625 0.00492607 -0.00445041 -0.00275955 1.93065e-05 -0.00032762 -0.000365926 -0.00204652 -0.00213999 -0.00293327 -0.00204555 -0.00369829 -0.000459125 -0.00476561 0.004045 -0.00184286 -0.000609664 0.00481742 0.00270954 -0.0010193 0.00255899 -0.00225546 0.000559784 -0.000571835 0.00430427 -0.00336517 0.00150664 -0.00178683 -0.00438909 0.00110834 0.00358513 -0.0046661 -0.00225512 -0.00435341 0.00465152 -0.000877071 -0.000319484 7.51002e-05 -0.00303475 -0.000976359 -0.00212447 0.00455172 -0.00323816 0.0012191 -0.00496449 -0.00133783 0.000691199 -0.000942578 0.00121206 0.000465698 -0.00174851 -0.00372549 -0.00460251 0.00225009 -0.00197913 0.00345826 0.00368825 0.00356094 -0.00497465 0.00430235 -0.00381157 0.00457569 0.00185419 0.00264888 -0.00301155 0.00303288 -0.000863494 0.0015964 -0.00227753 0.000947126 0.00366116 0.00276095 0.00206832 -0.000838403 0.000328448 -0.000333065 -0.0041576 -0.00168556 -0.00242887 0.00216838 0.00115715 0.00110721 -0.00375672 0.00170008 -0.00103551 0.00148153 -0.00181778 -0.000299999 -5.88194e-06 -0.00349006 -0.00137311 0.00438546 0.00429944 -0.000440522 0.000484073 0.000748541 0.00197405
故事 -0.00464403 -0.00407217 -0.00494464 0.00356918 0.00470173 0.00483799 -0.00463161 9.8295e-05 -0.0031118 0.000207216 -0.00431239 0.0020494 -0.00193194 0.00193433 -0.00483065 -0.00130036 0.000507346 0.00135068 0.00246757 0.00499448 -0.000750309 0.000118179 -0.00312698 -0.000464159 -0.00254556 -0.00044622 0.00279148 -0.00372848 -0.000998769 -0.000577843 -0.00427821 -0.00189623 0.00267213 0.00172449 -0.000790222 -0.000411561 0.00197109 0.00483107 0.00276741 -0.000245363 -0.00181455 0.00271828 -0.00164043 -0.00169662 0.00334611 0.00161443 -0.000868856 -0.00309075 0.000578982 -0.000600237 -0.00477389 0.00259363 0.00245668 0.00123429 0.000716561 0.00304518 0.00329153 -0.00438833 -0.00054814 0.000787514 0.00407624 0.00186751 -0.000568752 0.000321587 0.00396659 -0.0006388 0.00126108 -0.00273614 0.000820677 -0.00419425 0.00235856 0.00027293 0.00174972 -0.00216054 -0.00255803 -0.00226378 -0.000599719 -0.00305348 0.00412907 0.00483266 -0.00486362 0.00114819 -0.00398402 -0.000724664 0.00323586 0.00443716 -0.000294151 0.00133962 0.00377942 0.00347307 0.00113082 -0.000421712 0.00411898 -0.00445364 -0.00404261 -0.00119178 0.000680683 0.00343547 0.00174063 -0.00103271
评价 -0.00336311 0.00412129 0.00224745 0.00412159 -0.00070491 0.00279434 0.000345921 0.00145109 -0.00206485 0.0024552 0.00324246 -0.00260813 0.00379819 -0.00475711 -0.00187877 -0.00309154 -0.000990128 0.00304689 -0.000217206 0.00314824 -0.0048266 0.00118821 -0.00325496 0.00476342 0.00495936 0.00290017 0.000934841 0.0026675 0.00167028 -0.00458596 0.00493577 0.003839 -0.00272824 -0.00374343 -0.00110412 0.00442812 -0.000402079 0.00199695 0.00499392 -0.00294843 0.00363625 -0.00152037 0.00414237 0.00259883 -0.00481564 0.00480724 -0.000350567 -0.00174456 -0.00315805 -0.00392099 -0.00434486 0.000707715 0.00206216 -0.000477156 -0.00334639 -0.00395486 -0.00330652 -0.000990047 -0.0029272 -0.00317938 0.00350203 0.000814777 -0.00145095 -0.00496625 0.000611227 -0.00054849 0.000277956 -0.00352489 -0.00427657 0.00485625 0.000621034 -0.00113724 -0.00489196 0.000167514 -0.00372763 0.00304321 0.00254458 -0.000630328 0.00337677 0.00360633 -0.00391001 -0.00256779 0.00396996 0.00488341 0.000730904 0.000712708 -0.000545431 -0.00449965 -0.00415524 -0.00123627 0.00401531 -0.00377773 -0.0020927 -0.000571607 0.00261178 0.00118746 0.00378589 -0.00368716 -0.000607927 0.00470426
《 0.00374259 -0.00186296 -0.00109098 0.00282102 -0.00201557 3.52472e-05 0.00214159 0.0047574 0.00173687 -0.0015717 0.00459712 0.000650175 -0.00159319 0.00340872 0.00276638 -0.00394686 0.0044802 -0.00147216 -0.00333058 -0.00361738 0.001229 0.000195851 0.00393058 0.000227142 0.000894176 0.00333027 -0.000155768 -0.00315608 -0.00428913 0.000109276 -0.00353574 -0.0034811 -0.000257871 0.00243209 -0.00250084 0.00312806 -0.00188194 0.000516225 0.00386066 0.00257692 -0.00177335 -0.00492319 -0.0035114 -0.000284284 -0.00262629 0.00289135 0.00166101 0.00245568 0.00449278 -0.00342077 0.00143365 -0.00361717 -0.00221042 -0.0049934 -0.00291388 0.0028375 0.00130118 0.00360161 -0.00411778 -0.00432264 0.00158284 0.00331558 0.00260785 -0.000848457 -0.00220128 0.00456908 0.00365412 -0.00124525 0.00155905 0.00492428 -0.00412474 -0.00491966 0.00189775 -0.00388138 -0.00347826 0.000485594 0.00057392 -0.0031305 -0.0045061 -0.00257244 0.000493285 0.000912955 -0.00497342 -0.00404962 -0.00107823 0.00176567 0.00325271 -0.00449698 0.00195114 0.00495413 0.00448643 0.00328706 -0.000409347 0.00222525 -0.00186127 -0.00358721 -0.00222672 0.00180912 -0.00489598 0.00444569
还 0.00370725 0.00394074 0.000652751 -0.000303317 -0.00136008 0.000148529 0.00496148 -0.00219135 0.00134542 0.00460042 0.00236585 0.00032972 0.00385945 -0.00160009 -0.00403951 0.000450059 0.00260287 -0.00450566 -0.00113806 -0.000828163 0.00255276 -0.00455394 -0.000293935 0.000935445 0.00215048 0.00377941 0.000411556 0.0031886 0.00473676 0.00391385 -7.59058e-05 0.00440001 -0.000546498 0.00245346 0.00258656 -0.00265807 0.00157257 0.00315189 -0.000528409 -0.0018774 -0.000800292 -0.00349543 0.00495877 -0.0047694 -0.00334704 0.00415852 -0.00365131 0.00157317 0.00474231 -0.00400238 -0.00390998 -0.00119688 -0.00339797 -0.00072498 0.00055391 -0.00258551 0.00227987 -1.32643e-06 -0.00175456 0.00438235 0.00257725 0.00260638 -0.00126901 -0.0033095 0.00424544 0.0018135 -0.00387315 0.00213705 0.00354416 -0.00394461 0.000111121 -0.00377968 -0.00374326 0.0042053 -0.00223914 0.000472517 0.00157923 -0.00489482 0.00419235 0.000419391 -0.00141426 -0.00251602 0.00137604 -0.00158899 -0.00442793 0.00137157 0.00455499 -0.00468445 0.00255041 1.66123e-05 0.00113203 -0.00427398 -0.00473447 -0.00168114 0.00499158 -0.000268188 -0.00160428 -0.00475681 -0.00467541 -0.00325852
》 0.00102831 0.00141053 -0.00133949 0.00168054 0.00469935 0.004043 -0.00189669 0.000127788 -0.00427619 -0.00336694 -0.00446074 -0.00119368 0.00244705 0.0006075 0.000144841 -0.00496744 0.00466416 0.002213 0.000343243 -0.00278459 0.00303002 0.00227228 -0.00290634 -0.00452544 -0.00252677 -0.00447184 -0.00320396 0.0019097 -0.00183975 0.000889855 -0.00359685 0.00106732 0.000201126 -0.00402189 0.00208505 0.00274756 -0.00276996 0.000961775 -0.00163394 -0.00217938 0.00277869 0.00340669 0.00401773 0.00140941 -0.00334993 0.00381215 0.00405705 0.00193843 -0.00478259 0.00014632 -0.004974 0.00181267 0.001923 0.000273897 0.0043016 -0.00451435 -5.00477e-05 0.00465305 -0.00261331 -0.00333199 -0.000520334 -0.000223047 0.000115099 -0.00179827 -0.00312861 2.16254e-05 0.00258335 -0.003905 0.00081598 0.00125618 0.000516509 -0.00350884 -0.00354035 0.00055023 0.00200724 -0.00205046 -0.0028391 0.00377428 3.87285e-05 0.00320882 -0.00193222 0.00069805 0.00172715 0.00165223 0.00282153 0.0038436 -0.00367008 -0.00304956 0.00489713 -0.00380389 0.00210429 0.0022253 -0.00162087 -0.00330149 -0.00340823 -0.00412397 -0.00370751 0.00296251 0.000114336 0.0030509
中 -0.00161287 -0.00343185 0.00482688 -0.00169527 0.00241562 0.0015939 -0.000894327 -0.000865941 0.000618142 0.00114898 0.000327792 0.00201898 -0.00121725 0.00425858 -0.000479972 -0.00309281 0.000500133 -0.00221078 0.00142322 -0.00176757 0.00331581 -0.00041615 -0.000899798 -0.00162453 0.00309255 0.00143507 -0.00325126 -0.00276611 0.00232726 0.000929021 -0.00230198 0.00440824 0.00188144 0.000175086 0.000704761 0.00146544 -0.00122848 0.000162553 0.00323061 -0.00198353 -0.00102615 -0.00165829 0.00162086 0.00430164 -0.0016688 -0.00105648 -0.000227178 0.000905056 0.00228665 -0.00229736 0.00182979 0.00186401 0.00470951 0.00498549 0.00102458 0.00200554 -0.00455962 -0.00196376 -0.00439092 -0.000422527 -0.00488505 -0.00380325 -1.824e-05 0.00431492 0.00455298 -0.00317997 -0.00411407 -0.00114853 -0.00446836 0.00123652 0.00462005 -0.000939102 0.00159999 -0.00336579 -0.000648147 0.00460074 0.00464356 -0.00478846 -0.0038084 -0.000747902 0.000884253 -0.0028127 0.00442359 -0.00110515 -5.86825e-05 -0.00228859 -0.00451348 0.00111993 -0.00313834 0.00181757 -0.00107025 0.0011398 -0.00171977 -0.00181497 -0.00216231 -0.00422637 0.00175496 5.0579e-05 -0.00279275 0.000382103
“ -0.000105554 0.00473268 -0.00342193 0.00393413 0.00354907 -7.02623e-05 0.000901166 0.00410545 -0.0038124 -0.00319056 0.00231036 0.00498633 0.00240224 -0.00324858 -0.00305949 0.000577963 -0.00301775 -0.00466448 -0.00233601 -0.000661778 -0.00257008 0.00268417 0.00175267 0.00361091 0.000213791 -0.00387317 -0.00465602 -0.00221985 -0.00214232 -0.00296032 0.000433025 -0.0019657 -0.00450813 -0.00351682 0.00167485 -0.00357186 0.000242528 -0.000273641 0.000650382 -0.00144741 0.00462033 0.00477177 0.00491435 0.00322247 -0.00392479 -0.000704421 0.00226801 -3.66296e-05 -0.00418086 0.00196033 -0.00131856 0.00358727 -2.44368e-05 0.00224361 -0.00233167 -0.00218077 0.00286418 -0.000383538 -0.00132311 -0.00232821 -0.0012292 -0.00183216 0.00195687 0.00219696 0.0016101 -0.00369503 -0.00327305 -5.7231e-05 7.00605e-05 0.00130845 -0.000407547 -0.00137045 -0.00128123 0.00169259 0.00151688 0.00149629 0.00172379 0.00426861 -0.00187668 -0.00226589 -5.91187e-05 -0.000360418 0.00118245 -0.00283764 -0.000485235 -0.000966666 0.0014889 0.000608739 -0.00153977 -0.00368326 -0.00139086 -0.0032969 -0.00186991 0.00229499 0.00114095 -0.000994872 0.00251144 0.004223 0.00432916 -0.00121554
” -0.000393848 0.00270342 -0.00469242 -0.0021053 0.000985428 -0.0026856 -0.00493928 -0.00244143 0.00342 -0.00409836 -0.00349537 -0.00404599 -0.000907131 -0.000582838 0.00342253 0.00141002 0.000711752 0.00102276 0.00194466 0.00343936 -2.95309e-05 0.00391518 0.000764525 -0.00430598 -0.00105621 -0.00155318 0.00462402 0.00277057 0.00421557 0.00187695 0.000259201 0.00134185 -0.0042639 0.00360698 -0.00344552 0.00293275 -0.00255212 0.00258224 0.00268537 0.00160832 -0.00168614 -0.00478888 -0.00228074 0.00148285 -0.00346662 0.0033186 0.00492261 -0.00242749 -0.00419117 -0.00107094 -0.000840979 0.00407314 -0.00388183 0.0004626 -0.00284007 0.000462282 -0.00256245 1.43849e-05 -0.00335968 0.00358403 0.00466531 0.0030667 0.00183249 0.00367688 0.00429825 0.000270155 0.00298516 -0.00472232 0.000855673 -0.00386625 0.00398022 0.00395045 0.00384692 -0.00383863 0.000626661 0.00167451 -0.00279801 -0.00161646 -0.0036644 0.00469705 -0.00348102 0.00249771 -0.00488042 -0.000816144 -0.00122263 -0.00177911 0.00151886 -0.00092499 -0.000217204 -0.00280448 -0.00481186 -0.00431974 0.0042323 -0.00189313 0.00411986 -0.000736544 -0.00369109 -0.00464594 0.000401886 -0.00264545
比较 -0.000724312 0.00131065 0.00197734 -0.00457369 -0.00293519 0.00074132 -0.00400293 -0.0048856 0.00470831 0.00421738 -0.00495276 0.00468573 0.00401586 -0.00374959 -0.000125741 -0.00277301 0.000172169 0.00311223 -0.000613383 -0.00220578 0.00271121 0.00163811 -0.00148315 0.00298886 0.00350453 0.0047809 0.000944757 0.00481227 -0.00353959 -0.00497635 -0.00200797 0.000443472 0.00415697 0.00440226 -0.00328063 -0.000331602 -0.000377881 0.00116704 0.00268874 0.00019836 -0.00304325 2.35677e-05 0.00391194 0.00401074 -0.00358003 -0.00364746 0.00465441 -0.00239495 0.00201505 0.00423821 0.00233322 -0.0028098 -0.0032845 -0.00311383 0.000207409 -0.00480607 -0.00310981 0.00250179 -0.00185618 -0.00451951 -0.00206966 -6.46756e-05 -0.00344915 0.0035226 -0.0010562 0.000559008 0.0015669 -0.00224301 0.00279581 -0.0016744 0.00490492 -0.00261924 0.00107743 0.00140958 0.00283376 0.00326222 -0.00215165 -0.0026776 -0.00466374 0.000384298 -0.00161709 -0.00402253 0.000608679 -0.00441403 -0.00441345 0.00480403 0.0039973 -0.0013327 -0.00224688 -0.00471368 -0.000625923 -0.00411895 0.00363605 0.00174103 -0.00410837 0.000581311 0.00384017 -0.00270607 -0.00363793 0.000208864
次 -0.00453697 -0.00138166 -0.00238978 6.19037e-05 0.00252792 0.00316108 -0.00265726 -0.00214365 0.000465728 -0.00108314 -6.63472e-06 -0.00214152 0.00176506 0.00108941 -0.00274384 -0.000790267 0.00218284 -0.00321736 -0.00128869 -0.00161538 0.000692151 -0.00128895 0.00409558 -0.00439355 0.00417964 0.00235443 0.0046521 -0.00468397 -0.00494259 -0.000956248 -0.00202061 0.00402273 -0.00297313 -0.0013355 -0.00207535 0.00350855 0.000661732 0.0038915 0.000571722 -0.00288173 0.00352027 -0.00316785 -0.00121505 0.000382417 -0.00121681 0.000112533 -0.00396089 0.00469016 0.00339031 -0.00350417 -0.000337661 -0.000143792 -0.00433155 0.0037344 0.00110332 -0.00353199 -0.00163066 0.00483501 -0.00271813 0.00428873 0.00209534 -0.00259328 -0.000554633 0.0024016 0.00471789 0.00189974 -0.00086955 0.00392213 0.00404429 -0.0031736 0.00174805 -0.004905 -0.00318993 -0.00476565 0.00209925 0.000239076 0.00475491 0.000339483 0.0042684 -0.00485875 -0.00361759 0.00217736 0.0042699 0.00101907 0.00490126 0.00384755 -0.00322619 -0.000661615 -0.00334864 0.00477427 0.000118313 0.00332168 0.00228233 0.00492399 -0.0001122 -0.0047292 0.00286432 -0.00460114 -0.00247238 -0.00491444
跟 -0.00332491 0.00357176 0.00167608 0.00482108 0.0032923 -0.00221593 -0.00137756 -6.336e-05 6.50646e-05 0.00277979 0.00400645 0.000201236 -0.00491805 0.00202012 -0.00299495 4.24046e-05 0.00135571 0.000438254 -0.00121239 -0.000316673 -0.0022581 0.00422131 -0.00374655 0.00326223 0.00354109 -0.00451905 -0.00427607 -0.00305111 0.000846538 0.00234486 -0.00110434 -0.00180194 -0.00288718 0.00370351 -0.000693196 -0.00419346 0.00125359 -0.00236961 -0.00194073 -0.00449235 0.00140581 -0.000518604 0.00194316 0.00406787 -0.00280915 -0.000982007 -0.00410894 -0.00388962 0.00334107 0.0037701 -0.000924348 0.00410043 0.000436431 -0.00476404 0.00261881 -0.00225853 -0.00334363 0.000904378 -0.00265046 0.00125096 0.00205544 -0.00462991 -0.0025225 0.00103562 0.00395279 0.0010758 -0.00349039 0.000843947 -0.00457664 -0.00109557 -0.00345121 0.000502291 0.000720756 0.00455401 -0.00147389 -0.00337058 0.00271804 0.00453029 -0.00377364 0.00361965 -0.00495727 -0.00395967 0.00186838 0.00472855 0.00474954 0.00111251 0.00287756 -0.00171802 -0.0032058 -0.00355982 -0.00275004 0.00294139 0.000426527 0.00388202 -0.00455311 0.00310279 0.00462901 0.00410633 -0.00223623 0.00299262
都 0.00118817 -0.00194622 0.00267536 -0.00420359 -0.00204793 0.00149344 0.00361522 0.00226432 -0.00268152 -0.000137066 0.00304515 -0.0014781 0.00217183 -0.000782556 -0.00157877 7.6694e-05 0.00257649 0.00247043 -0.00427601 -0.00186429 0.00133751 -0.00190653 0.00257666 -0.00136212 -0.00257136 -0.00136051 -0.00086262 -0.00355009 -0.00484409 -0.00176705 -0.00378698 -0.00487916 -0.00336237 0.00272875 0.000184947 0.00315103 0.00266902 -0.0027428 -0.00420569 0.00474807 -0.00182038 -0.00162167 -0.00313314 -0.00478803 0.00118375 8.54831e-05 0.00258866 0.0032909 0.00190508 0.00381038 4.79523e-05 0.00388321 -0.00168157 -0.00413918 0.00204406 -0.00463002 -0.000387931 -0.00322918 -0.00485933 -0.00195314 4.87892e-05 0.00456728 -0.00117501 0.00467898 0.00257864 0.00127619 0.00216433 -0.00119678 -0.00108843 -0.000601585 -0.00173514 -0.00415741 0.00253288 -0.00199728 -4.71227e-05 -0.00362713 0.00466652 -0.00442976 0.00199651 0.00193914 0.000716928 0.00488137 -0.000489459 0.00463288 -0.000276712 0.000627275 0.00353081 -0.00278156 0.00387028 0.00085568 0.000933347 0.00267097 -0.00121308 0.00281954 0.00206505 -0.000559936 -0.0048614 0.00194686 -0.00421673 -0.00236461
真 0.00435352 -0.000972189 0.00263855 0.00090747 0.000284913 -0.00279213 0.0016913 0.0024797 -0.00110092 0.00488077 -0.00322286 -0.00102469 -0.000635737 0.00128077 0.00432905 0.00357909 0.00225074 -0.00291232 0.00449099 0.00300721 -0.00114427 0.000998958 0.00138473 0.00245205 0.0014392 0.00265237 -0.00476269 0.00403856 0.00490907 0.00481822 0.00472467 0.00429238 -0.00365565 -0.00261555 -0.00270447 0.00421718 -0.00450004 0.0041524 -0.00494391 -0.00264119 -0.00354029 0.00267421 0.00235452 0.00373382 -0.000445802 -0.00179879 -0.00294819 -0.00449527 0.00107205 0.00274815 0.00125292 0.00450988 -0.000323763 0.00151741 -0.00110046 0.00455699 0.0039693 -0.00130465 0.00245844 -0.000609434 -0.0027336 -0.00296363 0.00395974 -0.00133677 0.00188136 -0.00384869 -0.00145763 -0.0038781 8.51598e-05 -0.00367648 -0.0026257 -0.00473036 -0.00334199 -0.00234045 0.000942978 -0.0041014 -0.00113918 -0.00074999 -0.00423649 -0.00476516 -0.000113995 0.00229694 0.000528819 0.000933637 -0.00145508 -0.00271454 0.00238965 -0.00196119 0.00265616 0.00180045 -0.00497635 0.00024979 0.00319837 -0.00428027 0.00407436 0.00147036 0.00073802 0.00141131 0.00377977 -0.00470573
女朋友 -0.00488253 -0.00495787 0.00348206 -0.00455318 0.000510098 0.000816202 0.00432118 -0.00111332 0.00491932 -0.00457992 0.00305228 -0.00176407 0.0018763 0.00203697 -0.00351279 0.00290885 -0.0038008 -8.61447e-05 0.00055539 0.00126895 -0.00111403 0.00482098 -0.00397601 0.00289694 -0.0013024 -0.00127856 -0.00122917 0.00484889 -0.00499101 -0.00355583 -0.00188899 -0.00252852 0.0026207 -0.000219689 0.00429096 0.00213846 -0.000880387 -0.000546499 0.00485141 0.00371365 -0.00287841 0.00218426 -6.16198e-05 -0.0021363 0.00205984 0.00393035 0.00374695 -0.00122571 -0.00165329 -0.00101973 0.00209322 0.00161968 -0.00163671 -0.000743809 -0.00147054 -0.00101843 0.00121815 -0.00177207 0.00346566 -0.00126088 -1.64848e-05 0.000897465 -0.00373874 -0.00110308 -0.00189354 -0.00441405 -0.00427415 -0.00191735 0.000273759 0.00244457 -0.00148195 0.000358693 -0.00125346 -0.00248962 -0.00473946 0.0024679 -0.00372109 0.00382066 -0.000828699 0.0017329 -0.00111295 0.00227294 0.00127178 0.00279607 0.000654643 -0.00462982 -0.00384988 0.00169064 0.00292068 0.00272157 -0.00295131 0.00418761 0.0040597 -0.00443139 0.00159384 -0.00193818 0.00342904 0.00408297 -0.00329254 -0.000681743
种 -0.00473383 -0.00102427 -0.000136558 0.00038811 0.00447872 0.000271683 -0.00460322 0.000681012 0.000205415 0.00239344 -1.16405e-05 -0.000630246 0.00449614 -0.00259775 -0.00427572 -0.00110004 0.00421872 -0.00186678 -0.00256766 -0.00305011 0.00165708 -0.00364528 -0.00415348 0.0024497 0.000785401 -0.00423735 0.00448734 -0.0019438 0.000879786 -0.00271698 0.00351835 0.00188052 0.000570094 -0.00393948 0.00175225 -0.00101895 -0.00396566 -0.0011948 -0.00223045 0.000713254 0.00106607 -0.00130977 0.00184446 0.00232948 -0.00466298 0.00427906 0.000591692 0.00190401 0.0039758 0.00176585 0.0045962 0.000315463 -0.00349395 -0.000221637 6.49836e-05 0.00174 -0.00223131 0.000470166 -0.000300257 0.00399633 0.000894859 -0.0016868 0.00151237 -0.0019585 0.00495423 -0.00418 -0.000263432 0.00309096 -0.00133362 -0.00466222 0.000318146 -0.00351493 -0.00095031 0.000577398 -0.00169553 4.12935e-05 0.00129573 -0.000478636 -0.00127605 0.00190527 0.00177487 0.00485653 -0.000365783 0.00182647 0.00480735 0.0027196 0.000606916 -0.00466565 -0.00192579 0.00260151 -0.00229315 -0.00416566 -0.00140952 -0.00252868 -0.00435538 0.000298543 0.000240453 0.00262811 0.00234684 0.00322734
什么样 -0.00199112 -0.00487021 -0.00154236 -0.00107876 -0.00237299 0.0042526 -0.0018112 0.0042857 -0.00119433 -0.00238836 -0.00206537 0.00421915 -0.00400737 0.00415128 -0.00442602 0.00174018 -0.00489287 0.000292928 -0.00196406 0.00282819 -0.00199196 0.0011975 -0.00212638 0.00220971 -0.0044059 0.00469823 -0.00318755 -0.00246616 0.00271322 0.0026092 -0.00162435 -0.00490627 -9.20156e-05 0.0038419 -0.00420701 0.00253152 -0.00211289 -0.00152341 0.00495316 0.000466063 0.000921351 -0.00183805 0.000115226 0.000837129 -0.00133443 0.001747 0.00495128 -0.00336203 -0.00308844 -0.00484144 -0.00267308 0.00301143 -0.00370181 0.00353856 0.000555206 -0.00428658 -0.00102308 0.00306619 0.0020205 0.000358328 -0.00480587 0.000498027 0.00257902 0.00179049 0.00423573 0.00371005 -0.00397372 0.00130578 -0.0048088 0.000209614 0.000560801 -0.000348284 0.000210729 0.00304519 0.00412484 0.00456828 -0.00404421 0.00403509 -0.00188071 -0.00496568 -0.00365785 0.00147138 0.00398049 0.00196969 0.00210114 0.00111966 -0.00273982 -0.00472652 0.00315174 0.00434365 0.00348621 -0.00223911 0.000685123 0.00222512 0.0047186 0.00271944 -0.00283344 -0.000949031 -0.00413553 -0.00436434
体验 0.000640309 0.00173766 0.00438352 -0.00164706 -0.00295152 -0.00299068 -0.00245847 -0.00115131 0.00161647 0.00465193 -0.00462607 0.00104065 0.0012461 0.00483049 -0.000697744 0.00372403 0.00419866 0.00256946 -0.00291702 0.000976833 4.48701e-05 -0.00240457 0.00390478 0.000474365 -0.00460107 -0.00188832 0.00472275 0.00375411 0.00198857 0.00368905 0.00306199 -0.00343986 0.000708156 0.00163539 0.00157367 -0.00200408 0.00190758 -0.000412332 0.00186064 -0.00134501 0.000660269 0.00302996 0.00119142 0.004135 -0.00446831 0.00452588 -0.00481576 -0.00227943 0.00422557 0.00197101 0.00102753 -0.00104788 0.00342027 -0.00486533 0.00275552 -0.00203824 -0.0045426 0.00354808 0.00107959 -0.000282883 0.00257181 -0.00357325 0.00213467 0.00317361 0.00287034 0.000722546 8.51703e-05 0.00183823 0.00299418 -0.00159136 -0.00026346 0.000461184 0.000350665 0.00230699 -0.00453913 0.00166969 0.000446978 -0.00496216 -0.000676711 -0.00461648 0.0014358 0.00176617 0.00102312 0.00179114 -0.00408083 0.00417545 0.00277956 -0.0014727 0.00215981 -0.00289582 0.00259957 -0.00307995 0.00374683 -0.0039368 0.0024427 0.000622146 -0.00391015 0.00121721 -0.000564674 -0.00240365
喜欢 0.00182363 -0.0047717 0.00302773 0.0009712 -0.00369593 0.00278454 0.00269622 -0.00365001 0.00147411 -0.000254637 0.000448021 -0.00333622 0.000120882 -0.00375575 -0.00430852 0.00276292 0.0037833 -0.00176639 0.000852667 -0.000510891 -0.00493466 -0.00324937 -0.00243654 -0.00212196 0.00305838 -0.00015865 -0.0031184 0.004699 -0.00282649 -0.00224322 0.00330984 -0.00438587 0.00252353 0.00347407 0.00179896 -0.000824226 -0.000890999 -0.00184712 -0.00382527 -0.000579941 0.00226509 0.0042334 0.00450885 0.00114107 -0.00284705 0.00199414 0.00404854 0.00217143 -0.0028411 -0.00149648 0.00172517 0.00219384 0.00294441 -0.00484944 0.00431891 -0.00141504 -0.00345364 0.00322228 -7.55764e-05 -7.65229e-05 -0.000651911 -0.00471555 0.00209828 0.0047658 -0.000157697 0.00403623 -0.00161571 -3.35541e-05 -0.00153364 -0.00214985 -0.000501845 -0.00372859 -0.0046374 0.000200576 0.00285053 -0.00202539 -0.00394169 0.00235188 0.0026425 0.00222229 -0.0048568 -5.92573e-06 -0.00342825 0.002218 0.00233402 0.00332421 -0.00477444 -0.00142464 -0.00418096 0.00438202 0.00384958 -0.00238888 -0.000441658 -0.00269704 -0.00229905 -0.00323914 0.0029182 0.00257936 -0.00477484 0.00127103
可能 0.00214298 -0.00196314 5.05032e-05 -0.00252196 -0.00365297 -0.00396417 -0.00246199 0.00347469 -0.00448624 -0.00170937 -0.00272501 0.0021777 0.00266152 0.00489352 0.00158674 -0.000257832 0.0017056 -0.0042403 -0.00274904 -0.00296334 -0.00424253 0.00497418 -0.00279554 -0.00375094 -0.00182264 0.00446878 -0.00496706 0.00269444 0.00364491 -0.00188482 0.00472471 0.00347054 0.00320734 -0.000820809 0.00175373 0.00385468 0.00446734 0.00491934 0.000384715 -0.000640689 0.00408154 0.00281301 0.00180465 -0.00153966 -0.00264213 -0.00445395 -0.00491225 0.00239503 0.00322386 -0.000560568 -0.00154492 0.00327821 0.0038581 0.00403554 -0.00399198 0.00481009 0.00186847 0.00316987 0.00069167 0.00445342 0.00336497 0.00418853 0.00453478 0.000983178 -0.00466868 0.00303761 -0.00269726 -0.00180635 0.00194818 0.00167597 0.00201176 0.00144292 -0.00327093 -0.00214417 -0.0038699 0.00333796 -0.00320379 0.00211925 -0.00353735 -0.00283409 0.00289719 0.00392061 0.00152878 -0.0016654 0.00445963 0.00260852 -0.00315758 0.000934344 -0.00138534 0.00312613 0.0024201 7.6637e-05 0.00391088 -0.00115732 -0.00117681 2.35638e-05 -0.0028304 -0.00263649 0.00461604 -0.00370453
要 -0.00329474 -0.00187903 -0.00418426 0.0047916 -0.00291356 -0.00451788 -0.00267962 0.00248003 -0.000803922 0.00350087 -0.00258199 0.00143605 0.000205026 0.00104624 0.00462087 -0.00175119 0.00287932 0.00297617 -0.00260742 -5.44648e-05 0.00178156 -0.00472431 -0.000676443 3.63421e-05 0.00445137 -0.00459163 -0.000620785 -0.00367119 -0.00487469 -0.000514573 -0.00483399 0.00390354 -0.0035119 0.00159049 -0.000554083 0.00291665 -0.00199399 0.00159121 -0.00353941 -0.00223623 0.00118747 0.00258886 -0.00475074 0.00398595 0.00352637 0.00445048 -0.000729573 -4.53651e-06 0.00169249 4.62998e-05 0.0042613 0.000780665 -0.00124501 0.00220766 -0.00413649 0.00324499 0.00430061 0.00329613 -0.00443747 0.00423562 0.00136384 0.0044461 0.000186618 0.000391993 -0.000108915 0.00318777 -0.000718485 0.00271973 -0.00284581 -0.00193656 -0.000636358 -0.000706895 7.09922e-05 -0.000402773 -0.000743881 0.00473497 -0.00305006 -7.63581e-05 0.000476519 -0.000746911 0.00419706 0.000916234 -0.00371419 -0.00383514 0.00201792 0.00194686 0.00212714 -0.000621055 -0.00416755 0.00475238 -0.00377568 -0.00144359 -0.00199229 -0.000857158 -0.00443723 0.00255971 -0.00283189 0.00284833 0.00284992 0.000914131
一起 -0.00266262 0.00161657 0.0014288 0.000546485 0.00333868 0.00400023 0.00439942 0.00456203 0.000886385 -0.00490681 -0.0016666 0.000349327 0.0046432 -0.00190353 -0.000425565 -0.00316483 -0.00355574 -0.000144389 0.000293814 -0.00147037 -0.0047089 -0.00190846 0.00435746 0.00401701 0.00491351 -0.00432955 -0.00333267 0.00248674 0.00220057 -0.00280799 -0.00230119 -0.00162863 -0.00261582 -0.00489463 -0.00368609 0.00243266 -0.000965625 -9.44261e-05 -0.000627632 -0.000668659 -0.00234963 -0.00360066 0.0042393 0.00180009 0.00292248 0.00194734 0.00181332 -0.000828097 -0.00245384 -0.0043787 -0.000613867 -0.00254346 -0.00200349 0.00317474 0.00158205 0.00380618 0.00261698 0.000970288 -0.00193552 0.00325353 -0.000724476 0.00159817 0.00232555 0.00332859 0.000313093 -0.00451919 -0.00349192 -0.00234162 -0.00391387 0.000650085 -0.000172969 -0.0039632 -0.00119145 0.00315532 -0.000573565 -0.00492289 -0.00375847 -0.000338573 0.00220273 0.000821799 -0.00352444 -0.00276097 -0.00474826 -0.00308076 0.00416079 -0.00263615 -0.00419652 -0.00255049 -0.00291885 0.00269299 -0.00118132 -0.00415829 -0.00445021 0.0008988 -0.00341127 -0.00279588 -0.0017811 0.00311162 -0.00259277 0.00486706
做 -0.00219471 -0.00149636 0.000178001 0.0034633 0.00135041 -0.000166528 -0.00232723 -0.00431971 -0.00275652 -0.00112639 0.00390898 0.000422685 0.00436853 -0.00107974 -0.00301868 0.00201848 0.00185702 -0.00427699 0.0023906 0.0035536 -0.00498511 -0.000327496 -6.74107e-05 -0.00206794 0.00283382 -0.00448609 0.00327684 -0.000690952 0.00379866 -0.00370566 0.00367948 -0.00073776 0.00490683 -0.00440942 -0.000113566 -0.0005459 0.00275831 -0.00392814 0.0025062 0.00295876 0.00491153 -0.0049772 0.00388468 -0.00267319 0.00232607 0.00346978 0.004214 -0.0022203 0.00428924 -0.00116703 -0.00435654 0.00384607 0.00371132 0.00100125 -0.00479242 -0.00499457 -0.00462568 0.000525744 0.00171472 0.00356774 0.00381112 8.5121e-06 0.00106861 -0.00090327 -0.00395636 -0.0031198 -0.00206358 -0.00102342 -0.00183458 -0.000533915 0.0022751 0.00291513 0.00365163 0.00441 0.00311394 0.00344792 0.00459722 -0.000899871 0.00493545 -0.00100517 4.08002e-05 0.000145383 0.00186966 0.00153434 0.00213808 0.00239433 0.000750874 0.00244986 0.00320479 0.0010961 0.00364329 -0.000652508 -0.00187683 -0.00491339 0.00113225 9.36559e-05 0.00014643 0.00202974 -0.00422871 -0.00289958
或者 -0.00477845 -0.00445943 -0.0021063 -0.000120657 -0.00480289 0.0047948 0.00300677 -0.00191061 -0.00386073 -0.0018747 -0.000885821 0.000205856 -0.00352692 0.00372494 -0.00174804 0.00299806 0.0046166 0.000446097 0.00302431 0.00332424 -0.00201162 -0.000668576 0.00292138 -0.000747843 0.000891819 0.00255017 -0.00244012 0.00430367 -0.00396794 0.00308791 -0.0048257 -0.00225797 -0.00416189 0.0012506 0.00210706 -0.0036822 -0.00426251 -0.00026642 5.794e-06 -8.93596e-05 -0.00456027 0.00192332 0.002307 -0.00069846 -0.00259281 -0.00149753 0.00318864 0.00214866 0.00435079 0.00329578 0.0018998 0.00382899 -0.00237763 0.00258738 0.00011622 0.0033156 0.00295579 5.87266e-05 -0.000962334 0.00454178 -0.00460111 0.00357709 0.00309398 -2.70585e-05 -0.00217231 0.000522337 -0.00335087 -0.00310049 0.00367308 0.000972733 -0.000858764 -0.00446189 -0.00446825 0.00314256 0.00237738 0.00494728 -0.00128444 -0.00322503 -0.00321788 -0.00329164 -0.00146159 -0.000916349 0.00317439 -0.00159149 0.00346624 0.000219759 -0.00100417 5.76122e-05 0.00358778 0.00418587 -0.00462612 -0.00464954 0.000496171 0.00217944 0.00358204 0.00227972 0.00432369 -0.00368366 0.00280325 0.00336028
什么 0.00415636 -0.00241049 0.00241396 -0.00404446 -0.00311656 -0.00486965 0.00212278 -0.00347042 -0.00155937 -0.00255831 0.00184095 -0.00475987 0.00102344 9.38511e-05 -0.00413048 -0.00379318 0.00415371 0.0017792 0.00205113 0.00338601 -0.00125689 3.83622e-05 -0.00316833 0.00267323 -0.00248483 -0.0049486 0.00300445 -0.000749091 0.0017512 -0.00418799 -0.000794321 -0.00150075 -0.00263965 0.00469479 -0.00369911 0.000200349 -0.0042112 0.00201975 0.00192116 -0.00193823 -0.000352742 0.00229832 0.000776987 -0.000568225 -0.00231216 -0.00469889 -7.78133e-05 -0.00393449 -0.00481137 0.00221843 0.000409379 -0.00441 0.00402046 0.00363403 0.0012665 0.00205087 0.00298779 -0.00101596 0.00293481 0.00469915 -0.00198992 4.50182e-05 0.00361912 -0.000896798 -0.000696478 0.00338613 0.00250109 0.00450119 -0.00338922 -0.000201111 0.000248633 -0.00132537 -0.00340206 -0.00036632 -0.00257885 0.00351897 -0.000313851 0.00437401 -0.000123082 -0.00408686 -0.00468911 0.000104043 -0.0016711 -0.000197632 3.2395e-06 0.00448685 0.000107415 0.00137379 0.00135491 -0.00478089 -0.0039657 -0.00439548 0.00119941 -0.00147479 -0.000534774 -0.00166727 0.00076175 0.000489531 0.00269788 0.00442611
让 -0.00322687 -0.00293946 -0.000377916 -0.00180343 6.49475e-05 -0.000998433 0.00358795 -0.00321317 0.00101012 0.00364669 -0.00409 0.0037456 0.00313567 0.00459094 0.00331015 -0.00398143 0.00323772 -0.00298373 -0.000850928 0.00192854 -0.00148707 -0.0038905 0.00326068 0.00344837 0.00426849 0.00342315 -0.00401836 0.000913274 -0.000936508 0.00341702 0.000795096 0.00321225 0.00222135 -0.00105355 0.00469957 -0.00170152 -0.00423613 0.00387915 0.00437187 0.00408718 0.00457593 0.00187334 0.00133986 0.00499929 -0.00186878 -0.00456406 0.00376368 -0.00257497 -0.000351903 0.00163979 -0.0011556 -0.00424685 -0.0015986 0.00393054 0.00147264 0.00250133 0.001402 -0.0031072 -0.00332594 0.00350187 -0.00115951 -0.00081231 -0.00450342 0.00331528 -0.00324325 0.00105851 0.000945145 0.00241428 -0.00290338 0.00103049 0.000561269 0.00324618 -0.00459989 0.00323615 0.00389391 -0.00172275 0.00263407 -0.00379941 -0.00444853 -0.00312063 -0.00188198 -0.00123466 0.00180104 0.00484045 -0.00433749 -0.00114442 0.00103498 -0.00425442 0.00101677 0.0013123 0.00499239 -0.00397195 0.000124103 -0.00442753 -0.00216556 -0.00497099 -0.00431147 -0.001561 0.0036886 -0.00107774
、 -0.0031616 -0.000796185 -0.000129423 -0.0040029 -0.0039889 -0.00296259 0.00478573 0.00163126 0.00325854 -0.00193297 -0.00146116 0.0015544 -0.00142702 -0.00385453 0.000767549 0.00243496 0.00387786 0.00104198 -0.0020414 0.00201052 -0.00489293 0.00221116 -0.00062533 0.00166615 -5.43594e-05 -0.00108931 0.00392096 0.00417601 0.000302321 0.00396329 0.00148346 -0.00224054 -0.00399577 -0.000432721 0.00350097 0.00375321 0.00388537 0.00107388 -0.000459259 0.00365825 0.00375021 -0.00323214 0.00272573 0.00269193 -0.000377079 0.000119051 -0.00263735 -0.00374378 -0.00448609 0.000666924 -0.00333995 -0.00109411 -0.00140712 0.00324649 -0.00450409 -0.00378458 0.00379445 0.000156044 0.000947071 0.00458826 0.00485472 -0.00470167 -0.00449698 -0.00381655 -0.000431294 0.00311715 0.0042975 0.00117078 -0.00263436 0.00173765 -0.00170972 -0.0042521 0.00354034 0.00248178 0.00299618 -0.00266811 0.0011826 0.0039178 -0.00133234 -0.00235784 -0.00165604 0.00202672 0.00251586 0.00173465 0.00406301 -0.00264741 0.00315289 0.000615418 -0.00385225 0.000792718 0.00225583 -0.00116776 -0.00202808 -0.00379338 0.00379947 0.00283654 0.000136937 -0.0035993 0.0041128 0.000667886
意义 -0.00458953 -0.00401714 0.000853841 -0.000508098 0.00190695 0.00347709 0.00295403 0.00446754 -0.00250032 -0.00423867 0.00254984 -0.00494584 -0.00270274 0.00198872 0.00287751 -0.000908996 -0.00235818 0.00111494 -0.00418753 -0.00423179 -0.00186168 -0.00244785 0.00139145 0.000960096 0.000213555 0.00161513 0.00387494 0.00236863 0.00104168 0.00380205 0.00216695 -0.00276506 0.00265841 0.00291182 -0.00213097 -0.00350255 0.00375271 -0.00413129 0.00426745 0.00313284 -0.000293104 -0.0035788 -0.0026373 -0.00336042 0.000919343 -0.00356327 -0.00272517 -0.00354969 7.15429e-05 -0.00247443 -0.0037198 -0.000538601 -0.00018342 0.001762 -0.00488119 -0.00331915 0.0017056 -0.00263692 -4.38235e-05 -0.003323 -0.00422653 -0.0032417 0.00471444 -0.00203273 0.00108627 -0.00100668 5.95813e-05 -0.000687869 0.0037813 0.0010742 0.00174565 0.00350266 0.00044264 -0.00133114 0.000319511 -0.0046652 0.00110587 -0.00263937 -0.00493827 0.00364561 0.00447212 0.000632108 -0.00214144 -0.00254395 -0.00113343 0.00381726 -0.00199989 -0.00175552 -0.000565825 0.00405457 -0.00106723 0.00406716 -0.00191579 0.00489917 -0.00204637 -0.00079622 0.00340452 -0.00380874 0.00471236 0.00384773
长 0.00419264 -0.00264026 0.000296736 0.00399213 -0.00109435 -0.00460772 -0.00413977 -0.00386221 0.00289454 -0.00466349 -0.00201687 -0.00101492 -0.00464943 -0.00409019 0.00340356 -0.00105274 0.00273014 0.0042559 0.00220604 0.0010683 -0.0027102 -0.00172329 -0.00120393 0.00288391 0.00351801 0.0023534 0.00458314 0.00247904 0.000237773 -0.000758885 -0.00136504 0.00451344 0.00191623 0.00154302 0.00076209 -0.000799124 -0.0035244 -0.00110318 -0.00444969 -0.0014452 -0.000496189 -0.000102191 6.92954e-05 -0.00192142 -0.000214546 -0.000923404 0.00306953 -0.00470128 -0.000619307 0.00490466 0.0039984 0.0010914 0.00412916 -0.00339264 0.00471033 0.00405354 0.00285273 -0.00172439 0.00166138 0.000665419 0.00230162 -0.00189934 0.00194835 0.00265108 0.00057812 -0.00347907 -0.000679775 -0.000594579 -0.00345103 0.00157029 -0.004178 -0.00158958 -0.00338647 0.00173332 -0.00364184 0.00430876 0.00204923 -0.00102472 0.000867805 0.00210086 0.00066267 -0.00189138 -0.00475031 0.000467106 9.31442e-05 0.000339738 -0.00497313 -0.00170533 -0.0022546 -0.00365652 -0.000572347 -0.00192541 0.00309772 -0.00271023 -0.00146722 0.00207139 -0.00482615 0.00280534 -0.00155164 0.000967283
经历 0.00420044 0.000110904 0.00309384 0.00334294 0.00255708 0.00152859 -0.000661472 -0.00129196 -0.00228353 0.00259065 -0.00424935 -0.0039437 -0.00392486 0.00274139 0.00442847 -0.00240196 -0.0035452 -0.000476382 0.00443271 0.000202507 0.000842667 0.000579915 -0.00171248 0.00159192 -0.00450674 0.00165494 -0.00438089 -0.00152864 -0.00346418 0.00256703 0.00212488 0.00267116 0.000987845 -0.00098513 0.000829469 -0.00493809 -0.000485531 -0.000127003 -0.00380339 -0.00281523 0.000961737 0.00258369 0.00447074 -0.00305035 -0.00390867 -0.0032493 0.00245048 0.00175786 0.00302961 0.000513733 0.00220861 -0.00350898 0.0033635 -0.000798663 0.000590525 0.00217334 0.000271995 -0.00112966 -0.00487655 -0.00112076 -0.00152712 0.00444846 -0.00427862 0.00157084 -0.000547924 0.00172951 -0.000496597 -0.00345669 -0.00134865 0.00263803 -0.00272178 -0.00225633 -0.00281243 0.00358293 -0.00203636 0.0024911 -0.0014836 -0.0035523 0.00110924 -0.00166542 -0.00136415 -0.000134269 0.00437011 0.00108218 -0.00118572 0.000445187 -0.00403928 -0.000319881 -0.00134578 -0.00101343 -0.00456687 -0.000392684 0.00180775 -0.00165739 8.14766e-05 -0.00191718 0.001306 0.00394989 0.00144132 -0.000478751
事 -0.00309225 -0.00219559 0.00129167 -0.00437714 -0.00309819 0.00397316 0.000189695 0.00129398 0.00306476 -0.000640039 -0.0046345 0.00483083 0.00405432 0.00307976 0.00230469 -0.0019015 0.00322179 -0.00395989 -0.00424136 -0.00122575 -0.00195927 -0.00192503 0.0013838 0.00156308 0.00390912 -0.00319583 0.00158721 -0.00167745 -0.00246549 -0.00483591 -0.000325487 -0.00416551 -0.00413008 -0.00064711 -0.0040642 -0.00122568 0.00228962 0.000191673 0.00416575 0.00176375 -0.00252892 0.00480207 0.00420483 0.00281174 0.000472643 0.0011081 0.00051351 0.00383265 -0.00187794 -0.00289264 0.000382602 0.00465295 -0.00175992 -0.00152234 -0.00217769 -0.00215583 0.00347891 -0.00420254 0.00382224 -0.00208199 -0.00339706 -0.00240926 0.000597181 -0.00334355 -0.00441514 -0.00405133 -0.00136441 -0.0002682 -0.00275551 0.000898815 0.00219062 -0.00367014 0.000140895 0.00106431 -0.00269147 -0.00259883 -0.00319061 0.00476807 -0.00373007 0.00289078 -0.0019753 0.00241482 -0.00284965 0.00372721 -0.00184209 0.00469736 0.000601496 -0.00454536 -0.000799598 -0.00384617 -0.0019492 -0.00326927 -0.00479904 0.00231218 0.0037074 0.00429326 -0.00343713 0.00429344 2.36003e-05 0.00290936
怎样 0.00382124 0.000699076 0.00370553 -0.00331821 0.00264081 -0.00134424 -0.000612384 -0.00188303 0.00148271 0.000353411 0.00475188 0.00314492 0.00410579 0.00416884 0.000272249 -0.00148113 0.00493152 -0.00336932 -0.00385017 0.00168622 0.000881846 0.00159577 0.00490458 -0.0033199 0.00275329 -0.000692586 0.000474842 0.000941866 0.00209835 0.00297909 0.00348997 -0.00348416 -0.000725475 -0.000215274 -0.00375426 5.63849e-05 0.00299031 -0.003073 0.00185516 0.00233413 -0.00471899 -0.00196443 0.0026313 -0.00143691 0.0036993 -0.000153758 -0.00421106 0.00300377 0.000129249 0.00362832 0.000790111 0.000677943 0.00176451 -0.00102267 0.00239487 -0.00423078 -0.00205733 0.00391769 -0.00236381 -0.00237613 0.00232982 0.000685603 0.00202073 -0.00293479 -0.00322644 -0.000102129 -0.0026948 -0.00234897 -0.000729045 -0.00129422 0.000187684 0.000995205 -0.00427148 0.00215476 -0.00490879 0.0041364 0.0011068 0.00477927 -0.00155597 0.00245778 0.000490842 0.000285202 -0.00226832 0.00108175 0.00365915 0.00358979 0.00383721 -0.00423457 0.00247695 -0.00416534 -0.00055052 -0.00418551 -8.88735e-05 -0.00110115 -0.00120595 -0.00406362 0.00368062 0.00457647 0.00313458 -0.00145375
中国 -0.00224891 -0.000174369 -0.0018211 0.00262763 -0.00229418 0.00431892 -0.0017923 -0.0026951 -0.00105137 0.00314842 0.00195645 0.00251091 -0.0022943 0.00359586 0.00275779 -0.00283004 0.00415743 0.00452079 -0.00247339 0.000194099 0.00448424 -0.0029705 -0.00339121 0.00195609 0.0031781 0.00291972 -0.00451724 -0.0025785 0.00359718 0.00306097 -0.00161936 -0.00309748 -5.41636e-05 0.0022297 -0.00275798 0.00335572 -0.00194537 0.00405937 -0.00151544 -0.00212956 0.00344502 0.00310459 0.00459444 -0.00258189 -0.00156236 0.00490449 -0.0034122 -0.00186261 0.00457185 0.0026344 0.00491309 0.000802474 0.000885325 -0.00480204 -0.000218265 0.00434645 -0.00405316 -0.00223477 -0.0033638 0.002351 -0.00101611 0.00461196 -0.00135961 0.0017214 -0.000514516 -0.00388091 0.0039674 -0.00146122 0.0049424 -0.00354399 0.00264151 0.00490146 0.00159203 -0.00392846 0.00325253 0.00348653 0.000888731 -0.00160194 0.00206699 -0.000310958 -0.000541228 -0.0048875 0.00452543 0.00137592 0.00200775 -0.00168773 -0.00296726 -0.000860532 -0.0022653 -0.00295782 0.00100991 -0.00389598 0.000179105 0.000613701 -3.24564e-05 0.00402602 -0.00481626 0.000426432 0.00160606 -0.00321156
会 0.00228019 -0.000141617 -0.00296931 0.00418992 -0.00223263 -0.00458347 -0.00165091 -0.00387278 0.000767553 -0.00310836 -0.00456275 -0.00142077 0.00420657 0.00341944 -0.00447958 -0.00409805 -0.00488 -0.0043863 0.00245766 0.00238307 -0.00317635 -0.000746373 -0.0016358 -0.00268344 -0.00475911 0.000154641 0.00325319 0.00435949 0.00327478 -0.00186148 -0.00281517 -0.00451132 0.00345687 -0.00453454 0.00497237 0.0024576 -0.00208082 0.00196292 0.000274605 -0.00222221 -0.00483523 0.00138588 -0.00303848 0.0031135 0.00311672 -0.00216329 -0.00286509 0.00302773 0.00280712 0.00470002 -0.00487049 -0.000888921 0.00483701 0.00419274 0.000155237 0.00341563 0.00229473 0.00477155 0.00363231 0.00125216 -0.00451906 0.0020859 -0.00466745 0.00212034 0.00294074 -0.00431645 0.00304704 -0.00154424 0.000122549 0.00287702 -0.000452326 0.000268623 0.000855063 -0.00313412 0.00288902 0.00423073 0.00286875 -0.00426913 0.000399804 -0.000457076 0.000881574 -0.00243258 0.00141652 0.0046338 -0.00415047 -0.0011139 0.00321131 -0.00148251 -0.000763505 -0.00455737 0.00229501 -0.00430188 -0.0012137 0.00289597 -0.00315585 0.00244878 0.00453615 0.00468964 -0.00331285 -0.00406689
对 0.00131305 -0.00276467 -0.00468704 -0.00321166 -0.000766494 -0.000678847 -0.00347143 -0.000102829 -0.00421057 -0.00364143 0.00263445 -0.00302735 0.00191775 0.000151514 0.000872115 -0.000309788 0.00251112 -0.000265022 0.00417962 -0.00188456 0.00124145 0.00283042 0.000321884 0.00349287 0.0021769 0.00365368 0.00331285 -0.000803673 -0.00289343 -0.00188073 0.00257944 0.0046078 -0.00176323 0.00148134 -0.00140469 0.00350457 0.00492354 0.00320368 0.00228443 0.00324628 -0.00100238 0.00222376 -0.00273384 0.000104264 0.000376956 -0.00315923 -0.00111842 -0.00191792 0.00416208 0.00188884 -0.00348228 0.00191124 0.000900347 0.00277208 -0.00103884 0.00280134 0.00446331 0.00396114 -0.00337397 -0.00464569 0.00343003 0.00341735 -0.00236984 0.000177089 0.0010757 0.000480871 -0.0010428 0.00257224 -0.00178476 0.00491078 -0.00174532 0.00344836 -0.00308422 -0.000171239 0.00344878 0.0014918 -0.00376006 0.00222027 0.000636264 0.000322751 -0.00370088 0.000853589 0.00176684 -0.00446748 -0.000496658 -0.00143389 0.00409675 -0.00368171 0.00434841 -0.00425731 -0.00232601 -0.00479272 -0.0016686 -0.000159415 0.00234626 -0.00322925 -3.79608e-05 0.00284992 -0.00336637 7.34166e-05
影响 -0.00475698 0.0041407 0.00340329 0.00226567 -0.000380113 -0.00173518 -1.47086e-05 -0.00405612 -0.00489443 -0.00159498 -0.000637717 0.00416688 -0.00173553 0.00307732 -0.00186184 0.00229395 0.00385875 0.00081984 -0.00147539 0.00313619 0.0028313 0.00287338 -0.00270867 0.00240305 -0.00125268 0.00194739 0.0046468 0.00225565 -0.00200631 0.00362957 0.00349159 0.00423339 -0.00224485 -0.0032435 0.000396522 0.000255147 -0.00288395 0.0046212 0.00303762 -0.00167498 -0.00448149 -0.00378693 0.000333726 -0.00065622 0.00102862 -0.00140372 0.00474998 0.00305434 7.28002e-05 0.0038973 -0.00305683 0.00472464 0.0049092 -0.00485225 -0.003295 -0.00197365 0.000179768 -0.00475191 0.000350949 0.00213553 0.000873072 -0.00217605 0.000669379 -0.00454836 0.00354624 0.000569824 0.000341198 0.00303252 0.00258642 0.00251777 -0.00107819 -0.000466554 0.00306805 -0.00450415 -0.0032794 -0.00217524 -0.00174433 0.000441568 0.00116228 0.00382973 0.000336283 0.00343885 0.00185583 0.001496 -0.00394198 0.00225335 -0.000611117 0.000959199 0.00151481 -0.00219187 -0.00167883 -0.000214125 0.00235251 0.00370857 -0.00377982 -0.00443556 0.000569723 -0.00265585 -0.0028096 0.00233186
了 0.000847293 -0.00282427 0.00478875 -0.00319758 0.00306001 0.00339022 -0.00326979 0.00475774 0.000697278 -0.00279537 0.00193979 -0.00252647 0.00104978 0.000218103 -0.00284677 0.00136426 -0.0001339 0.00148877 0.00174415 -0.00478226 -0.00394568 -0.000176826 -0.0035339 -0.0037634 0.0013218 -0.000981995 -0.00102323 -0.00435766 0.00151147 0.00359423 -0.00215532 -0.00103893 0.0017224 -0.00192813 -0.00416968 -0.0042882 0.00295287 -0.0023667 -0.00356201 0.000625391 -0.000967983 -0.0022103 0.00419728 0.00352041 -0.000487995 0.000587235 0.0011735 0.000355045 0.00143063 0.00067208 0.002897 0.00411497 -0.000650887 -0.00466536 0.000506751 -0.00344647 -0.00310152 0.0016974 0.00290286 -0.00208587 0.00119162 0.00291147 0.00454715 0.00182899 -0.00256371 -0.00254497 -0.00461582 0.00342558 -0.000201867 0.00328246 0.000790605 -0.00347752 0.00372462 0.00444938 -0.00344408 -0.00374711 -0.00155868 -0.00423993 0.000531283 -0.00301319 -0.00403632 0.00197436 -0.000517142 0.00199097 -0.00336844 -0.0031539 0.00136221 -0.00298367 -0.00240901 -0.0044117 -0.00011352 0.00380574 -0.00197099 0.00427229 -0.00230317 -0.00136139 0.00143844 -0.00179399 0.00475868 -0.00197128
吃 0.00268092 0.00286442 0.00493491 -0.0010194 0.00408211 0.00171491 -0.00128586 -0.00371119 0.00461777 -0.00307091 0.000411095 -0.00415796 -0.00253831 0.00252162 -0.00390219 -0.00409131 0.00363668 -0.000220009 0.00197836 0.00354808 -0.00187677 0.000744156 0.00276393 0.00243821 -0.00346454 -0.00467501 -0.00150155 0.00390098 0.00388333 0.00202388 0.00223567 -0.00290309 -0.00346112 -0.000161356 -0.0012826 -0.00108284 -0.00425787 0.00406479 0.00225067 -0.00276554 -0.000848416 0.00307572 -0.00105387 0.00303146 0.00242595 0.00155778 -0.00362771 -0.00253396 0.00439688 -0.00238291 0.00386122 0.00233183 -0.0011551 0.00146229 -0.00141762 -0.000168455 0.0022188 0.00487015 -0.00491794 0.0048669 0.00132807 -0.00314026 -0.00148156 -0.00265077 -0.00244816 0.00491957 0.00211021 0.00490539 -0.00163945 0.00144042 -0.00448843 0.00472976 0.00136076 -6.69425e-05 0.000336 0.000672968 0.00448019 -0.000450153 -0.00316166 -0.000540155 0.00121162 -0.00181892 -0.00194718 0.000836253 -0.000868511 0.00324292 -0.00351239 0.00336553 0.00189123 -0.00266163 0.000365498 0.0040443 -0.00218785 -0.00289521 -0.000777559 0.00109259 0.00350048 -0.00491662 0.00454081 0.00330009
男人 0.00389483 -0.00381657 0.00279388 -0.00104579 -0.00296821 -0.00403344 -0.00335743 6.24605e-05 0.00162115 0.00111422 -0.00312758 0.00396771 -0.00145663 0.00195186 0.00346097 0.00180052 0.00285344 0.00162872 -0.00419556 -0.00374059 -0.00242604 -0.00107212 0.00368973 0.00447607 0.00443441 -0.00350147 -0.00128928 0.00193529 -0.00116347 0.00429008 -0.000320623 0.00458211 -0.00429636 -0.00482809 0.00439839 0.00469202 -0.00164578 -0.00135807 -0.000597363 -0.0041996 0.00230207 0.00195611 -0.00392806 0.00393178 0.00297538 -0.00123851 -0.00060727 -0.00348412 0.000917931 0.00239241 0.00304958 0.00380956 0.00322218 -0.00234906 0.00103564 -0.00261804 0.00470316 -0.000375343 -0.000178755 -0.00358849 0.0037286 0.0041221 -0.000994006 0.00417943 -0.00108603 -0.00202686 -0.00369317 -0.00342148 -0.00189957 0.00245319 0.00499532 0.00355581 -0.00285188 0.00447969 -0.000237414 0.000559009 0.00198582 0.00207308 0.00266878 -0.00380598 0.00248439 -0.0042853 -0.00237873 -0.000900524 -0.00441341 0.00451596 0.0044239 0.00482931 0.00116243 0.00197435 -0.00299759 0.00319525 0.00219924 0.00293318 -8.0883e-06 0.00388128 0.00030783 0.00253882 -3.36771e-05 0.00229786
哪 0.00366342 0.00155553 -0.00191529 0.00402779 -0.00324097 0.00468784 -0.00300017 -0.00113957 -5.90582e-05 -0.00251465 0.00311197 0.00381506 0.00176756 -0.000288681 0.00145012 -0.00387357 -0.00341586 0.00039818 -0.00277673 -0.00149521 0.00319366 -0.000128928 -0.00305909 0.00129294 -0.00189418 0.00373635 -0.00251637 -0.00138567 0.000711952 -0.00189643 -0.0026404 -0.00439304 0.00234694 0.00186733 -0.00346111 0.0014045 -0.00291223 -0.00217379 -0.00293736 0.00455556 -0.00214579 0.00418138 0.00446979 -0.00266454 0.00195542 0.00106774 -0.000908718 0.000722523 -0.00144197 -0.000591112 0.00129049 -0.000990708 -0.000812437 0.00133194 0.00198756 -0.00143018 0.0022385 -0.000130914 0.00484609 -0.00157111 -0.000428305 0.00384427 -0.00159221 -0.00214967 -0.00110369 0.00273356 0.00148311 -0.00109506 0.00193061 0.00256878 -0.0015049 0.00351948 -0.000962471 0.00318266 -0.00239548 0.000107984 0.00222428 -0.00193091 0.00289651 -0.00261014 0.00165692 -0.00216181 -0.0030117 0.00222175 0.00318594 0.000245801 -0.000190061 -0.00340159 -0.000777395 0.00309169 -0.00408468 -0.00217738 -0.00154827 -2.05421e-05 0.00411809 -0.00164614 -0.00352885 -0.000663203 0.00451066 -4.19047e-05
感觉 -0.000584766 -0.000633323 -7.2455e-06 0.000916319 -0.00478284 -0.00119281 0.00327081 -0.00104023 0.00378035 0.00360127 -8.59225e-05 0.0015862 0.00187407 0.00329027 0.0040339 0.00230122 -0.000597234 -0.0019432 -0.00183268 -0.00494471 0.00201678 -0.00110393 -0.00315197 -0.00117558 -0.00220096 -0.00255081 0.00104928 -0.00033666 -0.00460226 0.00282319 0.00270512 0.00289371 0.00168106 -0.000339511 -0.00466781 0.00101403 0.00311964 0.00090665 -4.43436e-05 -0.000919921 -0.00240835 0.00204225 0.00239098 0.0039028 -0.00160317 -0.00158948 0.00400712 -0.00389139 0.00470074 -0.00216616 0.0031813 0.00142994 -0.00398528 -0.00437628 3.3632e-05 -0.00449075 0.00219013 0.00310314 -0.00431998 -0.00309003 0.00315324 -0.00148094 -0.00454845 0.0035599 -0.00118184 -0.00228011 -0.00452916 -0.00122086 0.000161614 0.00139384 0.00189108 -0.000364587 -0.00273063 -0.00357418 -0.0025659 -0.000527607 -0.00394632 -0.00449829 -0.0031788 -0.00247956 -0.00265359 -0.00161415 0.00228356 -0.00231725 0.00204753 -0.00465405 -0.00445789 0.00349514 -0.00297309 0.00194315 0.000829296 -0.00236083 -0.00134708 -0.00480781 -0.001703 -0.00160724 -0.00142855 -0.00349864 -0.00313356 -0.000117681
能 -0.00108758 0.00290559 -0.00406013 -0.00449547 -0.00436351 -0.000496826 0.00450464 -0.00370966 -0.00309768 -0.00375694 -0.00271879 0.00358093 -0.00248129 -0.00250739 0.00115108 -0.00329134 0.00399588 -0.00445965 0.00269776 -0.000150903 0.00398437 -0.000245997 -0.00416654 0.00344751 -0.00211282 -0.00191151 -0.00494909 -0.00147107 0.00271413 0.00318792 -0.00470207 -0.00291694 -0.000505836 0.00445643 -0.00301273 0.00134179 0.00198051 -0.00300917 0.00413707 -0.000326954 0.00171501 0.00172745 -0.00379246 -0.00218796 0.0015013 -0.00125059 0.00478512 -0.00217038 0.0042815 -0.000479551 0.00378718 -0.00256564 0.00199475 -0.000159767 -0.00158082 0.0017864 0.00282558 0.00490082 0.00427477 -0.000745238 -0.000868514 -0.003177 -0.00414919 -0.00414588 0.00391251 -0.000197492 -0.00468592 -0.000462232 -0.00460078 -0.00103603 -0.00338485 0.000508032 -0.00217517 -0.000405133 -0.000586296 0.00332068 -0.00275693 -0.00170986 0.000670908 -0.00158425 -0.000150875 0.00434803 0.00151624 0.00123719 0.00188994 0.00302482 0.000521685 -0.00250571 0.000448164 -0.00456859 0.00472657 0.00268193 0.00271262 -0.00489831 -0.00353712 0.00416 0.00129234 0.00461411 -0.00384298 -7.3002e-05
关于 -0.00366472 0.00420343 -0.00142614 0.00231367 0.00044467 -0.000277351 -0.00496859 0.0044317 -0.00242668 -0.00380289 -0.0035965 -0.0048662 0.00317583 0.00194823 0.0044756 0.000152757 -0.0026251 -0.00240733 -0.00416972 -0.00293713 -0.00300588 0.00384561 1.53139e-05 -0.000349696 0.00223935 -0.00269285 -0.00335377 -0.00105266 -0.00166254 -0.00195169 -0.00290525 0.00408358 -0.00300914 -0.00451966 0.00313247 0.0026944 0.000642453 -0.00153134 0.00401872 0.00255445 0.00285788 -0.00183842 0.00261114 -0.00343589 -0.00172504 -0.00170612 0.00333724 -0.00157639 -0.00437906 -0.00172339 -0.00376372 -0.001583 0.00424414 -0.00224424 0.000991234 0.00487201 0.000950654 0.00207709 -0.000741264 0.000827199 0.00454115 0.00113794 0.00306721 -0.00208891 0.00118405 0.00140673 0.00174299 -0.00263919 -0.00444602 -0.00472876 -0.0038097 -0.00134077 0.00337002 0.00343879 -0.00262724 -0.0034146 0.00373756 -0.00150828 -0.00137872 0.000112877 -0.00139867 -0.0042449 0.00494971 -0.00146042 -0.00229173 0.00388607 0.00301961 -0.00491848 0.00393736 0.00254496 -0.00107105 0.00129438 0.000740376 0.00173649 -0.00430187 0.00253016 0.00183432 0.0026709 -0.00104496 0.00423774
是否 -0.0010267 -0.00248992 0.000391291 -0.00217842 0.000973321 -0.00140211 0.00083999 0.00295646 -0.000353144 -0.00391109 -0.00145833 0.00259858 -0.00358989 0.00167638 -0.00335363 0.00389016 -0.000692559 -0.00260549 0.00482008 0.00143071 0.00151403 -0.00189982 -0.00160252 1.62226e-05 -0.00419764 -0.00317243 -0.00474811 -0.00277607 0.004405 -0.00188961 0.0044421 0.00437556 0.0041951 0.000999124 0.000101411 0.0049098 -0.00387164 0.0049033 -0.0042579 0.00444977 0.000308394 -0.00238113 -0.00303629 -0.0021477 0.000128705 -0.00151936 -0.00214439 0.00152972 -0.000891326 -0.00321472 0.00145638 -0.00484523 0.00139168 0.00243897 -0.0042178 0.00347271 0.000968388 -0.00143519 -0.00437571 -0.00179612 0.00239379 -0.000701112 -0.00460859 0.0037669 -0.00314258 -0.00455429 0.00476913 -0.00281219 0.00387347 -0.00341133 -0.00202523 0.00419076 0.00383571 -0.0001678 -0.00345777 -0.00457231 -0.00273474 0.00403419 0.00475442 0.00209973 0.00475068 0.00263146 0.00310158 -0.000872849 0.00438013 -0.00337998 0.00091501 0.000978739 -0.00464878 0.00301785 0.0021775 -0.00228599 0.00198774 -0.00221197 -0.00117187 0.000682321 0.000565184 -0.00114853 0.00387621 0.00272457
像 -0.00464817 -0.00299822 -0.00141302 -0.00242547 -0.00457666 -0.00379976 0.00108525 0.00219375 -0.00443702 -0.00309366 -0.00131031 0.00411062 0.00358842 0.00100476 -0.000906673 0.00330774 -0.00222845 0.00124338 0.000883023 -0.00121085 -0.00194757 -0.0026859 -0.000837036 -0.00400686 0.00348467 -0.00102081 -0.00176328 0.00166672 0.00498948 0.00490664 0.00275989 0.00220535 -0.00404029 -0.00351277 -0.000709991 -0.00373613 0.00400383 -0.00159322 0.00169476 0.00495728 -0.00199373 -0.00360544 -0.000329966 0.00323456 0.00430583 -0.00113961 0.00430502 5.27246e-05 -0.0015376 -0.00312217 0.00307454 -0.00385347 0.00132176 -0.00400068 -0.00350784 0.0029939 0.0043984 0.000163893 -0.00438173 0.00321607 0.00233926 0.00329135 -0.00220802 -0.00268862 -0.00151353 0.00272618 -0.00282877 0.00129614 -0.00181867 -0.00283586 -0.00284834 -0.0040456 0.000185418 -0.00423975 0.00469021 -0.00182849 -0.00267521 0.00153576 0.00372286 0.000976724 -0.00407815 -0.00212957 0.00440912 0.0039897 -0.00059556 -0.00122342 0.00286788 -0.000240795 -0.000724823 0.00357465 -0.00204153 0.00480226 0.00231547 0.000284937 0.000608518 -0.00282096 0.000439875 -0.00180655 0.00464723 0.00297276
这么 0.00466434 -0.0019155 9.79332e-05 -0.00280657 -0.00167905 0.00137903 -0.00383206 0.00269479 0.00288629 1.41998e-06 -0.00145851 -0.00285962 -0.00394952 -0.000985893 -0.00126566 -0.000136639 -0.000519674 0.00420668 0.000914683 -0.00228979 -0.00497783 -0.00347778 -0.00433105 -0.00310831 -0.00258696 -0.00271852 0.00406105 -0.000364298 -0.00198166 0.00437533 -0.00155754 0.00207657 0.00198128 -0.00486351 0.00268235 0.00370119 -0.00407058 0.00139847 -0.00453191 -0.00456164 -0.000181881 -0.00164658 0.00323402 0.00294546 -0.000195861 -0.000418978 -0.00068592 0.00204965 0.00258688 0.00429462 0.00477198 -0.00272607 0.00158901 0.00323733 -0.00372456 -0.0012756 0.00454572 -0.00238512 0.00156363 -0.000655858 -0.00141476 0.00424088 0.00219287 -0.00160094 0.0014905 0.00372835 -0.00459479 -0.00492086 0.00108671 0.00290651 -0.00372831 -0.0018802 -0.00103108 0.000487584 -0.000281842 -0.00130051 0.00313654 0.000582814 0.000643948 -0.00427216 0.0048593 -0.00428919 -0.0019967 -0.00176617 0.00328763 0.00474691 -0.00389682 -0.00347565 0.00310989 -0.00195086 -0.00311199 -0.00191336 0.000196414 -0.00130044 -0.000163821 -0.00463781 0.0035175 0.00210626 0.000533156 0.0041428
